{"learner":{"attributes":{},"feature_names":["Weekday","Month","IsWeekend","ELO_home","ELO_away","ELO_diff"],"feature_types":["int","int","int","float","float","float"],"gradient_booster":{"model":{"cats":{"enc":[],"feature_segments":[],"sorted_idx":[]},"gbtree_model_param":{"num_parallel_tree":"1","num_trees":"300"},"iteration_indptr":[0,1,2,3,4,5,6,7,8,9,10,11,12,13,14,15,16,17,18,19,20,21,22,23,24,25,26,27,28,29,30,31,32,33,34,35,36,37,38,39,40,41,42,43,44,45,46,47,48,49,50,51,52,53,54,55,56,57,58,59,60,61,62,63,64,65,66,67,68,69,70,71,72,73,74,75,76,77,78,79,80,81,82,83,84,85,86,87,88,89,90,91,92,93,94,95,96,97,98,99,100,101,102,103,104,105,106,107,108,109,110,111,112,113,114,115,116,117,118,119,120,121,122,123,124,125,126,127,128,129,130,131,132,133,134,135,136,137,138,139,140,141,142,143,144,145,146,147,148,149,150,151,152,153,154,155,156,157,158,159,160,161,162,163,164,165,166,167,168,169,170,171,172,173,174,175,176,177,178,179,180,181,182,183,184,185,186,187,188,189,190,191,192,193,194,195,196,197,198,199,200,201,202,203,204,205,206,207,208,209,210,211,212,213,214,215,216,217,218,219,220,221,222,223,224,225,226,227,228,229,230,231,232,233,234,235,236,237,238,239,240,241,242,243,244,245,246,247,248,249,250,251,252,253,254,255,256,257,258,259,260,261,262,263,264,265,266,267,268,269,270,271,272,273,274,275,276,277,278,279,280,281,282,283,284,285,286,287,288,289,290,291,292,293,294,295,296,297,298,299,300],"tree_info":[0,0,0,0,0,0,0,0,0,0,0,0,0,0,0,0,0,0,0,0,0,0,0,0,0,0,0,0,0,0,0,0,0,0,0,0,0,0,0,0,0,0,0,0,0,0,0,0,0,0,0,0,0,0,0,0,0,0,0,0,0,0,0,0,0,0,0,0,0,0,0,0,0,0,0,0,0,0,0,0,0,0,0,0,0,0,0,0,0,0,0,0,0,0,0,0,0,0,0,0,0,0,0,0,0,0,0,0,0,0,0,0,0,0,0,0,0,0,0,0,0,0,0,0,0,0,0,0,0,0,0,0,0,0,0,0,0,0,0,0,0,0,0,0,0,0,0,0,0,0,0,0,0,0,0,0,0,0,0,0,0,0,0,0,0,0,0,0,0,0,0,0,0,0,0,0,0,0,0,0,0,0,0,0,0,0,0,0,0,0,0,0,0,0,0,0,0,0,0,0,0,0,0,0,0,0,0,0,0,0,0,0,0,0,0,0,0,0,0,0,0,0,0,0,0,0,0,0,0,0,0,0,0,0,0,0,0,0,0,0,0,0,0,0,0,0,0,0,0,0,0,0,0,0,0,0,0,0,0,0,0,0,0,0,0,0,0,0,0,0,0,0,0,0,0,0,0,0,0,0,0,0,0,0,0,0,0,0,0,0,0,0,0,0,0,0,0,0,0,0],"trees":[{"base_weights":[1.0923857E-2,-3.3125573E-1,4.0599358E-1,-5.349971E-1,-1.680525E-1,2.2269772E-1,8.472009E-1,-7.459373E-1,-4.66855E-1,-2.0580366E-1,6.9188945E-2,7.680186E-2,4.0310812E-1,7.494598E-1,1.2378323E0,-6.7348516E-1,-8.11887E-1,-3.7423643E-1,-5.235205E-1,-2.471308E-1,-3.7921388E-2,1.1177292E-1,-5.5976456E-1,1.5717545E0,7.104609E-2,2.2812818E-1,5.1306E-1,3.9213163E-1,8.371895E-1,1.276051E0,3.019493E-1,-4.206895E-2,-2.653057E-2,-4.9756657E-2,-3.3978123E-2,-4.9853545E-2,-1.7778156E-2,-2.6360942E-2,6.1617326E-2,-1.5947899E-2,-1.0123831E-2,6.3207187E-4,-1.9661758E-2,-2.196752E-2,7.237547E-3,1.5489767E-2,-3.401445E-2,1.1617324E-2,9.2425995E-2,4.0608915E-3,-1.568402E-2,3.0023016E-3,1.4054986E-2,5.434875E-2,2.408427E-2,2.8924853E-2,1.1053284E-2,3.3489965E-2,4.422401E-2,5.972747E-2,1.01279676E-1,-5.637794E-3,4.2425986E-2],"categories":[],"categories_nodes":[],"categories_segments":[],"categories_sizes":[],"default_left":[0,0,0,0,0,0,0,0,0,0,0,0,0,0,0,0,0,0,0,0,0,0,0,0,0,0,0,0,0,0,0,0,0,0,0,0,0,0,0,0,0,0,0,0,0,0,0,0,0,0,0,0,0,0,0,0,0,0,0,0,0,0,0],"id":0,"left_children":[1,3,5,7,9,11,13,15,17,19,21,23,25,27,29,31,33,35,37,39,41,43,45,47,49,51,53,55,57,59,61,-1,-1,-1,-1,-1,-1,-1,-1,-1,-1,-1,-1,-1,-1,-1,-1,-1,-1,-1,-1,-1,-1,-1,-1,-1,-1,-1,-1,-1,-1,-1,-1],"loss_changes":[9.7981866E2,1.2905789E2,2.7186304E2,2.4475464E1,1.9341583E1,6.256069E1,3.6756653E1,1.4600372E0,6.6688538E0,1.2909363E1,8.017218E0,1.1211983E1,2.0334412E1,2.4499603E1,6.6252747E0,4.4950104E0,4.5370636E0,5.4606857E0,5.903122E0,4.7272415E0,6.634302E0,5.13441E0,2.202011E0,1.4240112E0,5.159775E0,3.6513882E0,1.1216568E1,4.909275E0,4.4342346E0,9.065063E0,2.135666E0,0E0,0E0,0E0,0E0,0E0,0E0,0E0,0E0,0E0,0E0,0E0,0E0,0E0,0E0,0E0,0E0,0E0,0E0,0E0,0E0,0E0,0E0,0E0,0E0,0E0,0E0,0E0,0E0,0E0,0E0,0E0,0E0],"parents":[2147483647,0,0,1,1,2,2,3,3,4,4,5,5,6,6,7,7,8,8,9,9,10,10,11,11,12,12,13,13,14,14,15,15,16,16,17,17,18,18,19,19,20,20,21,21,22,22,23,23,24,24,25,25,26,26,27,27,28,28,29,29,30,30],"right_children":[2,4,6,8,10,12,14,16,18,20,22,24,26,28,30,32,34,36,38,40,42,44,46,48,50,52,54,56,58,60,62,-1,-1,-1,-1,-1,-1,-1,-1,-1,-1,-1,-1,-1,-1,-1,-1,-1,-1,-1,-1,-1,-1,-1,-1,-1,-1,-1,-1,-1,-1,-1,-1],"split_conditions":[1.1391558E1,-1.13261116E2,1.8192911E2,-2.5876587E2,1.7174644E3,1.7069651E3,3.0926407E2,1.5718086E3,1.7646719E3,-1.0801289E1,1.9129379E3,1.5293103E3,9.404191E1,1.7784564E3,1.6548801E3,1.5266412E3,1.907546E3,1.5983007E3,1.8289257E3,-6.87273E1,9.058077E0,1.7382461E3,-1.041393E2,1.5036615E3,1.6604141E3,1E0,1.7155902E3,2.0277707E2,1.5817223E3,1.6219879E3,1.670175E3,-4.206895E-2,-2.653057E-2,-4.9756657E-2,-3.3978123E-2,-4.9853545E-2,-1.7778156E-2,-2.6360942E-2,6.1617326E-2,-1.5947899E-2,-1.0123831E-2,6.3207187E-4,-1.9661758E-2,-2.196752E-2,7.237547E-3,1.5489767E-2,-3.401445E-2,1.1617324E-2,9.2425995E-2,4.0608915E-3,-1.568402E-2,3.0023016E-3,1.4054986E-2,5.434875E-2,2.408427E-2,2.8924853E-2,1.1053284E-2,3.3489965E-2,4.422401E-2,5.972747E-2,1.01279676E-1,-5.637794E-3,4.2425986E-2],"split_indices":[5,5,5,5,3,3,5,3,4,5,4,3,5,3,4,3,4,4,3,5,5,4,5,3,4,2,3,5,4,4,4,0,0,0,0,0,0,0,0,0,0,0,0,0,0,0,0,0,0,0,0,0,0,0,0,0,0,0,0,0,0,0,0],"split_type":[0,0,0,0,0,0,0,0,0,0,0,0,0,0,0,0,0,0,0,0,0,0,0,0,0,0,0,0,0,0,0,0,0,0,0,0,0,0,0,0,0,0,0,0,0,0,0,0,0,0,0,0,0,0,0,0,0,0,0,0,0,0,0],"sum_hessian":[7.246E3,3.883E3,3.363E3,1.726E3,2.157E3,2.377E3,9.86E2,4.19E2,1.307E3,1.861E3,2.96E2,1.315E3,1.062E3,7.91E2,1.95E2,2.05E2,2.14E2,4.99E2,8.08E2,1.493E3,3.68E2,2.78E2,1.8E1,4E0,1.311E3,4.11E2,6.51E2,1.57E2,6.34E2,1.87E2,8E0,9.2E1,1.13E2,8.7E1,1.27E2,1.3E1,4.86E2,8.07E2,1E0,5.7E2,9.23E2,3.23E2,4.5E1,1.5E1,2.63E2,2E0,1.6E1,1E0,3E0,1.278E3,3.3E1,9.9E1,3.12E2,3.2E1,6.19E2,7.4E1,8.3E1,1.43E2,4.91E2,1.71E2,1.6E1,5E0,3E0],"tree_param":{"num_deleted":"0","num_feature":"6","num_nodes":"63","size_leaf_vector":"1"}},{"base_weights":[2.2984685E-3,1.4537483E-1,-3.393123E-1,3.2932147E-1,5.5586047E-2,-2.4880771E-1,-5.6605136E-1,4.7327176E-1,3.0287325E-1,1.1826857E-2,2.1004169E-1,-1.3928439E-1,-3.0558428E-1,-6.2975407E-1,-4.2100734E-1,5.3773904E-1,2.483441E-1,2.7892137E-1,4.295591E-1,1.18039735E-1,-3.1116402E-2,3.6062968E-1,6.3172005E-2,-4.5240566E-1,-7.7615835E-2,-4.6260658E-1,-2.7107576E-1,-5.0521237E-1,-6.694297E-1,-9.1301864E-1,-3.6453784E-1,1.422664E-2,3.0322565E-2,4.953992E-2,4.894767E-3,1.1647368E-2,2.513606E-2,3.0509755E-2,4.9332576E-3,-9.867235E-3,6.9279717E-3,-8.07668E-5,-3.8554638E-3,3.3384287E-3,2.2282582E-2,-2.0600816E-3,8.984088E-3,-2.7644202E-2,-1.1619197E-2,-6.3175107E-3,6.336217E-3,-3.2557957E-2,-1.6947364E-2,-1.0889823E-2,-1.9326514E-2,-4.0960636E-2,-2.0474179E-2,-2.167394E-2,-3.475248E-2,-5.57926E-2,-3.320312E-2,-1.2081408E-2,-2.9896447E-2],"categories":[],"categories_nodes":[],"categories_segments":[],"categories_sizes":[],"default_left":[0,0,0,0,0,0,0,0,0,0,0,0,0,0,0,0,0,0,0,0,0,0,0,0,0,0,0,0,0,0,0,0,0,0,0,0,0,0,0,0,0,0,0,0,0,0,0,0,0,0,0,0,0,0,0,0,0,0,0,0,0,0,0],"id":1,"left_children":[1,3,5,7,9,11,13,15,17,19,21,23,25,27,29,31,33,35,37,39,41,43,45,47,49,51,53,55,57,59,61,-1,-1,-1,-1,-1,-1,-1,-1,-1,-1,-1,-1,-1,-1,-1,-1,-1,-1,-1,-1,-1,-1,-1,-1,-1,-1,-1,-1,-1,-1,-1,-1],"loss_changes":[3.5797137E2,8.5239075E1,4.4225403E1,6.302307E0,2.3450737E1,9.57724E0,5.426529E0,3.6510773E0,4.228424E0,1.2341521E1,1.6918701E1,1.0199046E1,5.3907394E0,1.7667847E0,4.9738426E0,3.341919E0,6.605084E0,1.2311974E1,1.3448124E1,5.068714E0,2.6145043E0,9.414436E0,4.737857E0,1.7948647E0,4.4375362E0,4.022854E0,5.0644836E0,2.880846E0,1.6331177E0,2.1844196E-1,4.818205E0,0E0,0E0,0E0,0E0,0E0,0E0,0E0,0E0,0E0,0E0,0E0,0E0,0E0,0E0,0E0,0E0,0E0,0E0,0E0,0E0,0E0,0E0,0E0,0E0,0E0,0E0,0E0,0E0,0E0,0E0,0E0,0E0],"parents":[2147483647,0,0,1,1,2,2,3,3,4,4,5,5,6,6,7,7,8,8,9,9,10,10,11,11,12,12,13,13,14,14,15,15,16,16,17,17,18,18,19,19,20,20,21,21,22,22,23,23,24,24,25,25,26,26,27,27,28,28,29,29,30,30],"right_children":[2,4,6,8,10,12,14,16,18,20,22,24,26,28,30,32,34,36,38,40,42,44,46,48,50,52,54,56,58,60,62,-1,-1,-1,-1,-1,-1,-1,-1,-1,-1,-1,-1,-1,-1,-1,-1,-1,-1,-1,-1,-1,-1,-1,-1,-1,-1,-1,-1,-1,-1,-1,-1],"split_conditions":[1.7279244E3,1.5971542E3,1.8623407E3,1.5172399E3,6E0,1.7646719E3,6E0,1.1E1,6E0,1.6243287E3,8E0,1.7345055E3,3E0,1.8803746E3,1.8737968E3,3E0,1.4627456E3,1.5876077E3,1.5826902E3,1.598955E3,1.6692726E3,1.6260914E3,1.1E1,1.1E1,1.7586045E3,1.7995887E3,1.8242297E3,1.8659231E3,2E0,5E0,1.9233489E3,1.422664E-2,3.0322565E-2,4.953992E-2,4.894767E-3,1.1647368E-2,2.513606E-2,3.0509755E-2,4.9332576E-3,-9.867235E-3,6.9279717E-3,-8.07668E-5,-3.8554638E-3,3.3384287E-3,2.2282582E-2,-2.0600816E-3,8.984088E-3,-2.7644202E-2,-1.1619197E-2,-6.3175107E-3,6.336217E-3,-3.2557957E-2,-1.6947364E-2,-1.0889823E-2,-1.9326514E-2,-4.0960636E-2,-2.0474179E-2,-2.167394E-2,-3.475248E-2,-5.57926E-2,-3.320312E-2,-1.2081408E-2,-2.9896447E-2],"split_indices":[4,4,4,4,0,4,0,1,0,4,1,4,0,4,4,1,4,4,4,4,4,4,1,1,4,4,4,4,1,1,4,0,0,0,0,0,0,0,0,0,0,0,0,0,0,0,0,0,0,0,0,0,0,0,0,0,0,0,0,0,0,0,0],"split_type":[0,0,0,0,0,0,0,0,0,0,0,0,0,0,0,0,0,0,0,0,0,0,0,0,0,0,0,0,0,0,0,0,0,0,0,0,0,0,0,0,0,0,0,0,0,0,0,0,0,0,0,0,0,0,0,0,0,0,0,0,0,0,0],"sum_hessian":[7.322E3,5.161E3,2.161E3,1.692E3,3.469E3,1.546E3,6.15E2,2.6E2,1.432E3,2.704E3,7.65E2,5.29E2,1.017E3,4.25E2,1.9E2,2.01E2,5.9E1,1.207E3,2.25E2,7.78E2,1.926E3,3.77E2,3.88E2,8.6E1,4.43E2,1.81E2,8.36E2,1.06E2,3.19E2,1.8E1,1.72E2,4.4E1,1.57E2,9E0,5E1,1.003E3,2.04E2,1.45E2,8E1,4.7E1,7.31E2,1.174E3,7.52E2,8.5E1,2.92E2,2.05E2,1.83E2,5.8E1,2.8E1,3.58E2,8.5E1,7E1,1.11E2,5.74E2,2.62E2,2.3E1,8.3E1,3.3E1,2.86E2,8E0,1E1,1.14E2,5.8E1],"tree_param":{"num_deleted":"0","num_feature":"6","num_nodes":"63","size_leaf_vector":"1"}},{"base_weights":[-6.724094E-3,-2.3582186E-1,4.8695013E-1,-1.0669648E-1,-5.2336127E-1,6.613054E-1,1.2237374E-1,6.229908E-2,-1.8868968E-1,-9.2768127E-1,-4.9842787E-1,5.4160666E-1,9.803536E-1,2.7739748E-1,-1.4512108E-1,-4.7049794E-1,9.189599E-2,-2.7502236E-1,-1.5101754E-2,-1.0499314E0,-7.547327E-1,-3.942265E-1,-6.1169666E-1,1.3403882E0,5.034908E-1,1.250041E0,8.291366E-1,1.6895553E-1,6.9488996E-1,-2.6234218E-1,7.850967E-2,-4.278425E-2,-1.598684E-2,2.3406672E-3,1.7642206E-2,-2.2323767E-2,-1.20459E-2,1.1944112E-4,-3.7103254E-2,-4.2635527E-2,-5.957998E-2,-3.1896066E-3,-4.2580795E-2,-2.0518778E-2,-7.625693E-3,-3.4204688E-2,-2.5568143E-2,7.988173E-2,2.3277115E-2,4.8617933E-2,2.4414495E-2,6.8022564E-2,2.0859454E-2,1.3813964E-2,4.417674E-2,1.2898575E-2,-1.1547464E-3,7.125242E-2,2.5524309E-2,2.8728282E-2,-1.4725159E-2,-3.301919E-2,8.175731E-3],"categories":[],"categories_nodes":[],"categories_segments":[],"categories_sizes":[],"default_left":[0,0,0,0,0,0,0,0,0,0,0,0,0,0,0,0,0,0,0,0,0,0,0,0,0,0,0,0,0,0,0,0,0,0,0,0,0,0,0,0,0,0,0,0,0,0,0,0,0,0,0,0,0,0,0,0,0,0,0,0,0,0,0],"id":2,"left_children":[1,3,5,7,9,11,13,15,17,19,21,23,25,27,29,31,33,35,37,39,41,43,45,47,49,51,53,55,57,59,61,-1,-1,-1,-1,-1,-1,-1,-1,-1,-1,-1,-1,-1,-1,-1,-1,-1,-1,-1,-1,-1,-1,-1,-1,-1,-1,-1,-1,-1,-1,-1,-1],"loss_changes":[8.2031354E2,1.838794E2,1.4605688E2,4.7400948E1,1.5012054E1,5.8854004E1,3.0933954E1,1.7673141E1,3.4509323E1,1.0681686E0,1.6849243E1,3.382071E1,1.621402E1,2.1251778E1,7.2033005E0,3.1526108E0,1.2453567E1,8.885567E0,9.741469E0,3.529663E-1,2.623293E0,2.892311E0,4.6767883E0,1.0733826E1,7.2440186E0,1.3225723E1,7.996292E0,6.4338875E0,1.2333004E1,5.0140514E0,6.0748944E0,0E0,0E0,0E0,0E0,0E0,0E0,0E0,0E0,0E0,0E0,0E0,0E0,0E0,0E0,0E0,0E0,0E0,0E0,0E0,0E0,0E0,0E0,0E0,0E0,0E0,0E0,0E0,0E0,0E0,0E0,0E0,0E0],"parents":[2147483647,0,0,1,1,2,2,3,3,4,4,5,5,6,6,7,7,8,8,9,9,10,10,11,11,12,12,13,13,14,14,15,15,16,16,17,17,18,18,19,19,20,20,21,21,22,22,23,23,24,24,25,25,26,26,27,27,28,28,29,29,30,30],"right_children":[2,4,6,8,10,12,14,16,18,20,22,24,26,28,30,32,34,36,38,40,42,44,46,48,50,52,54,56,58,60,62,-1,-1,-1,-1,-1,-1,-1,-1,-1,-1,-1,-1,-1,-1,-1,-1,-1,-1,-1,-1,-1,-1,-1,-1,-1,-1,-1,-1,-1,-1,-1,-1],"split_conditions":[1.7174644E3,1.7279244E3,1.7059022E3,1.5971542E3,1.5167688E3,1.8665913E3,1.821227E3,1.5201549E3,1.6415665E3,1.8190026E3,1.8190026E3,1.5172399E3,1.5951652E3,1.8874237E3,1.8289257E3,1.4631602E3,6E0,1.5421189E3,1.7155902E3,1.7646719E3,1.8325787E3,1.692721E3,9E0,1.1E1,1.7213815E3,6E0,1.6067155E3,1E1,5E0,1E0,1E0,-4.278425E-2,-1.598684E-2,2.3406672E-3,1.7642206E-2,-2.2323767E-2,-1.20459E-2,1.1944112E-4,-3.7103254E-2,-4.2635527E-2,-5.957998E-2,-3.1896066E-3,-4.2580795E-2,-2.0518778E-2,-7.625693E-3,-3.4204688E-2,-2.5568143E-2,7.988173E-2,2.3277115E-2,4.8617933E-2,2.4414495E-2,6.8022564E-2,2.0859454E-2,1.3813964E-2,4.417674E-2,1.2898575E-2,-1.1547464E-3,7.125242E-2,2.5524309E-2,2.8728282E-2,-1.4725159E-2,-3.301919E-2,8.175731E-3],"split_indices":[3,4,4,4,3,3,4,3,3,4,4,4,4,3,3,3,0,3,3,4,4,3,1,1,3,0,4,1,0,0,0,0,0,0,0,0,0,0,0,0,0,0,0,0,0,0,0,0,0,0,0,0,0,0,0,0,0,0,0,0,0,0,0],"split_type":[0,0,0,0,0,0,0,0,0,0,0,0,0,0,0,0,0,0,0,0,0,0,0,0,0,0,0,0,0,0,0,0,0,0,0,0,0,0,0,0,0,0,0,0,0,0,0,0,0,0,0,0,0,0,0,0,0,0,0,0,0,0,0],"sum_hessian":[7.251E3,4.953E3,2.298E3,3.419E3,1.534E3,1.554E3,7.44E2,1.117E3,2.302E3,8.7E1,1.447E3,1.132E3,4.22E2,4.71E2,2.73E2,5.8E1,1.059E3,1.537E3,7.65E2,4.8E1,3.9E1,7.56E2,6.91E2,5E1,1.082E3,1.49E2,2.73E2,3.75E2,9.6E1,1.79E2,9.4E1,1.5E1,4.3E1,9.04E2,1.55E2,2.53E2,1.284E3,7.48E2,1.7E1,2.3E1,2.5E1,5E0,3.4E1,7.08E2,4.8E1,3.98E2,2.93E2,3.8E1,1.2E1,3.2E1,1.05E3,1.31E2,1.8E1,2.5E1,2.48E2,2.56E2,1.19E2,1.8E1,7.8E1,6E0,1.73E2,9E0,8.5E1],"tree_param":{"num_deleted":"0","num_feature":"6","num_nodes":"63","size_leaf_vector":"1"}},{"base_weights":[-1.5420525E-3,1.2443037E-1,-2.9750136E-1,2.843053E-1,4.5297034E-2,-2.009888E-1,-4.6953532E-1,2.5408083E-1,4.3866837E-1,1.1936212E-2,1.7056888E-1,-2.602155E-1,-7.779813E-2,-4.9925375E-1,-3.7561277E-1,2.2672085E-1,5.53815E-1,6.0265666E-1,-8.0946245E-4,4.891642E-2,-8.139658E-2,3.3863392E-1,1.7614178E-2,-1.7787966E-1,-3.109807E-1,-1.7047457E-2,-3.5809076E-1,-5.382371E-1,-4.1794425E-1,-7.084834E-1,-2.8335416E-1,1.8329589E-2,1.0094998E-2,2.2202222E-2,4.2377833E-2,3.4327634E-2,1.3921074E-2,-2.9277198E-3,2.486709E-2,9.0872375E-3,3.9617662E-4,-2.0005248E-2,-2.7155343E-3,-1.7456923E-3,1.9614607E-2,1.0001372E-2,-1.7193463E-3,-1.1732089E-2,6.3846284E-4,-1.9942315E-2,-9.381532E-3,-1.6613571E-2,1.5676034E-3,-2.7845427E-2,1.1823973E-2,-1.9632723E-2,-3.0081276E-2,-2.8884092E-2,-1.192332E-2,-1.1767506E-2,-4.2675756E-2,-1.6165126E-2,3.8206521E-3],"categories":[],"categories_nodes":[],"categories_segments":[],"categories_sizes":[],"default_left":[0,0,0,0,0,0,0,0,0,0,0,0,0,0,0,0,0,0,0,0,0,0,0,0,0,0,0,0,0,0,0,0,0,0,0,0,0,0,0,0,0,0,0,0,0,0,0,0,0,0,0,0,0,0,0,0,0,0,0,0,0,0,0],"id":3,"left_children":[1,3,5,7,9,11,13,15,17,19,21,23,25,27,29,31,33,35,37,39,41,43,45,47,49,51,53,55,57,59,61,-1,-1,-1,-1,-1,-1,-1,-1,-1,-1,-1,-1,-1,-1,-1,-1,-1,-1,-1,-1,-1,-1,-1,-1,-1,-1,-1,-1,-1,-1,-1,-1],"loss_changes":[2.7197714E2,6.4724525E1,3.60679E1,7.791977E0,1.4307447E1,1.0172512E1,1.995224E0,1.1511261E1,1.9891598E1,9.340198E0,1.8502598E1,3.8862343E0,7.741619E0,1.6483612E0,5.6956005E0,4.4461746E0,3.4284592E0,5.276451E0,2.2153156E0,1.05510025E1,6.6080317E0,6.888756E0,3.592469E0,3.9204283E0,6.233013E0,5.731676E0,9.7067995E0,3.4181519E0,5.481434E0,2.6125164E0,2.2092638E0,0E0,0E0,0E0,0E0,0E0,0E0,0E0,0E0,0E0,0E0,0E0,0E0,0E0,0E0,0E0,0E0,0E0,0E0,0E0,0E0,0E0,0E0,0E0,0E0,0E0,0E0,0E0,0E0,0E0,0E0,0E0,0E0],"parents":[2147483647,0,0,1,1,2,2,3,3,4,4,5,5,6,6,7,7,8,8,9,9,10,10,11,11,12,12,13,13,14,14,15,15,16,16,17,17,18,18,19,19,20,20,21,21,22,22,23,23,24,24,25,25,26,26,27,27,28,28,29,29,30,30],"right_children":[2,4,6,8,10,12,14,16,18,20,22,24,26,28,30,32,34,36,38,40,42,44,46,48,50,52,54,56,58,60,62,-1,-1,-1,-1,-1,-1,-1,-1,-1,-1,-1,-1,-1,-1,-1,-1,-1,-1,-1,-1,-1,-1,-1,-1,-1,-1,-1,-1,-1,-1,-1,-1],"split_conditions":[1.7279244E3,1.5971542E3,1.843778E3,6E0,6E0,6E0,1.1E1,1.5920028E3,1.5826902E3,1.6692726E3,8E0,1.7674996E3,1.8190026E3,6E0,4E0,1.5136437E3,1.1E1,1.1E1,1.2E1,3E0,1E0,2E0,1.620634E3,1.7586045E3,9E0,1.7382461E3,1.8357284E3,3E0,1.8942899E3,1.8587242E3,1.9549052E3,1.8329589E-2,1.0094998E-2,2.2202222E-2,4.2377833E-2,3.4327634E-2,1.3921074E-2,-2.9277198E-3,2.486709E-2,9.0872375E-3,3.9617662E-4,-2.0005248E-2,-2.7155343E-3,-1.7456923E-3,1.9614607E-2,1.0001372E-2,-1.7193463E-3,-1.1732089E-2,6.3846284E-4,-1.9942315E-2,-9.381532E-3,-1.6613571E-2,1.5676034E-3,-2.7845427E-2,1.1823973E-2,-1.9632723E-2,-3.0081276E-2,-2.8884092E-2,-1.192332E-2,-1.1767506E-2,-4.2675756E-2,-1.6165126E-2,3.8206521E-3],"split_indices":[4,4,4,0,0,0,1,4,4,4,1,4,4,0,0,4,1,1,1,0,0,1,4,4,1,4,4,1,4,4,4,0,0,0,0,0,0,0,0,0,0,0,0,0,0,0,0,0,0,0,0,0,0,0,0,0,0,0,0,0,0,0,0],"split_type":[0,0,0,0,0,0,0,0,0,0,0,0,0,0,0,0,0,0,0,0,0,0,0,0,0,0,0,0,0,0,0,0,0,0,0,0,0,0,0,0,0,0,0,0,0,0,0,0,0,0,0,0,0,0,0,0,0,0,0,0,0,0,0],"sum_hessian":[7.293E3,5.116E3,2.177E3,1.693E3,3.423E3,1.396E3,7.81E2,1.418E3,2.75E2,2.704E3,7.19E2,9.42E2,4.54E2,5.9E2,1.91E2,1.301E3,1.17E2,2E2,7.5E1,1.937E3,7.67E2,3.42E2,3.77E2,3.61E2,5.81E2,3.74E2,8E1,3.95E2,1.95E2,4E1,1.51E2,1.94E2,1.107E3,8.7E1,3E1,1.58E2,4.2E1,6.8E1,7E0,4.56E2,1.481E3,5.9E1,7.08E2,4.3E1,2.99E2,8.3E1,2.94E2,2.78E2,8.3E1,3.38E2,2.43E2,4.9E1,3.25E2,6E1,2E1,1.22E2,2.73E2,1.02E2,9.3E1,1E1,3E1,1.36E2,1.5E1],"tree_param":{"num_deleted":"0","num_feature":"6","num_nodes":"63","size_leaf_vector":"1"}},{"base_weights":[1.980718E-3,-2.1261726E-1,4.62612E-1,-2.6240143E-1,-9.1874614E-2,2.766115E-1,7.3460567E-1,-5.94296E-1,-2.4696904E-1,-1.2714787E-1,3.2743447E-2,-2.1431854E-2,3.118917E-1,6.756289E-1,1.0621113E0,-5.258115E-1,-4.9376406E-2,-2.0123848E-1,-2.875626E-1,-1.598768E-1,-2.7110916E-2,9.0272166E-2,-5.302118E-1,3.5853195E-1,-1.178512E-1,2.2279009E-1,3.9531934E-1,7.3275715E-1,5.2884287E-1,5.341969E-1,1.120257E0,-3.067026E-2,-9.939344E-3,-1.413984E-2,-5.792864E-3,-2.1988405E-2,-1.2712334E-2,-3.9012774E-3,-9.593851E-3,-3.170289E-3,2.5335997E-2,2.198886E-2,2.5841896E-3,-1.1859997E-2,-3.5618763E-2,3.1972498E-2,-2.4696186E-2,-2.3645682E-2,4.2834165E-4,2.2608211E-2,8.128456E-3,4.426145E-2,1.8691255E-2,2.9938338E-2,4.136225E-2,3.5452098E-2,-5.5228374E-3,3.605549E-2,-1.0340954E-2,7.921833E-2,4.983664E-2],"categories":[],"categories_nodes":[],"categories_segments":[],"categories_sizes":[],"default_left":[0,0,0,0,0,0,0,0,0,0,0,0,0,0,0,0,0,0,0,0,0,0,0,0,0,0,0,0,0,0,0,0,0,0,0,0,0,0,0,0,0,0,0,0,0,0,0,0,0,0,0,0,0,0,0,0,0,0,0,0,0],"id":4,"left_children":[1,3,5,7,9,11,13,15,17,19,21,23,25,27,29,31,-1,33,35,37,39,41,43,45,47,49,51,53,55,57,59,-1,-1,-1,-1,-1,-1,-1,-1,-1,-1,-1,-1,-1,-1,-1,-1,-1,-1,-1,-1,-1,-1,-1,-1,-1,-1,-1,-1,-1,-1],"loss_changes":[7.219051E2,2.992305E1,1.17218414E2,1.7918228E1,6.4042797E0,1.4517426E1,1.7477356E1,3.6818695E0,6.2018127E0,3.711769E0,1.0476185E1,5.427725E0,9.0849E0,6.3293457E0,3.7603912E0,3.7451782E0,0E0,1.1032318E1,8.934616E0,2.224495E0,5.476594E0,3.928912E0,1.4323072E0,7.499943E0,5.300634E0,8.200558E0,6.36631E0,6.771759E0,2.63442E1,2.3652258E0,5.7015533E0,0E0,0E0,0E0,0E0,0E0,0E0,0E0,0E0,0E0,0E0,0E0,0E0,0E0,0E0,0E0,0E0,0E0,0E0,0E0,0E0,0E0,0E0,0E0,0E0,0E0,0E0,0E0,0E0,0E0,0E0],"parents":[2147483647,0,0,1,1,2,2,3,3,4,4,5,5,6,6,7,7,8,8,9,9,10,10,11,11,12,12,13,13,14,14,15,15,17,17,18,18,19,19,20,20,21,21,22,22,23,23,24,24,25,25,26,26,27,27,28,28,29,29,30,30],"right_children":[2,4,6,8,10,12,14,16,18,20,22,24,26,28,30,32,-1,34,36,38,40,42,44,46,48,50,52,54,56,58,60,-1,-1,-1,-1,-1,-1,-1,-1,-1,-1,-1,-1,-1,-1,-1,-1,-1,-1,-1,-1,-1,-1,-1,-1,-1,-1,-1,-1,-1,-1],"split_conditions":[1.7174644E3,1.6502275E3,1.8260396E3,1.4973047E3,1.6967205E3,2E0,1.9315809E3,1.2E1,6E0,1.1E1,1.7155902E3,2E0,1.767811E3,6E0,2E0,1E1,-4.9376406E-2,1.5999064E3,9E0,3E0,1.6891602E3,1.698095E3,6E0,1.8028387E3,1.7421707E3,4E0,1.7698486E3,1.8665913E3,1.1E1,1.9665094E3,5E0,-3.067026E-2,-9.939344E-3,-1.413984E-2,-5.792864E-3,-2.1988405E-2,-1.2712334E-2,-3.9012774E-3,-9.593851E-3,-3.170289E-3,2.5335997E-2,2.198886E-2,2.5841896E-3,-1.1859997E-2,-3.5618763E-2,3.1972498E-2,-2.4696186E-2,-2.3645682E-2,4.2834165E-4,2.2608211E-2,8.128456E-3,4.426145E-2,1.8691255E-2,2.9938338E-2,4.136225E-2,3.5452098E-2,-5.5228374E-3,3.605549E-2,-1.0340954E-2,7.921833E-2,4.983664E-2],"split_indices":[3,3,3,3,3,1,3,1,1,1,3,0,3,0,1,1,0,3,1,1,3,3,1,3,3,1,3,3,1,3,0,0,0,0,0,0,0,0,0,0,0,0,0,0,0,0,0,0,0,0,0,0,0,0,0,0,0,0,0,0,0],"split_type":[0,0,0,0,0,0,0,0,0,0,0,0,0,0,0,0,0,0,0,0,0,0,0,0,0,0,0,0,0,0,0,0,0,0,0,0,0,0,0,0,0,0,0,0,0,0,0,0,0,0,0,0,0,0,0,0,0,0,0,0,0],"sum_hessian":[7.301E3,4.981E3,2.32E3,3.526E3,1.455E3,1.379E3,9.41E2,1.55E2,3.371E3,1.134E3,3.21E2,1.46E2,1.233E3,8E2,1.41E2,1.34E2,2.1E1,1.588E3,1.783E3,8.54E2,2.8E2,2.92E2,2.9E1,2.9E1,1.17E2,5.98E2,6.35E2,5.73E2,2.27E2,1.5E1,1.26E2,1.05E2,2.9E1,8.11E2,7.77E2,3.18E2,1.465E3,2.41E2,6.13E2,2.63E2,1.7E1,2.8E1,2.64E2,1.2E1,1.7E1,2.2E1,7E0,3E1,8.7E1,1.23E2,4.75E2,2.5E1,6.1E2,2.4E2,3.33E2,1.77E2,5E1,1.2E1,3E0,2.4E1,1.02E2],"tree_param":{"num_deleted":"0","num_feature":"6","num_nodes":"61","size_leaf_vector":"1"}},{"base_weights":[-2.6544444E-3,-2.0419696E-1,4.728539E-1,-4.3963656E-1,-6.9803126E-2,2.7756733E-1,7.591663E-1,-6.114546E-1,-3.7775725E-1,-1.781483E-1,5.0230235E-2,7.11588E-2,3.701987E-1,6.565378E-1,1.2856598E0,-7.9525393E-1,-5.4686177E-1,-3.8184842E-1,8.1096105E-2,-2.0595247E-1,1.1499716E-2,-3.8750493E-3,2.8507164E-1,1.635768E-2,3.903999E-1,2.8778526E-1,4.489086E-1,4.9939585E-1,8.7220216E-1,4.556649E-1,1.3314694E0,-3.01182E-2,-4.246287E-2,6.3367593E-3,-2.8205082E-2,-1.8651126E-2,-3.8240723E-2,-2.6746828E-2,-9.688855E-3,8.363481E-3,-1.2475325E-2,7.5048886E-2,-4.9218064E-4,-2.0385932E-3,1.8673467E-2,2.305132E-2,-1.2954734E-3,2.2916032E-2,-5.151136E-2,9.055626E-2,1.3659154E-2,4.123305E-2,1.6777404E-2,5.1781066E-2,2.2762466E-2,4.9066346E-2,2.1785788E-2,1.0617321E-1,-9.121508E-4,1.1100727E-1,6.213071E-2],"categories":[],"categories_nodes":[],"categories_segments":[],"categories_sizes":[],"default_left":[0,0,0,0,0,0,0,0,0,0,0,0,0,0,0,0,0,0,0,0,0,0,0,0,0,0,0,0,0,0,0,0,0,0,0,0,0,0,0,0,0,0,0,0,0,0,0,0,0,0,0,0,0,0,0,0,0,0,0,0,0],"id":5,"left_children":[1,3,5,7,9,11,13,15,17,19,21,23,25,27,29,31,33,35,-1,37,39,41,43,45,47,49,51,53,55,57,59,-1,-1,-1,-1,-1,-1,-1,-1,-1,-1,-1,-1,-1,-1,-1,-1,-1,-1,-1,-1,-1,-1,-1,-1,-1,-1,-1,-1,-1,-1],"loss_changes":[7.01514E2,1.6263893E2,1.216236E2,1.9629578E1,4.2587433E1,2.4772171E1,4.6867218E1,5.4180603E0,1.187645E1,9.077209E0,1.9746479E1,7.044005E0,5.6764526E0,2.467688E1,4.8303986E0,8.009491E-1,4.3449707E0,4.358841E0,0E0,5.9086075E0,9.026912E0,1.1367781E1,8.397135E0,6.496178E0,6.165086E0,9.292614E0,1.9146835E1,9.731377E0,1.4385803E1,7.152188E0,7.901291E0,0E0,0E0,0E0,0E0,0E0,0E0,0E0,0E0,0E0,0E0,0E0,0E0,0E0,0E0,0E0,0E0,0E0,0E0,0E0,0E0,0E0,0E0,0E0,0E0,0E0,0E0,0E0,0E0,0E0,0E0],"parents":[2147483647,0,0,1,1,2,2,3,3,4,4,5,5,6,6,7,7,8,8,9,9,10,10,11,11,12,12,13,13,14,14,15,15,16,16,17,17,19,19,20,20,21,21,22,22,23,23,24,24,25,25,26,26,27,27,28,28,29,29,30,30],"right_children":[2,4,6,8,10,12,14,16,18,20,22,24,26,28,30,32,34,36,-1,38,40,42,44,46,48,50,52,54,56,58,60,-1,-1,-1,-1,-1,-1,-1,-1,-1,-1,-1,-1,-1,-1,-1,-1,-1,-1,-1,-1,-1,-1,-1,-1,-1,-1,-1,-1,-1,-1],"split_conditions":[7.813732E1,-1.0201931E2,1.9388358E2,-2.4975546E2,-5.4783306E0,1.6967205E3,3.271314E2,1.5359236E3,1.8289257E3,1.7674996E3,1.7326852E3,6E0,1.3823178E2,1.6084001E3,1.4306858E3,1.7768219E3,-3.984198E2,-1.041393E2,8.1096105E-2,1.5201549E3,1.7891069E3,1.5293103E3,5E0,8.2024704E1,1.605872E3,1.565736E3,1.5165031E2,2.0044632E2,2.7481088E2,3E0,1.4627456E3,-3.01182E-2,-4.246287E-2,6.3367593E-3,-2.8205082E-2,-1.8651126E-2,-3.8240723E-2,-2.6746828E-2,-9.688855E-3,8.363481E-3,-1.2475325E-2,7.5048886E-2,-4.9218064E-4,-2.0385932E-3,1.8673467E-2,2.305132E-2,-1.2954734E-3,2.2916032E-2,-5.151136E-2,9.055626E-2,1.3659154E-2,4.123305E-2,1.6777404E-2,5.1781066E-2,2.2762466E-2,4.9066346E-2,2.1785788E-2,1.0617321E-1,-9.121508E-4,1.1100727E-1,6.213071E-2],"split_indices":[5,5,5,5,5,3,5,3,3,4,3,0,5,4,4,4,5,5,0,3,3,3,0,5,4,4,5,5,5,0,4,0,0,0,0,0,0,0,0,0,0,0,0,0,0,0,0,0,0,0,0,0,0,0,0,0,0,0,0,0,0],"split_type":[0,0,0,0,0,0,0,0,0,0,0,0,0,0,0,0,0,0,0,0,0,0,0,0,0,0,0,0,0,0,0,0,0,0,0,0,0,0,0,0,0,0,0,0,0,0,0,0,0,0,0,0,0,0,0,0,0,0,0,0,0],"sum_hessian":[7.318E3,5.14E3,2.178E3,1.867E3,3.273E3,1.296E3,8.82E2,4.92E2,1.375E3,1.72E3,1.553E3,4.02E2,8.94E2,7.4E2,1.42E2,1.25E2,3.67E2,1.373E3,2E0,1.5E3,2.2E2,1.263E3,2.9E2,3.44E2,5.8E1,4.39E2,4.55E2,4.3E2,3.1E2,8E0,1.34E2,3E1,9.5E1,9E0,3.58E2,1.344E3,2.9E1,5.2E1,1.448E3,1.38E2,8.2E1,4E0,1.259E3,6.2E1,2.28E2,2.9E1,3.15E2,5.6E1,2E0,3E0,4.36E2,1.04E2,3.51E2,3.1E1,3.99E2,2.47E2,6.3E1,1E0,7E0,1E1,1.24E2],"tree_param":{"num_deleted":"0","num_feature":"6","num_nodes":"61","size_leaf_vector":"1"}},{"base_weights":[-4.823535E-3,-1.8709913E-1,4.143878E-1,-6.1295632E-2,-3.6896735E-1,5.441885E-1,8.778603E-2,7.3339455E-2,-1.4319587E-1,-3.0649602E-1,-5.605576E-1,4.130496E-1,8.7521183E-1,2.1826988E-1,-1.8379402E-1,-8.094E-1,8.505454E-2,-2.3373091E-1,-2.873179E-2,-6.3070375E-1,-2.692592E-1,-7.454215E-1,-4.667528E-1,1.1906235E0,3.8208097E-1,1.0759629E0,7.632054E-1,1.052828E-1,3.9460337E-1,8.993576E-2,-2.613426E-1,-1.8306796E-2,-4.68651E-2,2.8320253E-3,1.6115664E-2,-6.326576E-3,-1.599696E-2,-4.8421756E-3,3.946802E-3,-3.5157938E-2,-2.1714015E-2,-1.4896733E-2,-4.4530565E-3,-3.140209E-2,-4.6043396E-2,-1.4134658E-2,-2.7372295E-2,7.281239E-2,1.9153673E-2,1.3903478E-2,2.1811875E-2,6.313739E-2,3.7491765E-2,9.204368E-4,4.1965403E-2,-1.53706195E-2,7.3228376E-3,3.0505419E-2,1.3343184E-2,1.4490685E-2,-2.1987004E-2,-1.4259313E-2,2.6742367E-2],"categories":[],"categories_nodes":[],"categories_segments":[],"categories_sizes":[],"default_left":[0,0,0,0,0,0,0,0,0,0,0,0,0,0,0,0,0,0,0,0,0,0,0,0,0,0,0,0,0,0,0,0,0,0,0,0,0,0,0,0,0,0,0,0,0,0,0,0,0,0,0,0,0,0,0,0,0,0,0,0,0,0,0],"id":6,"left_children":[1,3,5,7,9,11,13,15,17,19,21,23,25,27,29,31,33,35,37,39,41,43,45,47,49,51,53,55,57,59,61,-1,-1,-1,-1,-1,-1,-1,-1,-1,-1,-1,-1,-1,-1,-1,-1,-1,-1,-1,-1,-1,-1,-1,-1,-1,-1,-1,-1,-1,-1,-1,-1],"loss_changes":[5.5750305E2,1.16320465E2,9.368344E1,3.316762E1,2.4711517E1,6.83132E1,2.2365309E1,1.1837315E1,1.9372116E1,1.878395E1,8.496063E0,2.6876358E1,9.252289E0,8.4458275E0,4.375113E0,5.072355E-1,7.559163E0,9.60762E0,6.0724006E0,1.9859543E0,7.259308E0,2.9226074E0,4.909889E0,8.665859E0,6.035446E0,8.677841E0,1.647873E1,4.480011E0,4.4069214E0,4.997486E0,3.1899815E0,0E0,0E0,0E0,0E0,0E0,0E0,0E0,0E0,0E0,0E0,0E0,0E0,0E0,0E0,0E0,0E0,0E0,0E0,0E0,0E0,0E0,0E0,0E0,0E0,0E0,0E0,0E0,0E0,0E0,0E0,0E0,0E0],"parents":[2147483647,0,0,1,1,2,2,3,3,4,4,5,5,6,6,7,7,8,8,9,9,10,10,11,11,12,12,13,13,14,14,15,15,16,16,17,17,18,18,19,19,20,20,21,21,22,22,23,23,24,24,25,25,26,26,27,27,28,28,29,29,30,30],"right_children":[2,4,6,8,10,12,14,16,18,20,22,24,26,28,30,32,34,36,38,40,42,44,46,48,50,52,54,56,58,60,62,-1,-1,-1,-1,-1,-1,-1,-1,-1,-1,-1,-1,-1,-1,-1,-1,-1,-1,-1,-1,-1,-1,-1,-1,-1,-1,-1,-1,-1,-1,-1,-1],"split_conditions":[1.7255765E3,1.6810652E3,1.7257786E3,1.5971542E3,1.8547445E3,1.8665913E3,1.843778E3,1.4631602E3,1.628491E3,1.5382675E3,1.5959504E3,1.5136437E3,1.5951652E3,1.8289257E3,3E0,1.5419061E3,1.6950355E3,8E0,1.672859E3,1E1,1.683386E3,1.5718086E3,1.6291769E3,1.1E1,1.767811E3,1E1,1.6067155E3,1.7345055E3,1.7646719E3,1.9129379E3,1.9536891E3,-1.8306796E-2,-4.68651E-2,2.8320253E-3,1.6115664E-2,-6.326576E-3,-1.599696E-2,-4.8421756E-3,3.946802E-3,-3.5157938E-2,-2.1714015E-2,-1.4896733E-2,-4.4530565E-3,-3.140209E-2,-4.6043396E-2,-1.4134658E-2,-2.7372295E-2,7.281239E-2,1.9153673E-2,1.3903478E-2,2.1811875E-2,6.313739E-2,3.7491765E-2,9.204368E-4,4.1965403E-2,-1.53706195E-2,7.3228376E-3,3.0505419E-2,1.3343184E-2,1.4490685E-2,-2.1987004E-2,-1.4259313E-2,2.6742367E-2],"split_indices":[3,4,4,4,4,3,4,3,3,3,3,4,4,3,1,4,3,1,3,1,3,3,3,1,3,1,4,4,4,4,3,0,0,0,0,0,0,0,0,0,0,0,0,0,0,0,0,0,0,0,0,0,0,0,0,0,0,0,0,0,0,0,0],"split_type":[0,0,0,0,0,0,0,0,0,0,0,0,0,0,0,0,0,0,0,0,0,0,0,0,0,0,0,0,0,0,0,0,0,0,0,0,0,0,0,0,0,0,0,0,0,0,0,0,0,0,0,0,0,0,0,0,0,0,0,0,0,0,0],"sum_hessian":[7.294E3,5.084E3,2.21E3,3.006E3,2.078E3,1.581E3,6.29E2,1.137E3,1.869E3,1.569E3,5.09E2,1.134E3,4.47E2,4.25E2,2.04E2,1.4E1,1.123E3,1.043E3,8.26E2,1.6E2,1.409E3,1.69E2,3.4E2,4.2E1,1.092E3,1.57E2,2.9E2,2.6E2,1.65E2,4.5E1,1.59E2,4E0,1E1,1.004E3,1.19E2,4.66E2,5.77E2,5.06E2,3.2E2,1.15E2,4.5E1,1.215E3,1.94E2,1.04E2,6.5E1,1.05E2,2.35E2,3.1E1,1.1E1,3.76E2,7.16E2,9.8E1,5.9E1,2.7E1,2.63E2,2.3E1,2.37E2,6E1,1.05E2,3.3E1,1.2E1,1.55E2,4E0],"tree_param":{"num_deleted":"0","num_feature":"6","num_nodes":"63","size_leaf_vector":"1"}},{"base_weights":[1.4254234E-2,-1.4525831E-1,5.1873404E-1,-3.5193354E-1,6.1556357E-3,3.5328963E-1,7.411373E-1,-5.067734E-1,-2.5946316E-1,-1.1472572E-1,8.150475E-2,7.2018124E-2,4.230839E-1,3.868973E-1,8.397843E-1,-7.568205E-1,-4.6771532E-1,-2.3704726E-1,-3.861563E-1,-1.5984495E-1,4.9898885E-2,2.9294778E-2,2.2409107E-1,-2.7171767E-1,1.3831967E-1,3.960664E-1,1.1114364E0,4.8451844E-1,-4.9148202E-1,7.566042E-1,1.098774E0,-4.1272912E-2,-2.0187024E-2,-3.1600904E-2,-2.0973312E-2,-9.480435E-3,-1.607441E-2,-2.9526545E-2,-1.3021856E-2,-9.493437E-3,1.48839755E-2,3.4022044E-2,-6.795842E-5,7.39967E-2,1.2630842E-3,-1.425418E-2,1.4607749E-2,-4.122356E-2,-1.5041078E-3,1.6681572E-2,-4.020052E-3,2.4021769E-2,1.6832156E-2,2.0416772E-2,6.966604E-2,1.6350126E-2,3.5635855E-2,-3.2931764E-2,2.0706344E-3,4.3476354E-2,2.8228391E-2,6.012681E-2,2.593278E-2],"categories":[],"categories_nodes":[],"categories_segments":[],"categories_sizes":[],"default_left":[0,0,0,0,0,0,0,0,0,0,0,0,0,0,0,0,0,0,0,0,0,0,0,0,0,0,0,0,0,0,0,0,0,0,0,0,0,0,0,0,0,0,0,0,0,0,0,0,0,0,0,0,0,0,0,0,0,0,0,0,0,0,0],"id":7,"left_children":[1,3,5,7,9,11,13,15,17,19,21,23,25,27,29,31,33,35,37,39,41,43,45,47,49,51,53,55,57,59,61,-1,-1,-1,-1,-1,-1,-1,-1,-1,-1,-1,-1,-1,-1,-1,-1,-1,-1,-1,-1,-1,-1,-1,-1,-1,-1,-1,-1,-1,-1,-1,-1],"loss_changes":[5.888806E2,1.7399411E2,6.442441E1,3.3530396E1,2.9247002E1,1.9796982E1,2.5848694E1,8.220886E0,4.094536E0,9.166374E0,1.47185135E1,4.641207E0,1.4605225E1,1.4386618E1,1.1771179E1,2.502182E0,5.7756195E0,4.966263E0,5.4988403E0,1.3353567E1,8.598139E0,8.440078E0,1.8451195E1,4.3828387E0,7.2890077E0,3.748787E0,5.376854E0,5.1227303E0,1.5415521E0,9.18074E0,7.803528E0,0E0,0E0,0E0,0E0,0E0,0E0,0E0,0E0,0E0,0E0,0E0,0E0,0E0,0E0,0E0,0E0,0E0,0E0,0E0,0E0,0E0,0E0,0E0,0E0,0E0,0E0,0E0,0E0,0E0,0E0,0E0,0E0],"parents":[2147483647,0,0,1,1,2,2,3,3,4,4,5,5,6,6,7,7,8,8,9,9,10,10,11,11,12,12,13,13,14,14,15,15,16,16,17,17,18,18,19,19,20,20,21,21,22,22,23,23,24,24,25,25,26,26,27,27,28,28,29,29,30,30],"right_children":[2,4,6,8,10,12,14,16,18,20,22,24,26,28,30,32,34,36,38,40,42,44,46,48,50,52,54,56,58,60,62,-1,-1,-1,-1,-1,-1,-1,-1,-1,-1,-1,-1,-1,-1,-1,-1,-1,-1,-1,-1,-1,-1,-1,-1,-1,-1,-1,-1,-1,-1,-1,-1],"split_conditions":[1.135818E2,-6.87273E1,1.8289257E3,-1.939875E2,-2.871807E0,1.6950355E3,1.9704803E2,1.5167688E3,1.2E1,6E0,1.7174644E3,1.6250549E3,2.8732495E2,1.903176E2,3.271314E2,-2.320627E2,-3.0245993E2,1.6364745E3,1.5848966E3,1.745018E3,-6.424753E1,1.5293103E3,2E0,1.2585368E2,1.667997E3,5E0,1.767811E3,1.894185E3,1E1,2.7481088E2,1.2E1,-4.1272912E-2,-2.0187024E-2,-3.1600904E-2,-2.0973312E-2,-9.480435E-3,-1.607441E-2,-2.9526545E-2,-1.3021856E-2,-9.493437E-3,1.48839755E-2,3.4022044E-2,-6.795842E-5,7.39967E-2,1.2630842E-3,-1.425418E-2,1.4607749E-2,-4.122356E-2,-1.5041078E-3,1.6681572E-2,-4.020052E-3,2.4021769E-2,1.6832156E-2,2.0416772E-2,6.966604E-2,1.6350126E-2,3.5635855E-2,-3.2931764E-2,2.0706344E-3,4.3476354E-2,2.8228391E-2,6.012681E-2,2.593278E-2],"split_indices":[5,5,3,5,5,3,5,3,1,0,3,3,5,5,5,5,5,3,3,3,5,3,1,5,3,1,3,3,1,5,1,0,0,0,0,0,0,0,0,0,0,0,0,0,0,0,0,0,0,0,0,0,0,0,0,0,0,0,0,0,0,0,0],"split_type":[0,0,0,0,0,0,0,0,0,0,0,0,0,0,0,0,0,0,0,0,0,0,0,0,0,0,0,0,0,0,0,0,0,0,0,0,0,0,0,0,0,0,0,0,0,0,0,0,0,0,0,0,0,0,0,0,0,0,0,0,0,0,0],"sum_hessian":[7.316E3,5.559E3,1.757E3,2.35E3,3.209E3,1.009E3,7.48E2,8.77E2,1.473E3,1.232E3,1.977E3,2.01E2,8.08E2,1.64E2,5.84E2,1.16E2,7.61E2,1.254E3,2.19E2,9.67E2,2.65E2,1.448E3,5.29E2,3.2E1,1.69E2,7.79E2,2.9E1,1.48E2,1.6E1,4.45E2,1.39E2,9.6E1,2E1,1.7E2,5.91E2,8.05E2,4.49E2,8.2E1,1.37E2,9.08E2,5.9E1,1.9E1,2.46E2,3E0,1.445E3,6.2E1,4.67E2,9E0,2.3E1,8.9E1,8E1,3.19E2,4.6E2,9E0,2E1,8.9E1,5.9E1,1.2E1,4E0,2.78E2,1.67E2,1.17E2,2.2E1],"tree_param":{"num_deleted":"0","num_feature":"6","num_nodes":"63","size_leaf_vector":"1"}},{"base_weights":[-2.1814709E-3,1.16894506E-1,-2.2733732E-1,2.273742E-1,5.481747E-2,-1.5722272E-1,-4.212504E-1,5.2169496E-1,2.1061245E-1,1.05959594E-1,9.673181E-3,-1.0694747E-1,-2.2481963E-1,-4.5740822E-1,-3.3856547E-1,9.8332584E-1,7.804735E-2,5.781125E-1,1.9740367E-1,5.853785E-2,3.5959578E-1,-4.2918393E-1,1.8741233E-2,-5.2160658E-2,-2.0931159E-1,-3.6670488E-1,-1.9299176E-1,-3.4480736E-1,-5.064958E-1,-4.6383563E-1,-2.5501654E-1,-1.6028108E-2,5.771629E-2,-1.769175E-3,4.3898027E-2,8.001668E-3,4.952381E-2,9.419985E-3,3.2726396E-2,1.3525065E-3,1.1380027E-2,1.7881982E-3,2.4647644E-2,3.2192953E-2,-2.4141856E-2,4.6952306E-3,-1.0325679E-3,-5.1312307E-3,3.9138976E-3,-1.9067394E-3,-1.2993785E-2,-2.8304068E-2,-1.5575244E-2,-6.2582255E-3,-1.2888848E-2,-2.1191744E-2,1.5695127E-2,-1.2390449E-2,-2.6763827E-2,-1.8661097E-2,-3.0043516E-2,-6.381911E-3,-1.9756418E-2],"categories":[],"categories_nodes":[],"categories_segments":[],"categories_sizes":[],"default_left":[0,0,0,0,0,0,0,0,0,0,0,0,0,0,0,0,0,0,0,0,0,0,0,0,0,0,0,0,0,0,0,0,0,0,0,0,0,0,0,0,0,0,0,0,0,0,0,0,0,0,0,0,0,0,0,0,0,0,0,0,0,0,0],"id":8,"left_children":[1,3,5,7,9,11,13,15,17,19,21,23,25,27,29,31,33,35,37,39,41,43,45,47,49,51,53,55,57,59,61,-1,-1,-1,-1,-1,-1,-1,-1,-1,-1,-1,-1,-1,-1,-1,-1,-1,-1,-1,-1,-1,-1,-1,-1,-1,-1,-1,-1,-1,-1,-1,-1],"loss_changes":[1.9601244E2,3.278369E1,3.4318405E1,8.37545E0,7.070751E0,6.2936783E0,1.8512344E0,1.8764984E1,7.7934113E0,1.7250973E1,6.4867983E0,5.9786444E0,3.5058289E0,2.39003E0,2.0586834E0,1.0403454E1,4.3863378E0,9.495928E0,6.3551674E0,6.440479E0,9.742239E0,2.210761E0,4.727504E0,4.595999E0,3.209898E0,1.4084663E0,2.8195744E0,7.629137E0,2.2572556E0,7.9395294E-1,2.2161617E0,0E0,0E0,0E0,0E0,0E0,0E0,0E0,0E0,0E0,0E0,0E0,0E0,0E0,0E0,0E0,0E0,0E0,0E0,0E0,0E0,0E0,0E0,0E0,0E0,0E0,0E0,0E0,0E0,0E0,0E0,0E0,0E0],"parents":[2147483647,0,0,1,1,2,2,3,3,4,4,5,5,6,6,7,7,8,8,9,9,10,10,11,11,12,12,13,13,14,14,15,15,16,16,17,17,18,18,19,19,20,20,21,21,22,22,23,23,24,24,25,25,26,26,27,27,28,28,29,29,30,30],"right_children":[2,4,6,8,10,12,14,16,18,20,22,24,26,28,30,32,34,36,38,40,42,44,46,48,50,52,54,56,58,60,62,-1,-1,-1,-1,-1,-1,-1,-1,-1,-1,-1,-1,-1,-1,-1,-1,-1,-1,-1,-1,-1,-1,-1,-1,-1,-1,-1,-1,-1,-1,-1,-1],"split_conditions":[1.6997234E3,1.5971542E3,1.8547445E3,1E0,6E0,1.778516E3,6E0,9E0,1.4627456E3,5E0,1.598955E3,1E1,1.7897705E3,1.8803746E3,1.8898546E3,1.509365E3,1.5920028E3,1.4306858E3,1.5962706E3,6E0,1.6213185E3,1E0,1.6260914E3,7E0,1.7137865E3,3E0,1.8162494E3,1.2E1,2E0,9E0,1.9233489E3,-1.6028108E-2,5.771629E-2,-1.769175E-3,4.3898027E-2,8.001668E-3,4.952381E-2,9.419985E-3,3.2726396E-2,1.3525065E-3,1.1380027E-2,1.7881982E-3,2.4647644E-2,3.2192953E-2,-2.4141856E-2,4.6952306E-3,-1.0325679E-3,-5.1312307E-3,3.9138976E-3,-1.9067394E-3,-1.2993785E-2,-2.8304068E-2,-1.5575244E-2,-6.2582255E-3,-1.2888848E-2,-2.1191744E-2,1.5695127E-2,-1.2390449E-2,-2.6763827E-2,-1.8661097E-2,-3.0043516E-2,-6.381911E-3,-1.9756418E-2],"split_indices":[4,4,4,0,1,4,0,1,4,1,4,1,4,4,4,4,4,4,4,0,4,0,4,1,4,0,4,1,1,1,4,0,0,0,0,0,0,0,0,0,0,0,0,0,0,0,0,0,0,0,0,0,0,0,0,0,0,0,0,0,0,0,0],"split_type":[0,0,0,0,0,0,0,0,0,0,0,0,0,0,0,0,0,0,0,0,0,0,0,0,0,0,0,0,0,0,0,0,0,0,0,0,0,0,0,0,0,0,0,0,0,0,0,0,0,0,0,0,0,0,0,0,0,0,0,0,0,0,0],"sum_hessian":[7.309E3,4.781E3,2.528E3,1.719E3,3.062E3,1.858E3,6.7E2,9.1E1,1.628E3,1.435E3,1.627E3,1.067E3,7.91E2,4.63E2,2.07E2,4.4E1,4.7E1,5.5E1,1.573E3,1.21E3,2.25E2,3.2E1,1.595E3,6.96E2,3.71E2,1.43E2,6.48E2,1.43E2,3.2E2,8.1E1,1.26E2,5E0,3.9E1,4.2E1,5E0,2.8E1,2.7E1,1.544E3,2.9E1,1.021E3,1.89E2,6.6E1,1.59E2,1E0,3.1E1,5.48E2,1.047E3,5.02E2,1.94E2,8.5E1,2.86E2,2.9E1,1.14E2,3.18E2,3.3E2,1.28E2,1.5E1,3.3E1,2.87E2,5.1E1,3E1,6.7E1,5.9E1],"tree_param":{"num_deleted":"0","num_feature":"6","num_nodes":"63","size_leaf_vector":"1"}},{"base_weights":[-2.4274108E-3,-1.74072E-1,3.989701E-1,-2.951619E-1,8.034712E-3,2.4188897E-1,6.2854993E-1,-4.61401E-1,-2.2672322E-1,-2.2806572E-2,3.187505E-1,5.9118837E-2,3.4137267E-1,4.4476008E-1,8.2199097E-1,-5.930857E-1,-4.1635537E-1,-2.800449E-1,-1.8374495E-1,2.5387543E-1,-4.175954E-2,9.403746E-1,2.328948E-1,-1.8131215E-2,4.4764057E-1,4.6794516E-1,2.5376394E-1,3.75168E-1,9.6684384E-1,1.0086293E0,6.9727635E-1,-5.3369213E-2,-2.8303036E-2,-1.3842853E-2,-2.2969378E-2,-1.4280929E-2,8.030816E-2,4.826156E-3,-1.0309129E-2,-1.2217393E-3,2.1479188E-2,-9.309966E-3,-4.430524E-4,-1.75891E-2,5.435897E-2,-1.7213758E-2,1.8018696E-2,4.0949475E-2,-2.723925E-3,2.6575297E-2,-4.2477455E-2,2.074837E-2,5.2361637E-2,-4.0803393E-3,1.52595015E-2,3.3183444E-2,1.5038239E-2,4.7895047E-3,5.9634812E-2,3.9824665E-2,5.9862524E-2,4.568351E-2,1.7823093E-2],"categories":[],"categories_nodes":[],"categories_segments":[],"categories_sizes":[],"default_left":[0,0,0,0,0,0,0,0,0,0,0,0,0,0,0,0,0,0,0,0,0,0,0,0,0,0,0,0,0,0,0,0,0,0,0,0,0,0,0,0,0,0,0,0,0,0,0,0,0,0,0,0,0,0,0,0,0,0,0,0,0,0,0],"id":9,"left_children":[1,3,5,7,9,11,13,15,17,19,21,23,25,27,29,31,33,35,37,39,41,43,45,47,49,51,53,55,57,59,61,-1,-1,-1,-1,-1,-1,-1,-1,-1,-1,-1,-1,-1,-1,-1,-1,-1,-1,-1,-1,-1,-1,-1,-1,-1,-1,-1,-1,-1,-1,-1,-1],"loss_changes":[5.014381E2,1.1241983E2,7.846457E1,3.473233E1,1.9527584E1,2.3544533E1,3.1098389E1,5.044235E0,4.923767E0,9.732876E0,9.6010685E0,1.3754218E1,9.184799E0,1.6205063E1,9.305603E0,2.279831E0,3.8827667E0,1.0624893E1,7.5976067E0,5.829765E0,8.247562E0,4.5557327E0,1.2117138E1,1.1698183E1,8.719527E0,1.0061195E1,8.613815E0,8.472416E0,1.0312416E1,5.848648E0,1.8923111E1,0E0,0E0,0E0,0E0,0E0,0E0,0E0,0E0,0E0,0E0,0E0,0E0,0E0,0E0,0E0,0E0,0E0,0E0,0E0,0E0,0E0,0E0,0E0,0E0,0E0,0E0,0E0,0E0,0E0,0E0,0E0,0E0],"parents":[2147483647,0,0,1,1,2,2,3,3,4,4,5,5,6,6,7,7,8,8,9,9,10,10,11,11,12,12,13,13,14,14,15,15,16,16,17,17,18,18,19,19,20,20,21,21,22,22,23,23,24,24,25,25,26,26,27,27,28,28,29,29,30,30],"right_children":[2,4,6,8,10,12,14,16,18,20,22,24,26,28,30,32,34,36,38,40,42,44,46,48,50,52,54,56,58,60,62,-1,-1,-1,-1,-1,-1,-1,-1,-1,-1,-1,-1,-1,-1,-1,-1,-1,-1,-1,-1,-1,-1,-1,-1,-1,-1,-1,-1,-1,-1,-1,-1],"split_conditions":[7.813732E1,-2.9230963E1,1.9388358E2,-1.939875E2,1.7586045E3,1.7069651E3,1.8665913E3,-3.0245993E2,-1.0201931E2,1E0,-1.7200163E1,6E0,1.6302864E3,2.8732495E2,2.7481088E2,1.7897705E3,5E0,1.8289257E3,1.6001647E3,9.058077E0,-1.0801289E1,1.739872E3,-5.4783306E0,7.998437E1,1.605872E3,1.6251814E3,1.6403834E3,2.0277707E2,5E0,1.894185E3,1.5942028E3,-5.3369213E-2,-2.8303036E-2,-1.3842853E-2,-2.2969378E-2,-1.4280929E-2,8.030816E-2,4.826156E-3,-1.0309129E-2,-1.2217393E-3,2.1479188E-2,-9.309966E-3,-4.430524E-4,-1.75891E-2,5.435897E-2,-1.7213758E-2,1.8018696E-2,4.0949475E-2,-2.723925E-3,2.6575297E-2,-4.2477455E-2,2.074837E-2,5.2361637E-2,-4.0803393E-3,1.52595015E-2,3.3183444E-2,1.5038239E-2,4.7895047E-3,5.9634812E-2,3.9824665E-2,5.9862524E-2,4.568351E-2,1.7823093E-2],"split_indices":[5,5,5,5,4,3,3,5,5,0,5,0,4,5,5,4,0,3,4,5,5,3,5,5,4,4,4,5,0,3,4,0,0,0,0,0,0,0,0,0,0,0,0,0,0,0,0,0,0,0,0,0,0,0,0,0,0,0,0,0,0,0,0],"split_type":[0,0,0,0,0,0,0,0,0,0,0,0,0,0,0,0,0,0,0,0,0,0,0,0,0,0,0,0,0,0,0,0,0,0,0,0,0,0,0,0,0,0,0,0,0,0,0,0,0,0,0,0,0,0,0,0,0,0,0,0,0,0,0],"sum_hessian":[7.276E3,5.097E3,2.179E3,3.061E3,2.036E3,1.295E3,8.84E2,8.91E2,2.17E3,1.853E3,1.83E2,4.57E2,8.38E2,4.55E2,4.29E2,2.24E2,6.67E2,9.66E2,1.204E3,1.18E2,1.735E3,2.1E1,1.62E2,3.82E2,7.5E1,3.41E2,4.97E2,4.03E2,5.2E1,1.69E2,2.6E2,1E1,2.14E2,1.59E2,5.08E2,9.64E2,2E0,8.9E1,1.115E3,4.6E1,7.2E1,3.21E2,1.414E3,2E0,1.9E1,2.9E1,1.33E2,1.5E1,3.67E2,7.1E1,4E0,3.14E2,2.7E1,6.6E1,4.31E2,8.1E1,3.22E2,1.1E1,4.1E1,8.2E1,8.7E1,1.58E2,1.02E2],"tree_param":{"num_deleted":"0","num_feature":"6","num_nodes":"63","size_leaf_vector":"1"}},{"base_weights":[3.8335647E-3,-1.5426342E-1,4.2370227E-1,-3.4273335E-1,-5.0788913E-2,3.044785E-1,7.3141694E-1,-4.1280988E-1,-2.7859363E-1,-1.4779823E-1,2.9241106E-2,-2.631549E-4,3.8326818E-1,3.7194228E-1,8.2555616E-1,-5.594669E-1,-3.7422156E-1,-2.1063237E-1,-3.560577E-1,-1.809158E-1,7.295213E-2,1.276912E0,2.4542479E-2,3.9860845E-1,-3.853031E-2,3.6637905E-1,7.444614E-1,6.3489445E-2,3.119705E-1,7.6722366E-1,1.2188735E0,-3.2172423E-2,-1.7268667E-2,-1.1114466E-2,-2.1445522E-2,-1.1383839E-2,5.4158982E-2,-1.8205184E-2,4.9146757E-2,6.6533512E-3,-9.683781E-3,-9.1223913E-4,2.620544E-2,1.4228876E-2,8.084651E-2,-6.8910094E-4,9.295392E-3,-1.5507022E-2,2.910634E-2,1.75242E-2,-3.6304723E-3,1.8814262E-2,-1.8498523E-2,-2.3446493E-2,4.3008395E-2,2.1030316E-2,-1.3634077E-2,7.373647E-2,3.6526628E-2,2.5135398E-2,7.255783E-2],"categories":[],"categories_nodes":[],"categories_segments":[],"categories_sizes":[],"default_left":[0,0,0,0,0,0,0,0,0,0,0,0,0,0,0,0,0,0,0,0,0,0,0,0,0,0,0,0,0,0,0,0,0,0,0,0,0,0,0,0,0,0,0,0,0,0,0,0,0,0,0,0,0,0,0,0,0,0,0,0,0],"id":10,"left_children":[1,3,5,7,9,11,13,15,17,19,21,23,25,27,29,31,33,35,37,39,41,43,45,47,49,51,53,-1,55,57,59,-1,-1,-1,-1,-1,-1,-1,-1,-1,-1,-1,-1,-1,-1,-1,-1,-1,-1,-1,-1,-1,-1,-1,-1,-1,-1,-1,-1,-1,-1],"loss_changes":[4.829133E2,1.0304978E2,7.278424E1,8.303543E0,2.6501684E1,3.447917E1,1.8474518E1,4.844345E0,5.0895386E0,1.12936325E1,1.0937097E1,4.533408E0,6.687622E0,5.903782E0,9.136902E0,3.086071E0,5.8040466E0,1.1824057E1,5.2813835E0,5.402313E0,8.320668E0,1.901741E0,1.1536182E1,3.5623198E0,3.6181686E0,8.104721E0,7.423214E0,0E0,7.1647625E0,8.916931E0,8.419914E0,0E0,0E0,0E0,0E0,0E0,0E0,0E0,0E0,0E0,0E0,0E0,0E0,0E0,0E0,0E0,0E0,0E0,0E0,0E0,0E0,0E0,0E0,0E0,0E0,0E0,0E0,0E0,0E0,0E0,0E0],"parents":[2147483647,0,0,1,1,2,2,3,3,4,4,5,5,6,6,7,7,8,8,9,9,10,10,11,11,12,12,13,13,14,14,15,15,16,16,17,17,18,18,19,19,20,20,21,21,22,22,23,23,24,24,25,25,26,26,28,28,29,29,30,30],"right_children":[2,4,6,8,10,12,14,16,18,20,22,24,26,28,30,32,34,36,38,40,42,44,46,48,50,52,54,-1,56,58,60,-1,-1,-1,-1,-1,-1,-1,-1,-1,-1,-1,-1,-1,-1,-1,-1,-1,-1,-1,-1,-1,-1,-1,-1,-1,-1,-1,-1,-1,-1],"split_conditions":[9.404191E1,-1.0019262E2,1.8631067E3,-1.939875E2,-1.0801289E1,1.6950355E3,2.0044632E2,1.5359236E3,1.6207571E3,1.7174644E3,1.5293103E3,2E0,2.8732495E2,1.8665913E3,3.7599005E2,6E0,1.5769042E3,1.6201097E3,1.8153052E3,-9.640908E1,1.2E1,-8.312963E0,1.7346743E3,1.628491E3,9.8019356E1,2.8225623E2,2E0,6.3489445E-2,1.878482E2,2.149219E2,4E0,-3.2172423E-2,-1.7268667E-2,-1.1114466E-2,-2.1445522E-2,-1.1383839E-2,5.4158982E-2,-1.8205184E-2,4.9146757E-2,6.6533512E-3,-9.683781E-3,-9.1223913E-4,2.620544E-2,1.4228876E-2,8.084651E-2,-6.8910094E-4,9.295392E-3,-1.5507022E-2,2.910634E-2,1.75242E-2,-3.6304723E-3,1.8814262E-2,-1.8498523E-2,-2.3446493E-2,4.3008395E-2,2.1030316E-2,-1.3634077E-2,7.373647E-2,3.6526628E-2,2.5135398E-2,7.255783E-2],"split_indices":[5,5,3,5,5,3,5,3,3,3,3,0,5,3,5,0,3,3,3,5,1,5,3,3,5,5,1,0,5,5,1,0,0,0,0,0,0,0,0,0,0,0,0,0,0,0,0,0,0,0,0,0,0,0,0,0,0,0,0,0,0],"split_type":[0,0,0,0,0,0,0,0,0,0,0,0,0,0,0,0,0,0,0,0,0,0,0,0,0,0,0,0,0,0,0,0,0,0,0,0,0,0,0,0,0,0,0,0,0,0,0,0,0,0,0,0,0,0,0,0,0,0,0,0,0],"sum_hessian":[7.273E3,5.284E3,1.989E3,1.872E3,3.412E3,1.435E3,5.54E2,8.92E2,9.8E2,1.542E3,1.87E3,2.95E2,1.14E3,1.16E2,4.38E2,1.83E2,7.09E2,5.24E2,4.56E2,1.341E3,2.01E2,6E0,1.864E3,2.5E1,2.7E2,1.091E3,4.9E1,6E0,1.1E2,3.84E2,5.4E1,1.3E2,5.3E1,1.89E2,5.2E2,5.18E2,6E0,4.54E2,2E0,5.2E1,1.289E3,1.68E2,3.3E1,2E0,4E0,1.507E3,3.57E2,5E0,2E1,2.1E1,2.49E2,1.077E3,1.4E1,4E0,4.5E1,9.3E1,1.7E1,1.7E1,3.67E2,1.4E1,4E1],"tree_param":{"num_deleted":"0","num_feature":"6","num_nodes":"61","size_leaf_vector":"1"}},{"base_weights":[-2.186546E-3,-1.628784E-1,3.730815E-1,-3.483365E-1,-5.25283E-2,2.4609071E-1,5.922657E-1,-4.6265614E-1,-2.994486E-1,-1.5772346E-1,8.965961E-3,1.0482065E-1,3.3711874E-1,3.019851E-1,6.939178E-1,-6.8402904E-1,-4.2381778E-1,-3.013738E-1,5.662295E-2,-2.9095542E-1,-8.7542474E-2,-2.8647449E-2,1.9578238E-1,1.3171071E-1,-4.3494365E-1,8.276815E-1,3.0830994E-1,1.5279272E0,2.8275898E-1,1.4899111E0,6.6774744E-1,-1.8564615E-2,-3.765854E-2,1.8163411E-2,-2.1805206E-2,-1.2194914E-2,-1.7487112E-2,4.889645E-3,-1.819948E-2,4.4282465E-3,-6.382832E-3,-4.5815576E-2,-1.219156E-3,3.4912374E-2,7.407301E-3,4.682051E-3,2.2524286E-2,-3.6077317E-2,4.78876E-3,2.118549E-2,6.442118E-2,7.726317E-3,1.7295552E-2,7.1775825E-3,1.0741695E-1,-2.3528704E-2,1.5379384E-2,1.1867871E-1,5.7747014E-2,3.1032491E-2,4.887938E-2],"categories":[],"categories_nodes":[],"categories_segments":[],"categories_sizes":[],"default_left":[0,0,0,0,0,0,0,0,0,0,0,0,0,0,0,0,0,0,0,0,0,0,0,0,0,0,0,0,0,0,0,0,0,0,0,0,0,0,0,0,0,0,0,0,0,0,0,0,0,0,0,0,0,0,0,0,0,0,0,0,0],"id":11,"left_children":[1,3,5,7,9,11,13,15,17,19,21,23,25,27,29,31,33,35,-1,37,39,41,43,45,47,49,51,53,55,57,59,-1,-1,-1,-1,-1,-1,-1,-1,-1,-1,-1,-1,-1,-1,-1,-1,-1,-1,-1,-1,-1,-1,-1,-1,-1,-1,-1,-1,-1,-1],"loss_changes":[4.3846005E2,1.04170654E2,6.0533173E1,1.047467E1,2.0656609E1,1.773655E1,2.3367035E1,4.585037E0,4.0159836E0,1.0989243E1,1.4171641E1,7.938549E0,1.1616135E1,4.4941216E0,1.1316528E1,1.5150795E0,4.848564E0,3.6176605E0,0E0,1.156271E1,5.472088E0,6.3331637E0,7.9867926E0,6.244089E0,4.023847E0,8.015911E0,4.5435867E0,2.268252E0,4.016531E0,2.586689E0,7.7694855E0,0E0,0E0,0E0,0E0,0E0,0E0,0E0,0E0,0E0,0E0,0E0,0E0,0E0,0E0,0E0,0E0,0E0,0E0,0E0,0E0,0E0,0E0,0E0,0E0,0E0,0E0,0E0,0E0,0E0,0E0],"parents":[2147483647,0,0,1,1,2,2,3,3,4,4,5,5,6,6,7,7,8,8,9,9,10,10,11,11,12,12,13,13,14,14,15,15,16,16,17,17,19,19,20,20,21,21,22,22,23,23,24,24,25,25,26,26,27,27,28,28,29,29,30,30],"right_children":[2,4,6,8,10,12,14,16,18,20,22,24,26,28,30,32,34,36,-1,38,40,42,44,46,48,50,52,54,56,58,60,-1,-1,-1,-1,-1,-1,-1,-1,-1,-1,-1,-1,-1,-1,-1,-1,-1,-1,-1,-1,-1,-1,-1,-1,-1,-1,-1,-1,-1,-1],"split_conditions":[7.813732E1,-9.903403E1,1.8260396E3,-2.3682236E2,-2.9230963E1,1.7193481E3,1.9704803E2,1.8121406E3,1.8289257E3,1.6495332E3,1.7293301E3,1.7155902E3,1.5245415E3,1.6372716E3,2.0277707E2,1E0,1.8143405E3,1.6033698E3,5.662295E-2,1.5920028E3,1.6033698E3,1.4904128E3,-1.3212693E1,1.7052825E3,1.7174644E3,1.767811E3,1.5732616E3,1.6365846E3,1.6495332E3,1.8317345E3,1.9536891E3,-1.8564615E-2,-3.765854E-2,1.8163411E-2,-2.1805206E-2,-1.2194914E-2,-1.7487112E-2,4.889645E-3,-1.819948E-2,4.4282465E-3,-6.382832E-3,-4.5815576E-2,-1.219156E-3,3.4912374E-2,7.407301E-3,4.682051E-3,2.2524286E-2,-3.6077317E-2,4.78876E-3,2.118549E-2,6.442118E-2,7.726317E-3,1.7295552E-2,7.1775825E-3,1.0741695E-1,-2.3528704E-2,1.5379384E-2,1.1867871E-1,5.7747014E-2,3.1032491E-2,4.887938E-2],"split_indices":[5,5,3,5,5,3,5,4,3,4,3,3,4,4,5,2,4,3,0,4,3,4,5,3,3,3,4,4,4,3,3,0,0,0,0,0,0,0,0,0,0,0,0,0,0,0,0,0,0,0,0,0,0,0,0,0,0,0,0,0,0],"split_type":[0,0,0,0,0,0,0,0,0,0,0,0,0,0,0,0,0,0,0,0,0,0,0,0,0,0,0,0,0,0,0,0,0,0,0,0,0,0,0,0,0,0,0,0,0,0,0,0,0,0,0,0,0,0,0,0,0,0,0,0,0],"sum_hessian":[7.269E3,5.09E3,2.179E3,1.898E3,3.192E3,1.381E3,7.98E2,5.66E2,1.332E3,1.177E3,2.015E3,5.42E2,8.39E2,2.08E2,5.9E2,8.2E1,4.84E2,1.331E3,1E0,4.05E2,7.72E2,1.678E3,3.37E2,5.17E2,2.5E1,4.5E1,7.94E2,2E0,2.06E2,1.7E1,5.73E2,1.6E1,6.6E1,7E0,4.77E2,6.11E2,7.2E2,6.4E1,3.41E2,1.43E2,6.29E2,7E0,1.671E3,2.8E1,3.09E2,4.63E2,5.4E1,1.6E1,9E0,2.5E1,2E1,1.57E2,6.37E2,1E0,1E0,6E0,2E2,3E0,1.4E1,5E2,7.3E1],"tree_param":{"num_deleted":"0","num_feature":"6","num_nodes":"61","size_leaf_vector":"1"}},{"base_weights":[-6.374981E-3,-1.3161007E-1,4.2133853E-1,-3.128042E-1,-3.9232746E-2,2.4510346E-1,5.741705E-1,-3.934038E-1,-2.3838302E-1,-8.598864E-2,1.072263E-1,2.2499282E-3,3.0297798E-1,4.990645E-1,8.387275E-1,-5.266062E-1,-3.553013E-1,-1.7658094E-1,-3.169316E-1,-1.5320708E-1,-3.3602137E-2,9.6011204E-1,1.0046609E-1,2.150106E-1,-1.6494595E-1,5.808188E-1,2.677628E-1,4.060408E-1,7.3359644E-1,8.6353064E-1,-8.235941E-2,-2.7018486E-2,5.384406E-4,5.7120705E-3,-1.8697418E-2,-9.650827E-3,4.237188E-2,-1.7676517E-2,-3.1134936E-3,-1.1132479E-2,-2.8087038E-3,-1.4294124E-3,-4.124716E-2,-5.626768E-4,8.457249E-2,-2.2740232E-2,5.648586E-3,-4.9439347E-3,2.3185216E-2,-1.2197138E-2,4.513348E-2,2.4339516E-2,1.2435909E-1,-2.0741375E-2,1.4378259E-2,2.1298079E-2,-5.8771754E-3,4.12299E-2,6.8412097E-3,3.704408E-2,5.57439E-2,-4.5589708E-2,2.8015325E-2],"categories":[],"categories_nodes":[],"categories_segments":[],"categories_sizes":[],"default_left":[0,0,0,0,0,0,0,0,0,0,0,0,0,0,0,0,0,0,0,0,0,0,0,0,0,0,0,0,0,0,0,0,0,0,0,0,0,0,0,0,0,0,0,0,0,0,0,0,0,0,0,0,0,0,0,0,0,0,0,0,0,0,0],"id":12,"left_children":[1,3,5,7,9,11,13,15,17,19,21,23,25,27,29,31,33,35,37,39,41,43,45,47,49,51,53,55,57,59,61,-1,-1,-1,-1,-1,-1,-1,-1,-1,-1,-1,-1,-1,-1,-1,-1,-1,-1,-1,-1,-1,-1,-1,-1,-1,-1,-1,-1,-1,-1,-1,-1],"loss_changes":[3.9070312E2,9.4424805E1,4.4354828E1,1.1333023E1,2.5606382E1,1.0807636E1,1.7146332E1,4.4466705E0,4.7645187E0,9.974327E0,5.1214867E0,5.3357983E0,5.920475E0,1.477771E1,4.5032196E0,1.4924469E0,6.2854614E0,9.554918E0,4.0416336E0,8.349617E0,6.3009233E0,4.9918075E0,6.2940407E0,5.1979623E0,7.3046083E0,1.1157682E1,7.594143E0,5.2338943E0,1.0477066E1,5.0003815E0,3.7091804E0,0E0,0E0,0E0,0E0,0E0,0E0,0E0,0E0,0E0,0E0,0E0,0E0,0E0,0E0,0E0,0E0,0E0,0E0,0E0,0E0,0E0,0E0,0E0,0E0,0E0,0E0,0E0,0E0,0E0,0E0,0E0,0E0],"parents":[2147483647,0,0,1,1,2,2,3,3,4,4,5,5,6,6,7,7,8,8,9,9,10,10,11,11,12,12,13,13,14,14,15,15,16,16,17,17,18,18,19,19,20,20,21,21,22,22,23,23,24,24,25,25,26,26,27,27,28,28,29,29,30,30],"right_children":[2,4,6,8,10,12,14,16,18,20,22,24,26,28,30,32,34,36,38,40,42,44,46,48,50,52,54,56,58,60,62,-1,-1,-1,-1,-1,-1,-1,-1,-1,-1,-1,-1,-1,-1,-1,-1,-1,-1,-1,-1,-1,-1,-1,-1,-1,-1,-1,-1,-1,-1,-1,-1],"split_conditions":[1.1793763E2,-1.0019262E2,1.9388358E2,-1.939875E2,1.7032616E3,1.5419061E3,3.0926407E2,1.540132E3,1.6216691E3,-1.5615864E1,1.6001647E3,1.6510983E3,1.7155902E3,1.6330327E3,1.6624065E3,1.9796584E3,1.778516E3,1.6201097E3,1.8942899E3,1.663037E3,1.7016378E3,1.135818E2,1.61437E3,1.6250549E3,1.7069651E3,1.5876077E3,1.2025012E2,1.9045847E3,2.7481088E2,1.9427186E3,1.670175E3,-2.7018486E-2,5.384406E-4,5.7120705E-3,-1.8697418E-2,-9.650827E-3,4.237188E-2,-1.7676517E-2,-3.1134936E-3,-1.1132479E-2,-2.8087038E-3,-1.4294124E-3,-4.124716E-2,-5.626768E-4,8.457249E-2,-2.2740232E-2,5.648586E-3,-4.9439347E-3,2.3185216E-2,-1.2197138E-2,4.513348E-2,2.4339516E-2,1.2435909E-1,-2.0741375E-2,1.4378259E-2,2.1298079E-2,-5.8771754E-3,4.12299E-2,6.8412097E-3,3.704408E-2,5.57439E-2,-4.5589708E-2,2.8015325E-2],"split_indices":[5,5,5,5,3,4,5,3,3,5,4,3,3,4,4,4,4,3,4,4,3,5,4,3,3,4,5,3,5,3,4,0,0,0,0,0,0,0,0,0,0,0,0,0,0,0,0,0,0,0,0,0,0,0,0,0,0,0,0,0,0,0,0],"split_type":[0,0,0,0,0,0,0,0,0,0,0,0,0,0,0,0,0,0,0,0,0,0,0,0,0,0,0,0,0,0,0,0,0,0,0,0,0,0,0,0,0,0,0,0,0,0,0,0,0,0,0,0,0,0,0,0,0,0,0,0,0,0,0],"sum_hessian":[7.292E3,5.641E3,1.651E3,1.904E3,3.737E3,7.68E2,8.83E2,9.12E2,9.92E2,2.833E3,9.04E2,1.48E2,6.2E2,6.9E2,1.93E2,2E2,7.12E2,5.57E2,4.35E2,1.24E3,1.593E3,6E0,8.98E2,6.5E1,8.3E1,6.8E1,5.52E2,4.96E2,1.94E2,1.88E2,5E0,1.95E2,5E0,2.7E1,6.85E2,5.49E2,8E0,3.8E2,5.5E1,7.22E2,5.18E2,1.584E3,9E0,3E0,3E0,1.9E1,8.79E2,2.9E1,3.6E1,7.8E1,5E0,6.6E1,2E0,1.5E1,5.37E2,4.78E2,1.8E1,1.68E2,2.6E1,1.29E2,5.9E1,2E0,3E0],"tree_param":{"num_deleted":"0","num_feature":"6","num_nodes":"63","size_leaf_vector":"1"}},{"base_weights":[5.553487E-3,-1.339617E-1,3.0392024E-1,-3.7915308E-2,-2.8296953E-1,4.154324E-1,6.528643E-2,6.308911E-2,-9.870127E-2,-5.532579E-1,-2.569673E-1,3.5360026E-1,7.1886855E-1,1.6620126E-1,-1.0831924E-1,3.655712E-2,3.5013822E-1,-2.1512182E-1,-5.883134E-2,-4.398765E-1,-6.4915377E-1,-2.197858E-1,-3.7855434E-1,8.8460743E-1,3.275501E-1,6.9530445E-1,1.814568E0,1.00635E-1,4.3378654E-1,-1.426242E-1,5.365099E-1,-1.4101599E-2,2.8165092E-3,9.3818985E-2,1.4036424E-2,-9.895306E-3,-3.6838125E-2,-5.1182653E-3,4.528693E-3,-3.79011E-2,-1.6507708E-2,-4.1151363E-2,-2.6951674E-2,-1.2056092E-2,-2.4667194E-3,-1.9977724E-2,6.829978E-3,-4.265278E-2,5.1075727E-2,1.1395247E-2,1.7893484E-2,3.5670105E-2,-3.27435E-2,8.7496045E-4,1.1297303E-1,2.9514518E-3,3.3082273E-2,4.5985516E-2,1.3396448E-2,-5.1201005E-3,-1.8396212E-2,4.600605E-2,1.1057844E-2],"categories":[],"categories_nodes":[],"categories_segments":[],"categories_sizes":[],"default_left":[0,0,0,0,0,0,0,0,0,0,0,0,0,0,0,0,0,0,0,0,0,0,0,0,0,0,0,0,0,0,0,0,0,0,0,0,0,0,0,0,0,0,0,0,0,0,0,0,0,0,0,0,0,0,0,0,0,0,0,0,0,0,0],"id":13,"left_children":[1,3,5,7,9,11,13,15,17,19,21,23,25,27,29,31,33,35,37,39,41,43,45,47,49,51,53,55,57,59,61,-1,-1,-1,-1,-1,-1,-1,-1,-1,-1,-1,-1,-1,-1,-1,-1,-1,-1,-1,-1,-1,-1,-1,-1,-1,-1,-1,-1,-1,-1,-1,-1],"loss_changes":[3.0349933E2,7.1089645E1,6.178923E1,1.856025E1,1.3541534E1,2.9446228E1,1.299987E1,8.638958E0,8.746193E0,1.5628357E0,7.9547653E0,1.7928055E1,5.6320496E0,8.184748E0,6.115507E0,6.5736485E0,9.643102E0,4.173767E0,9.160682E0,2.577258E0,1.2795906E0,4.948639E0,4.544178E0,1.5383217E1,3.7160797E0,6.8936005E0,3.9579735E0,8.783985E0,7.1682453E0,2.318459E0,1.4901295E0,0E0,0E0,0E0,0E0,0E0,0E0,0E0,0E0,0E0,0E0,0E0,0E0,0E0,0E0,0E0,0E0,0E0,0E0,0E0,0E0,0E0,0E0,0E0,0E0,0E0,0E0,0E0,0E0,0E0,0E0,0E0,0E0],"parents":[2147483647,0,0,1,1,2,2,3,3,4,4,5,5,6,6,7,7,8,8,9,9,10,10,11,11,12,12,13,13,14,14,15,15,16,16,17,17,18,18,19,19,20,20,21,21,22,22,23,23,24,24,25,25,26,26,27,27,28,28,29,29,30,30],"right_children":[2,4,6,8,10,12,14,16,18,20,22,24,26,28,30,32,34,36,38,40,42,44,46,48,50,52,54,56,58,60,62,-1,-1,-1,-1,-1,-1,-1,-1,-1,-1,-1,-1,-1,-1,-1,-1,-1,-1,-1,-1,-1,-1,-1,-1,-1,-1,-1,-1,-1,-1,-1,-1],"split_conditions":[1.7174644E3,1.6853282E3,1.7075408E3,1.5983007E3,1.5328818E3,1.8908712E3,1.8242297E3,1.6950355E3,1.5783341E3,1.7646719E3,1.8623407E3,1.5136437E3,1.7045472E3,1.8874237E3,1.9427186E3,1.5201549E3,1.4306858E3,1.5759132E3,1.659582E3,1.7045472E3,1.4973047E3,1.683386E3,1.9796584E3,1.7213815E3,5E0,1.6997234E3,6E0,1.8143405E3,1.9002811E3,1.8835889E3,1.843778E3,-1.4101599E-2,2.8165092E-3,9.3818985E-2,1.4036424E-2,-9.895306E-3,-3.6838125E-2,-5.1182653E-3,4.528693E-3,-3.79011E-2,-1.6507708E-2,-4.1151363E-2,-2.6951674E-2,-1.2056092E-2,-2.4667194E-3,-1.9977724E-2,6.829978E-3,-4.265278E-2,5.1075727E-2,1.1395247E-2,1.7893484E-2,3.5670105E-2,-3.27435E-2,8.7496045E-4,1.1297303E-1,2.9514518E-3,3.3082273E-2,4.5985516E-2,1.3396448E-2,-5.1201005E-3,-1.8396212E-2,4.600605E-2,1.1057844E-2],"split_indices":[3,4,4,4,3,3,4,3,3,4,4,4,4,3,3,3,4,3,4,4,3,3,4,3,0,4,0,4,3,3,4,0,0,0,0,0,0,0,0,0,0,0,0,0,0,0,0,0,0,0,0,0,0,0,0,0,0,0,0,0,0,0,0],"split_type":[0,0,0,0,0,0,0,0,0,0,0,0,0,0,0,0,0,0,0,0,0,0,0,0,0,0,0,0,0,0,0,0,0,0,0,0,0,0,0,0,0,0,0,0,0,0,0,0,0,0,0,0,0,0,0,0,0,0,0,0,0,0,0],"sum_hessian":[7.289E3,4.967E3,2.322E3,3.021E3,1.946E3,1.582E3,7.4E2,1.135E3,1.886E3,1.69E2,1.777E3,1.316E3,2.66E2,4.68E2,2.72E2,1.04E3,9.5E1,4.8E2,1.406E3,8E1,8.9E1,1.363E3,4.14E2,6E1,1.256E3,2.62E2,4E0,3.77E2,9.1E1,2.59E2,1.3E1,6E1,9.8E2,3E0,9.2E1,4.66E2,1.4E1,1.089E3,3.17E2,1.9E1,6.1E1,3.2E1,5.7E1,1.211E3,1.52E2,3.98E2,1.6E1,4E0,5.6E1,2.95E2,9.61E2,2.59E2,3E0,1E0,3E0,3.52E2,2.5E1,2.2E1,6.9E1,2.21E2,3.8E1,5E0,8E0],"tree_param":{"num_deleted":"0","num_feature":"6","num_nodes":"63","size_leaf_vector":"1"}},{"base_weights":[-2.652286E-4,-1.0922596E-1,3.70697E-1,-4.8214413E-2,-2.8559232E-1,4.8569313E-1,1.3606657E-1,-9.416078E-2,1.3887925E-1,-3.1733188E-1,-3.588252E-2,3.748608E-1,6.507365E-1,7.2527535E-2,6.184258E-1,2.5201796E-2,-1.4400953E-1,2.936548E-1,-5.8277384E-3,-4.0953094E-1,-2.558924E-1,2.4794841E-1,-1.5344043E-1,1.1390686E0,3.4361964E-1,5.9117395E-1,9.935187E-1,1.2591274E-1,-5.125725E-1,8.86125E-1,2.6478443E-1,-3.702432E-3,5.254661E-3,-1.1557755E-2,-5.408704E-3,3.2152743E-3,1.7513026E-2,-3.827865E-2,9.785726E-4,-2.587525E-2,-1.6932376E-2,-9.972991E-3,-1.8220058E-2,-5.11087E-3,6.6807225E-2,1.0011426E-2,-1.3814236E-2,6.6931844E-2,1.2536752E-2,1.582039E-2,3.2797717E-2,4.012497E-2,2.5021514E-2,1.1402935E-2,5.4098487E-2,1.064229E-2,-2.0716244E-3,-4.9748056E-2,-1.7290412E-2,3.388908E-2,6.4900815E-2,-3.3541766E-3,3.391988E-2],"categories":[],"categories_nodes":[],"categories_segments":[],"categories_sizes":[],"default_left":[0,0,0,0,0,0,0,0,0,0,0,0,0,0,0,0,0,0,0,0,0,0,0,0,0,0,0,0,0,0,0,0,0,0,0,0,0,0,0,0,0,0,0,0,0,0,0,0,0,0,0,0,0,0,0,0,0,0,0,0,0,0,0],"id":14,"left_children":[1,3,5,7,9,11,13,15,17,19,21,23,25,27,29,31,33,35,37,39,41,43,45,47,49,51,53,55,57,59,61,-1,-1,-1,-1,-1,-1,-1,-1,-1,-1,-1,-1,-1,-1,-1,-1,-1,-1,-1,-1,-1,-1,-1,-1,-1,-1,-1,-1,-1,-1,-1,-1],"loss_changes":[2.974936E2,6.120204E1,4.5020157E1,3.6358128E1,1.1575966E1,2.0261536E1,1.684255E1,2.0204134E1,1.8680895E1,7.242264E0,5.576896E0,1.5676285E1,8.57988E0,1.5307555E1,5.824215E0,7.9449697E0,7.4543457E0,5.2094154E0,8.35125E0,3.781639E0,4.709713E0,1.8807981E1,5.1819725E0,4.27372E0,5.2999268E0,6.9813385E0,4.1541214E0,6.5262485E0,2.9541874E0,2.2095642E0,4.0261927E0,0E0,0E0,0E0,0E0,0E0,0E0,0E0,0E0,0E0,0E0,0E0,0E0,0E0,0E0,0E0,0E0,0E0,0E0,0E0,0E0,0E0,0E0,0E0,0E0,0E0,0E0,0E0,0E0,0E0,0E0,0E0,0E0],"parents":[2147483647,0,0,1,1,2,2,3,3,4,4,5,5,6,6,7,7,8,8,9,9,10,10,11,11,12,12,13,13,14,14,15,15,16,16,17,17,18,18,19,19,20,20,21,21,22,22,23,23,24,24,25,25,26,26,27,27,28,28,29,29,30,30],"right_children":[2,4,6,8,10,12,14,16,18,20,22,24,26,28,30,32,34,36,38,40,42,44,46,48,50,52,54,56,58,60,62,-1,-1,-1,-1,-1,-1,-1,-1,-1,-1,-1,-1,-1,-1,-1,-1,-1,-1,-1,-1,-1,-1,-1,-1,-1,-1,-1,-1,-1,-1,-1,-1],"split_conditions":[1.7647458E3,1.7562756E3,1.6997234E3,1.6891602E3,1.7174644E3,1.8578436E3,1.9174663E3,1.5971542E3,1.6260914E3,5E0,1.7952291E3,1.5136437E3,1.9536891E3,1.907546E3,1.7995887E3,1.5571072E3,1.5818333E3,1.544418E3,1.6293281E3,1.5999064E3,1.8623407E3,1.7802284E3,4E0,1.8396072E3,1.6795573E3,1.5838411E3,3E0,1E1,1.7848761E3,1.7747727E3,1.8659231E3,-3.702432E-3,5.254661E-3,-1.1557755E-2,-5.408704E-3,3.2152743E-3,1.7513026E-2,-3.827865E-2,9.785726E-4,-2.587525E-2,-1.6932376E-2,-9.972991E-3,-1.8220058E-2,-5.11087E-3,6.6807225E-2,1.0011426E-2,-1.3814236E-2,6.6931844E-2,1.2536752E-2,1.582039E-2,3.2797717E-2,4.012497E-2,2.5021514E-2,1.1402935E-2,5.4098487E-2,1.064229E-2,-2.0716244E-3,-4.9748056E-2,-1.7290412E-2,3.388908E-2,6.4900815E-2,-3.3541766E-3,3.391988E-2],"split_indices":[3,4,4,3,3,3,3,4,4,1,4,4,3,4,4,4,3,4,4,3,4,4,1,3,4,4,1,1,3,4,4,0,0,0,0,0,0,0,0,0,0,0,0,0,0,0,0,0,0,0,0,0,0,0,0,0,0,0,0,0,0,0,0],"split_type":[0,0,0,0,0,0,0,0,0,0,0,0,0,0,0,0,0,0,0,0,0,0,0,0,0,0,0,0,0,0,0,0,0,0,0,0,0,0,0,0,0,0,0,0,0,0,0,0,0,0,0,0,0,0,0,0,0,0,0,0,0,0,0],"sum_hessian":[7.358E3,5.688E3,1.67E3,4.227E3,1.461E3,1.12E3,5.5E2,3.394E3,8.33E2,1.296E3,1.65E2,6.72E2,4.48E2,4.87E2,6.3E1,1E3,2.394E3,4.02E2,4.31E2,5.16E2,7.8E2,4.8E1,1.17E2,2.5E1,6.47E2,3.84E2,6.4E1,4.47E2,4E1,3.5E1,2.8E1,4.46E2,5.54E2,6.96E2,1.698E3,8E1,3.22E2,1.3E1,4.18E2,2.02E2,3.14E2,5.15E2,2.65E2,3.7E1,1.1E1,3E1,8.7E1,2E1,5E0,5.97E2,5E1,1.13E2,2.71E2,7E0,5.7E1,2.94E2,1.53E2,9E0,3.1E1,2.5E1,1E1,1.6E1,1.2E1],"tree_param":{"num_deleted":"0","num_feature":"6","num_nodes":"63","size_leaf_vector":"1"}},{"base_weights":[-5.135765E-4,-1.0951357E-1,3.6758292E-1,-2.0189755E-1,2.8680103E-2,3.1269756E-1,7.607845E-1,-3.469686E-1,-1.493721E-1,-7.4447985E-3,1.5585761E-1,2.2012521E-1,4.1413108E-1,7.075195E-1,1.1468798E0,-4.4131172E-1,-2.8909615E-1,-1.7373426E-1,-7.2185785E-2,-8.34103E-1,-1.7492487E-3,-5.7056174E-3,3.0860764E-1,1.9067405E-1,5.698083E-1,2.3286055E-1,4.7227392E-1,7.773599E-1,-1.1962526E-2,1.2396225E0,-2.2336472E-2,-3.1863723E-2,-2.0681E-2,-2.8396297E-2,-1.30843E-2,-4.3479457E-2,-8.570681E-3,-7.345028E-3,8.698926E-3,-5.489546E-2,-1.2259618E-2,3.1331676E-4,-1.2628748E-2,3.792469E-3,-3.173202E-2,4.859367E-2,1.2104801E-2,2.1634445E-2,7.825827E-3,-1.5136731E-3,3.7858658E-2,1.6360437E-2,-1.01891635E-2,-1.2887102E-3,2.5016418E-2,3.5684858E-2,8.463816E-2,-4.6274148E-2,1.2494888E-2,9.426476E-2,4.6940956E-2],"categories":[],"categories_nodes":[],"categories_segments":[],"categories_sizes":[],"default_left":[0,0,0,0,0,0,0,0,0,0,0,0,0,0,0,0,0,0,0,0,0,0,0,0,0,0,0,0,0,0,0,0,0,0,0,0,0,0,0,0,0,0,0,0,0,0,0,0,0,0,0,0,0,0,0,0,0,0,0,0,0],"id":15,"left_children":[1,3,5,7,9,11,13,15,17,19,21,23,25,27,29,31,33,35,37,39,41,43,45,47,49,51,53,55,57,59,-1,-1,-1,-1,-1,-1,-1,-1,-1,-1,-1,-1,-1,-1,-1,-1,-1,-1,-1,-1,-1,-1,-1,-1,-1,-1,-1,-1,-1,-1,-1],"loss_changes":[2.9205194E2,7.17046E1,3.5651337E1,2.5596832E1,1.0342874E1,1.3627533E1,3.363327E0,4.75354E0,4.6377487E0,8.25685E0,1.2291796E1,7.78006E0,7.225586E0,9.1043625E0,3.9530754E0,1.5705795E0,4.1083984E0,2.8851929E0,1.0968864E1,1.5951014E0,3.505909E0,1.25122795E1,1.1058125E1,5.7850475E0,6.656542E0,7.111291E0,7.362404E0,8.4076E0,4.2979264E0,2.502903E0,0E0,0E0,0E0,0E0,0E0,0E0,0E0,0E0,0E0,0E0,0E0,0E0,0E0,0E0,0E0,0E0,0E0,0E0,0E0,0E0,0E0,0E0,0E0,0E0,0E0,0E0,0E0,0E0,0E0,0E0,0E0],"parents":[2147483647,0,0,1,1,2,2,3,3,4,4,5,5,6,6,7,7,8,8,9,9,10,10,11,11,12,12,13,13,14,14,15,15,16,16,17,17,18,18,19,19,20,20,21,21,22,22,23,23,24,24,25,25,26,26,27,27,28,28,29,29],"right_children":[2,4,6,8,10,12,14,16,18,20,22,24,26,28,30,32,34,36,38,40,42,44,46,48,50,52,54,56,58,60,-1,-1,-1,-1,-1,-1,-1,-1,-1,-1,-1,-1,-1,-1,-1,-1,-1,-1,-1,-1,-1,-1,-1,-1,-1,-1,-1,-1,-1,-1,-1],"split_conditions":[1.2025012E2,-1.1784868E1,3.0926407E2,-1.9090936E2,1.6746185E3,1.9388358E2,1.6183768E3,-2.7610593E2,6E0,1.4904128E3,3.617294E1,1.7295272E3,1.558774E3,1.5971542E3,1.6977141E3,1.8190026E3,1.7295272E3,1.5354528E3,-4.527046E1,8.385837E1,1.6692726E3,3.1703657E1,3.9975536E1,1.2854533E2,1.3546048E2,1.5498522E3,1E0,1.5907924E3,3.172388E2,1.6335807E3,-2.2336472E-2,-3.1863723E-2,-2.0681E-2,-2.8396297E-2,-1.30843E-2,-4.3479457E-2,-8.570681E-3,-7.345028E-3,8.698926E-3,-5.489546E-2,-1.2259618E-2,3.1331676E-4,-1.2628748E-2,3.792469E-3,-3.173202E-2,4.859367E-2,1.2104801E-2,2.1634445E-2,7.825827E-3,-1.5136731E-3,3.7858658E-2,1.6360437E-2,-1.01891635E-2,-1.2887102E-3,2.5016418E-2,3.5684858E-2,8.463816E-2,-4.6274148E-2,1.2494888E-2,9.426476E-2,4.6940956E-2],"split_indices":[5,5,5,5,4,5,4,5,0,4,5,4,4,4,4,4,4,4,5,5,4,5,5,5,5,4,0,4,5,4,0,0,0,0,0,0,0,0,0,0,0,0,0,0,0,0,0,0,0,0,0,0,0,0,0,0,0,0,0,0,0],"split_type":[0,0,0,0,0,0,0,0,0,0,0,0,0,0,0,0,0,0,0,0,0,0,0,0,0,0,0,0,0,0,0,0,0,0,0,0,0,0,0,0,0,0,0,0,0,0,0,0,0,0,0,0,0,0,0,0,0,0,0,0,0],"sum_hessian":[7.277E3,5.615E3,1.662E3,3.365E3,2.25E3,1.46E3,2.02E2,8.93E2,2.472E3,1.753E3,4.97E2,7.65E2,6.95E2,1.8E2,2.2E1,3.37E2,5.56E2,1.878E3,5.94E2,1.1E1,1.742E3,2.42E2,2.55E2,7.07E2,5.8E1,1.7E2,5.25E2,1.64E2,1.6E1,2.1E1,1E0,3.9E1,2.98E2,4.8E1,5.08E2,5E0,1.873E3,4.56E2,1.38E2,7E0,4E0,1.689E3,5.3E1,2.15E2,2.7E1,2.2E1,2.33E2,8.6E1,6.21E2,1.4E1,4.4E1,1.4E2,3E1,2.8E1,4.97E2,1.55E2,9E0,3E0,1.3E1,5E0,1.6E1],"tree_param":{"num_deleted":"0","num_feature":"6","num_nodes":"61","size_leaf_vector":"1"}},{"base_weights":[2.3442665E-3,-1.1068918E-1,2.4466938E-1,-2.0464954E-1,-8.456461E-2,1.5013297E-1,3.8889024E-1,-5.668247E-1,-1.944614E-1,-1.0446445E-1,-1.2848676E-2,5.2980006E-1,1.3421364E-1,3.3738443E-1,7.671269E-1,-9.370667E-2,-6.178111E-1,-2.39174E-1,-1.2724957E-1,-1.2260167E-1,-3.213047E-2,2.4385406E-3,-6.435683E-1,3.1414965E-1,9.022633E-1,1.789546E-1,4.1470468E-2,3.9055827E-1,1.9700906E-1,2.9089853E-1,8.911078E-1,1.1853288E-2,-2.71506E-2,-3.9212834E-2,-2.0956255E-2,-1.1414933E-2,-3.6888666E-2,-1.4389054E-3,-1.2542163E-2,-5.5933283E-3,-2.0357644E-2,-4.6595684E-3,2.4781039E-3,-9.988395E-4,9.532432E-3,-3.8829334E-3,-4.7115754E-2,2.765508E-2,-1.702181E-3,1.7576858E-2,6.604498E-2,-1.5180643E-2,1.0136831E-2,-2.2514954E-3,1.1041755E-2,2.4209444E-4,2.0942941E-2,1.8811863E-2,-5.30918E-3,3.206384E-2,-2.588604E-4,5.085194E-4,4.6697818E-2],"categories":[],"categories_nodes":[],"categories_segments":[],"categories_sizes":[],"default_left":[0,0,0,0,0,0,0,0,0,0,0,0,0,0,0,0,0,0,0,0,0,0,0,0,0,0,0,0,0,0,0,0,0,0,0,0,0,0,0,0,0,0,0,0,0,0,0,0,0,0,0,0,0,0,0,0,0,0,0,0,0,0,0],"id":16,"left_children":[1,3,5,7,9,11,13,15,17,19,21,23,25,27,29,31,33,35,37,39,41,43,45,47,49,51,53,55,57,59,61,-1,-1,-1,-1,-1,-1,-1,-1,-1,-1,-1,-1,-1,-1,-1,-1,-1,-1,-1,-1,-1,-1,-1,-1,-1,-1,-1,-1,-1,-1,-1,-1],"loss_changes":[1.9935023E2,1.2165241E1,3.1504593E1,3.8711662E0,5.5430794E0,8.390556E0,1.7586136E1,6.4166355E-1,3.128048E0,3.9856606E0,8.149014E0,4.2145767E0,5.5735455E0,5.9542007E0,6.176491E0,7.2320074E-1,5.311289E-1,3.2477074E0,5.1287117E0,7.3804054E0,3.0524216E0,3.4885304E0,3.308096E0,3.097284E0,4.1467323E0,1.0470671E1,6.821076E0,6.383835E0,1.2212261E1,2.4930441E0,3.2367325E0,0E0,0E0,0E0,0E0,0E0,0E0,0E0,0E0,0E0,0E0,0E0,0E0,0E0,0E0,0E0,0E0,0E0,0E0,0E0,0E0,0E0,0E0,0E0,0E0,0E0,0E0,0E0,0E0,0E0,0E0,0E0,0E0],"parents":[2147483647,0,0,1,1,2,2,3,3,4,4,5,5,6,6,7,7,8,8,9,9,10,10,11,11,12,12,13,13,14,14,15,15,16,16,17,17,18,18,19,19,20,20,21,21,22,22,23,23,24,24,25,25,26,26,27,27,28,28,29,29,30,30],"right_children":[2,4,6,8,10,12,14,16,18,20,22,24,26,28,30,32,34,36,38,40,42,44,46,48,50,52,54,56,58,60,62,-1,-1,-1,-1,-1,-1,-1,-1,-1,-1,-1,-1,-1,-1,-1,-1,-1,-1,-1,-1,-1,-1,-1,-1,-1,-1,-1,-1,-1,-1,-1,-1],"split_conditions":[1.7174644E3,1.5718086E3,1.8260396E3,1.4288783E3,6E0,1.7213815E3,1.9427186E3,1E0,9E0,1.672859E3,1.7131229E3,6E0,1E1,6E0,4E0,5E0,6E0,1.5702671E3,1.549235E3,1.667997E3,9E0,1.6911482E3,6E0,9E0,1.7193481E3,1.7255765E3,1.7891069E3,1E0,9E0,1.9536891E3,1E0,1.1853288E-2,-2.71506E-2,-3.9212834E-2,-2.0956255E-2,-1.1414933E-2,-3.6888666E-2,-1.4389054E-3,-1.2542163E-2,-5.5933283E-3,-2.0357644E-2,-4.6595684E-3,2.4781039E-3,-9.988395E-4,9.532432E-3,-3.8829334E-3,-4.7115754E-2,2.765508E-2,-1.702181E-3,1.7576858E-2,6.604498E-2,-1.5180643E-2,1.0136831E-2,-2.2514954E-3,1.1041755E-2,2.4209444E-4,2.0942941E-2,1.8811863E-2,-5.30918E-3,3.206384E-2,-2.588604E-4,5.085194E-4,4.6697818E-2],"split_indices":[3,3,3,3,0,3,3,0,1,3,3,0,1,0,1,1,1,3,3,3,1,3,1,1,3,3,3,0,1,3,0,0,0,0,0,0,0,0,0,0,0,0,0,0,0,0,0,0,0,0,0,0,0,0,0,0,0,0,0,0,0,0,0],"split_type":[0,0,0,0,0,0,0,0,0,0,0,0,0,0,0,0,0,0,0,0,0,0,0,0,0,0,0,0,0,0,0,0,0,0,0,0,0,0,0,0,0,0,0,0,0,0,0,0,0,0,0,0,0,0,0,0,0,0,0,0,0,0,0],"sum_hessian":[7.276E3,4.962E3,2.314E3,1.078E3,3.884E3,1.399E3,9.15E2,2.8E1,1.05E3,3.04E3,8.44E2,5.5E1,1.344E3,8.07E2,1.08E2,3E0,2.5E1,6.29E2,4.21E2,2.43E3,6.1E2,8.25E2,1.9E1,3.6E1,1.9E1,9.06E2,4.38E2,5.84E2,2.23E2,2.3E1,8.5E1,2E0,1E0,1.2E1,1.3E1,6.17E2,1.2E1,2.35E2,1.86E2,2.343E3,8.7E1,3.49E2,2.61E2,7.38E2,8.7E1,7E0,1.2E1,2.1E1,1.5E1,9E0,1E1,4.2E1,8.64E2,2.96E2,1.42E2,4E1,5.44E2,1.4E2,8.3E1,1E1,1.3E1,4E0,8.1E1],"tree_param":{"num_deleted":"0","num_feature":"6","num_nodes":"63","size_leaf_vector":"1"}},{"base_weights":[4.5130034E-3,-1.2397279E-1,2.7839595E-1,-1.407135E-1,-2.2394838E-2,1.8397246E-1,4.0344563E-1,-3.31082E-1,-1.3456374E-1,4.2988276E-3,-5.797594E-1,5.404687E-1,1.6836421E-1,3.7328848E-1,7.028799E-1,-5.5528027E-1,-2.7085143E-1,-1.2736413E-1,-3.026964E-1,-4.9220458E-2,1.8822075E-1,-2.660717E-1,-7.314019E-1,9.901639E-1,1.03150114E-1,-1.7238277E-3,1.889688E-1,4.2159128E-1,2.2843745E-1,3.9604664E-1,9.001012E-1,-5.316029E-3,-3.143688E-2,-7.007534E-3,-1.9705802E-2,-7.271038E-3,-3.1145895E-3,3.6698692E-3,-2.2908768E-2,-4.561953E-3,3.4303423E-3,3.064356E-3,2.6363978E-2,-2.46083E-2,2.10251E-3,4.9277665E-3,-4.3760173E-2,1.9448515E-2,6.11413E-2,1.793631E-2,-7.965132E-3,5.1991697E-3,-2.5408288E-2,1.3624917E-2,7.2491146E-3,1.0820664E-2,2.389392E-2,8.267749E-3,3.0581078E-2,3.4264702E-2,5.7960823E-3,8.937871E-2,3.6494546E-2],"categories":[],"categories_nodes":[],"categories_segments":[],"categories_sizes":[],"default_left":[0,0,0,0,0,0,0,0,0,0,0,0,0,0,0,0,0,0,0,0,0,0,0,0,0,0,0,0,0,0,0,0,0,0,0,0,0,0,0,0,0,0,0,0,0,0,0,0,0,0,0,0,0,0,0,0,0,0,0,0,0,0,0],"id":17,"left_children":[1,3,5,7,9,11,13,15,17,19,21,23,25,27,29,31,33,35,37,39,41,43,45,47,49,51,53,55,57,59,61,-1,-1,-1,-1,-1,-1,-1,-1,-1,-1,-1,-1,-1,-1,-1,-1,-1,-1,-1,-1,-1,-1,-1,-1,-1,-1,-1,-1,-1,-1,-1,-1],"loss_changes":[2.5533846E2,8.395554E0,2.7284058E1,4.9192963E0,1.0417165E1,7.264984E0,8.731583E0,1.6320753E0,4.9353485E0,6.5944786E0,1.3275833E0,1.0714169E1,4.444149E0,6.2497025E0,5.0897827E0,8.2359505E-1,1.6525068E0,4.6227417E0,9.857372E0,2.5757961E0,6.4664183E0,8.566707E-1,2.5925875E0,3.3009796E0,2.0023685E0,7.440612E0,4.115982E0,7.7382812E0,5.4342985E0,2.9185004E0,6.8523445E0,0E0,0E0,0E0,0E0,0E0,0E0,0E0,0E0,0E0,0E0,0E0,0E0,0E0,0E0,0E0,0E0,0E0,0E0,0E0,0E0,0E0,0E0,0E0,0E0,0E0,0E0,0E0,0E0,0E0,0E0,0E0,0E0],"parents":[2147483647,0,0,1,1,2,2,3,3,4,4,5,5,6,6,7,7,8,8,9,9,10,10,11,11,12,12,13,13,14,14,15,15,16,16,17,17,18,18,19,19,20,20,21,21,22,22,23,23,24,24,25,25,26,26,27,27,28,28,29,29,30,30],"right_children":[2,4,6,8,10,12,14,16,18,20,22,24,26,28,30,32,34,36,38,40,42,44,46,48,50,52,54,56,58,60,62,-1,-1,-1,-1,-1,-1,-1,-1,-1,-1,-1,-1,-1,-1,-1,-1,-1,-1,-1,-1,-1,-1,-1,-1,-1,-1,-1,-1,-1,-1,-1,-1],"split_conditions":[1.7174644E3,1.6758883E3,1.8208672E3,1.4973047E3,1.7155902E3,1.7213815E3,1.9536891E3,1.4288783E3,1.6689586E3,1.1E1,6E0,5E0,2E0,1.1E1,6E0,2E0,1.4814401E3,1.6415665E3,4E0,6E0,1.7052825E3,4E0,1E0,4E0,1E1,6E0,5E0,3E0,1.9174663E3,1.9665094E3,5E0,-5.316029E-3,-3.143688E-2,-7.007534E-3,-1.9705802E-2,-7.271038E-3,-3.1145895E-3,3.6698692E-3,-2.2908768E-2,-4.561953E-3,3.4303423E-3,3.064356E-3,2.6363978E-2,-2.46083E-2,2.10251E-3,4.9277665E-3,-4.3760173E-2,1.9448515E-2,6.11413E-2,1.793631E-2,-7.965132E-3,5.1991697E-3,-2.5408288E-2,1.3624917E-2,7.2491146E-3,1.0820664E-2,2.389392E-2,8.267749E-3,3.0581078E-2,3.4264702E-2,5.7960823E-3,8.937871E-2,3.6494546E-2],"split_indices":[3,3,3,3,3,3,3,3,3,1,1,1,1,1,1,0,3,3,1,0,3,1,0,0,1,0,1,0,3,3,0,0,0,0,0,0,0,0,0,0,0,0,0,0,0,0,0,0,0,0,0,0,0,0,0,0,0,0,0,0,0,0,0],"split_type":[0,0,0,0,0,0,0,0,0,0,0,0,0,0,0,0,0,0,0,0,0,0,0,0,0,0,0,0,0,0,0,0,0,0,0,0,0,0,0,0,0,0,0,0,0,0,0,0,0,0,0,0,0,0,0,0,0,0,0,0,0,0,0],"sum_hessian":[7.254E3,4.938E3,2.316E3,4.239E3,6.99E2,1.321E3,9.95E2,1.31E2,4.108E3,6.68E2,3.1E1,5.4E1,1.267E3,9.06E2,8.9E1,2.6E1,1.05E2,3.941E3,1.67E2,5.18E2,1.5E2,1.1E1,2E1,2.6E1,2.8E1,1.37E2,1.13E3,6.78E2,2.28E2,3.6E1,5.3E1,4E0,2.2E1,5.2E1,5.3E1,3.084E3,8.57E2,4.9E1,1.18E2,3.82E2,1.36E2,1.1E2,4E1,6E0,5E0,3E0,1.7E1,8E0,1.8E1,1.4E1,1.4E1,1.14E2,2.3E1,3.88E2,7.42E2,1.47E2,5.31E2,1.97E2,3.1E1,1.7E1,1.9E1,7E0,4.6E1],"tree_param":{"num_deleted":"0","num_feature":"6","num_nodes":"63","size_leaf_vector":"1"}},{"base_weights":[-6.3365637E-3,-9.4924405E-2,3.1371596E-1,-1.9924873E-1,2.7137008E-2,1.7852497E-1,4.224009E-1,-3.1364644E-1,-1.5336904E-1,-1.2567803E-2,1.3778542E-1,2.5638366E-1,1.1115025E-1,9.108668E-2,4.635939E-1,-4.4256112E-1,-2.879271E-1,-1.4180332E-1,-4.6931165E-1,-5.82927E-3,-6.9959146E-1,8.9732E-1,1.0607467E-1,1.3611501E-1,4.71306E-1,-2.1163413E-1,1.8631727E-1,4.642856E-1,2.4216573E-3,4.1031027E-1,7.0031464E-1,-2.0437025E-2,-3.9308168E-2,1.637446E-2,-1.4880465E-2,-9.254249E-3,-4.1000945E-3,2.1653613E-2,-2.6852563E-2,-5.1594415E-4,2.2420052E-2,-3.839586E-2,1.3256785E-2,-2.5163174E-2,5.4276027E-2,3.515461E-2,3.9575524E-3,1.5877996E-2,2.9186692E-4,2.095127E-3,3.630304E-2,4.1260454E-3,-2.0938884E-2,1.6574772E-2,6.3901553E-3,-2.51233E-3,3.02422E-2,-5.9323786E-3,1.769918E-2,2.4214786E-2,1.1809913E-2,6.608682E-3,3.7567455E-2],"categories":[],"categories_nodes":[],"categories_segments":[],"categories_sizes":[],"default_left":[0,0,0,0,0,0,0,0,0,0,0,0,0,0,0,0,0,0,0,0,0,0,0,0,0,0,0,0,0,0,0,0,0,0,0,0,0,0,0,0,0,0,0,0,0,0,0,0,0,0,0,0,0,0,0,0,0,0,0,0,0,0,0],"id":18,"left_children":[1,3,5,7,9,11,13,15,17,19,21,23,25,27,29,31,33,35,37,39,41,43,45,47,49,51,53,55,57,59,61,-1,-1,-1,-1,-1,-1,-1,-1,-1,-1,-1,-1,-1,-1,-1,-1,-1,-1,-1,-1,-1,-1,-1,-1,-1,-1,-1,-1,-1,-1,-1,-1],"loss_changes":[2.0873448E2,7.3429504E1,2.3374954E1,1.6269577E1,1.1679054E1,3.711691E0,1.2022476E1,2.8201447E0,8.04921E0,9.055917E0,1.681277E1,8.465826E0,9.356323E0,3.2747545E0,9.626724E0,1.3753071E0,4.530655E0,5.534149E0,5.000498E0,3.9588652E0,1.4559994E0,7.92684E0,1.0794216E1,5.033086E0,1.2877899E1,4.4826174E0,2.6080675E0,1.4045062E0,3.4896295E0,8.1814575E0,4.0469513E0,0E0,0E0,0E0,0E0,0E0,0E0,0E0,0E0,0E0,0E0,0E0,0E0,0E0,0E0,0E0,0E0,0E0,0E0,0E0,0E0,0E0,0E0,0E0,0E0,0E0,0E0,0E0,0E0,0E0,0E0,0E0,0E0],"parents":[2147483647,0,0,1,1,2,2,3,3,4,4,5,5,6,6,7,7,8,8,9,9,10,10,11,11,12,12,13,13,14,14,15,15,16,16,17,17,18,18,19,19,20,20,21,21,22,22,23,23,24,24,25,25,26,26,27,27,28,28,29,29,30,30],"right_children":[2,4,6,8,10,12,14,16,18,20,22,24,26,28,30,32,34,36,38,40,42,44,46,48,50,52,54,56,58,60,62,-1,-1,-1,-1,-1,-1,-1,-1,-1,-1,-1,-1,-1,-1,-1,-1,-1,-1,-1,-1,-1,-1,-1,-1,-1,-1,-1,-1,-1,-1,-1,-1],"split_conditions":[1.2322364E2,-2.9230963E1,1.9388358E2,-1.939875E2,1.7174644E3,1.5165031E2,1.767811E3,1.523765E3,-3.3785366E1,1.7155902E3,1.7213815E3,1.4048059E2,1.5978468E2,4E0,3.271314E2,-2.080625E2,-3.984198E2,-8.493883E1,1.540132E3,1.7131229E3,1.093711E2,2E0,-1.7200163E1,1.3034235E2,1.739872E3,1.7569556E3,1.6829176E2,2.0585297E2,2.5365695E2,2.7481088E2,2E0,-2.0437025E-2,-3.9308168E-2,1.637446E-2,-1.4880465E-2,-9.254249E-3,-4.1000945E-3,2.1653613E-2,-2.6852563E-2,-5.1594415E-4,2.2420052E-2,-3.839586E-2,1.3256785E-2,-2.5163174E-2,5.4276027E-2,3.515461E-2,3.9575524E-3,1.5877996E-2,2.9186692E-4,2.095127E-3,3.630304E-2,4.1260454E-3,-2.0938884E-2,1.6574772E-2,6.3901553E-3,-2.51233E-3,3.02422E-2,-5.9323786E-3,1.769918E-2,2.4214786E-2,1.1809913E-2,6.608682E-3,3.7567455E-2],"split_indices":[5,5,5,5,3,5,3,3,5,3,3,5,5,0,5,5,5,5,3,3,5,0,5,5,3,3,5,5,5,5,0,0,0,0,0,0,0,0,0,0,0,0,0,0,0,0,0,0,0,0,0,0,0,0,0,0,0,0,0,0,0,0,0],"split_type":[0,0,0,0,0,0,0,0,0,0,0,0,0,0,0,0,0,0,0,0,0,0,0,0,0,0,0,0,0,0,0,0,0,0,0,0,0,0,0,0,0,0,0,0,0,0,0,0,0,0,0,0,0,0,0,0,0,0,0,0,0,0,0],"sum_hessian":[7.36E3,5.765E3,1.595E3,3.108E3,2.657E3,7.12E2,8.83E2,8.88E2,2.22E3,1.956E3,7.01E2,3.29E2,3.83E2,9.8E1,7.85E2,1.45E2,7.43E2,2.143E3,7.7E1,1.938E3,1.8E1,2.7E1,6.74E2,2.12E2,1.17E2,7.2E1,3.11E2,1.8E1,8E1,6.43E2,1.42E2,1.34E2,1.1E1,1.1E1,7.32E2,1.242E3,9.01E2,5E0,7.2E1,1.92E3,1.8E1,1.7E1,1E0,3E0,2.4E1,2.8E1,6.46E2,8.8E1,1.24E2,4.4E1,7.3E1,3E1,4.2E1,8.8E1,2.23E2,4E0,1.4E1,6E1,2E1,4.5E2,1.93E2,1.2E1,1.3E2],"tree_param":{"num_deleted":"0","num_feature":"6","num_nodes":"63","size_leaf_vector":"1"}},{"base_weights":[-2.9425288E-3,-1.1068697E-1,2.4071805E-1,-2.2656536E-1,-4.2011794E-2,1.5518235E-1,4.1020554E-1,-2.2963496E-1,1.265112E0,-9.6365996E-2,2.8155614E-2,-1.5085505E-1,1.8800312E-1,2.792117E-1,5.117706E-1,-1.7849833E-1,-2.7432865E-1,7.4292324E-2,1.5072718E-2,-1.2428325E-1,-2.5914758E-2,1.388053E0,2.4187729E-2,-3.136356E-1,2.802152E-1,5.611244E-2,2.225404E-1,1.997177E-1,6.3826543E-1,5.648068E-1,2.869171E-1,-1.2520115E-2,-6.327332E-3,-1.3967561E-2,3.6384773E-3,-7.599803E-3,1.3682673E-3,3.203098E-2,-2.0307442E-3,7.2972924E-3,8.767202E-2,-1.124834E-2,2.450221E-3,-8.554812E-3,-2.7523447E-2,5.9257407E-2,7.3373155E-3,-1.5868081E-3,2.5088731E-2,1.6094469E-2,8.293006E-3,1.1504097E-2,-1.19081875E-2,-2.4220001E-2,3.755931E-2,3.730605E-2,2.123602E-2,5.5603357E-3,4.3184135E-2],"categories":[],"categories_nodes":[],"categories_segments":[],"categories_sizes":[],"default_left":[0,0,0,0,0,0,0,0,0,0,0,0,0,0,0,0,0,0,0,0,0,0,0,0,0,0,0,0,0,0,0,0,0,0,0,0,0,0,0,0,0,0,0,0,0,0,0,0,0,0,0,0,0,0,0,0,0,0,0],"id":19,"left_children":[1,3,5,7,9,11,13,15,17,19,21,23,25,27,29,31,33,-1,-1,35,37,39,41,43,45,47,49,51,53,55,57,-1,-1,-1,-1,-1,-1,-1,-1,-1,-1,-1,-1,-1,-1,-1,-1,-1,-1,-1,-1,-1,-1,-1,-1,-1,-1,-1,-1],"loss_changes":[1.905977E2,4.0050896E1,3.22072E1,8.866684E0,1.2062244E1,1.4904095E1,9.782188E0,4.2248917E0,4.0293455E-1,3.5016232E0,7.418187E0,1.0192344E1,6.0822945E0,9.234505E0,4.834671E0,3.2369003E0,1.7566757E0,0E0,0E0,5.3666935E0,4.9936748E0,1.5594926E0,8.531462E0,3.4504137E0,4.6573E0,1.0938996E1,5.9156075E0,3.644699E0,7.843445E0,8.268204E0,8.214135E0,0E0,0E0,0E0,0E0,0E0,0E0,0E0,0E0,0E0,0E0,0E0,0E0,0E0,0E0,0E0,0E0,0E0,0E0,0E0,0E0,0E0,0E0,0E0,0E0,0E0,0E0,0E0,0E0],"parents":[2147483647,0,0,1,1,2,2,3,3,4,4,5,5,6,6,7,7,8,8,9,9,10,10,11,11,12,12,13,13,14,14,15,15,16,16,19,19,20,20,21,21,22,22,23,23,24,24,25,25,26,26,27,27,28,28,29,29,30,30],"right_children":[2,4,6,8,10,12,14,16,18,20,22,24,26,28,30,32,34,-1,-1,36,38,40,42,44,46,48,50,52,54,56,58,-1,-1,-1,-1,-1,-1,-1,-1,-1,-1,-1,-1,-1,-1,-1,-1,-1,-1,-1,-1,-1,-1,-1,-1,-1,-1,-1,-1],"split_conditions":[7.813732E1,-1.0019262E2,2.1055968E2,1.8153052E3,5.073538E-1,2E0,1.8665913E3,1.5971027E3,8E0,1.6526006E3,1.5293103E3,1.5978468E2,1.6745653E3,2.8732495E2,6E0,1.540132E3,1.7848761E3,7.4292324E-2,1.5072718E-2,6E0,1.6542462E3,6E0,1.5933007E3,1.7486239E3,1.6494914E2,6E0,5E0,2.8225623E2,2E0,1.8969454E3,1.9427186E3,-1.2520115E-2,-6.327332E-3,-1.3967561E-2,3.6384773E-3,-7.599803E-3,1.3682673E-3,3.203098E-2,-2.0307442E-3,7.2972924E-3,8.767202E-2,-1.124834E-2,2.450221E-3,-8.554812E-3,-2.7523447E-2,5.9257407E-2,7.3373155E-3,-1.5868081E-3,2.5088731E-2,1.6094469E-2,8.293006E-3,1.1504097E-2,-1.19081875E-2,-2.4220001E-2,3.755931E-2,3.730605E-2,2.123602E-2,5.5603357E-3,4.3184135E-2],"split_indices":[5,5,5,3,5,1,3,3,1,3,3,5,3,5,0,3,3,0,0,0,3,1,3,3,5,0,1,5,1,3,3,0,0,0,0,0,0,0,0,0,0,0,0,0,0,0,0,0,0,0,0,0,0,0,0,0,0,0,0],"split_type":[0,0,0,0,0,0,0,0,0,0,0,0,0,0,0,0,0,0,0,0,0,0,0,0,0,0,0,0,0,0,0,0,0,0,0,0,0,0,0,0,0,0,0,0,0,0,0,0,0,0,0,0,0,0,0,0,0,0,0],"sum_hessian":[7.258E3,5.033E3,2.225E3,1.872E3,3.161E3,1.48E3,7.45E2,1.869E3,3E0,1.781E3,1.38E3,1.43E2,1.337E3,3.27E2,4.18E2,8.74E2,9.95E2,2E0,1E0,1.275E3,5.06E2,3E0,1.377E3,1.04E2,3.9E1,2.78E2,1.059E3,2.69E2,5.8E1,3.37E2,8.1E1,3.65E2,5.09E2,9.81E2,1.4E1,1.078E3,1.97E2,1E1,4.96E2,1E0,2E0,1.24E2,1.253E3,6.6E1,3.8E1,4E0,3.5E1,2.33E2,4.5E1,3.83E2,6.76E2,2.52E2,1.7E1,5E0,5.3E1,1.45E2,1.92E2,6.3E1,1.8E1],"tree_param":{"num_deleted":"0","num_feature":"6","num_nodes":"59","size_leaf_vector":"1"}},{"base_weights":[-7.3433397E-3,-1.1051188E-1,2.1402839E-1,-5.243787E-2,-2.4327818E-1,2.9253596E-1,4.67514E-2,-1.2825878E-1,-8.508468E-3,-1.9807296E-1,-3.531112E-1,2.2001761E-1,4.6930397E-1,-4.6907376E-2,2.0996077E-1,-1.4071344E-1,4.0827832E-1,1.11635536E-1,-4.65044E-2,-5.020143E-1,-1.8082617E-1,-3.6942843E-1,7.205737E-3,1.6761772E-1,2.9059762E-1,4.1604307E-1,8.432607E-1,-7.948615E-1,-2.2254817E-2,-4.6295863E-1,2.513598E-1,-2.066964E-3,-8.958523E-3,-1.9761907E-2,3.6660034E-2,8.644736E-4,1.5202261E-2,-1.2957345E-2,-1.7086603E-3,-1.744357E-2,-3.2408345E-2,-2.4676612E-2,-8.39192E-3,-2.4963072E-2,-1.5136443E-2,3.740406E-2,-2.2463595E-2,6.236105E-3,1.43722175E-2,3.756588E-2,1.3166624E-2,7.637711E-2,1.9767238E-2,-7.786918E-3,4.6155088E-2,1.0510585E-2,-4.408338E-2,4.073446E-3,-8.690859E-3,1.7066501E-2,-3.797495E-2,2.7666992E-2,7.256926E-3],"categories":[],"categories_nodes":[],"categories_segments":[],"categories_sizes":[],"default_left":[0,0,0,0,0,0,0,0,0,0,0,0,0,0,0,0,0,0,0,0,0,0,0,0,0,0,0,0,0,0,0,0,0,0,0,0,0,0,0,0,0,0,0,0,0,0,0,0,0,0,0,0,0,0,0,0,0,0,0,0,0,0,0],"id":20,"left_children":[1,3,5,7,9,11,13,15,17,19,21,23,25,27,29,31,33,35,37,39,41,43,45,47,49,51,53,55,57,59,61,-1,-1,-1,-1,-1,-1,-1,-1,-1,-1,-1,-1,-1,-1,-1,-1,-1,-1,-1,-1,-1,-1,-1,-1,-1,-1,-1,-1,-1,-1,-1,-1],"loss_changes":[1.6617444E2,3.825331E1,3.0361824E1,1.1503378E1,7.427246E0,2.0073746E1,1.1321481E1,8.524033E0,9.993376E0,5.528656E0,2.583706E0,4.0860825E0,8.751358E0,8.66707E0,7.6380835E0,4.727598E0,7.861123E0,9.543272E0,4.3517566E0,1.0496607E0,4.0435104E0,3.4859772E0,7.0999537E0,3.274332E0,5.7689095E0,8.644577E0,4.610386E0,1.4940338E0,7.198482E0,4.075305E0,8.099249E0,0E0,0E0,0E0,0E0,0E0,0E0,0E0,0E0,0E0,0E0,0E0,0E0,0E0,0E0,0E0,0E0,0E0,0E0,0E0,0E0,0E0,0E0,0E0,0E0,0E0,0E0,0E0,0E0,0E0,0E0,0E0,0E0],"parents":[2147483647,0,0,1,1,2,2,3,3,4,4,5,5,6,6,7,7,8,8,9,9,10,10,11,11,12,12,13,13,14,14,15,15,16,16,17,17,18,18,19,19,20,20,21,21,22,22,23,23,24,24,25,25,26,26,27,27,28,28,29,29,30,30],"right_children":[2,4,6,8,10,12,14,16,18,20,22,24,26,28,30,32,34,36,38,40,42,44,46,48,50,52,54,56,58,60,62,-1,-1,-1,-1,-1,-1,-1,-1,-1,-1,-1,-1,-1,-1,-1,-1,-1,-1,-1,-1,-1,-1,-1,-1,-1,-1,-1,-1,-1,-1,-1,-1],"split_conditions":[1.7174644E3,1.7279244E3,1.7075408E3,1.6017688E3,1.8623407E3,1.8578436E3,1.8260396E3,1.7195609E3,1.5781345E3,1.5167688E3,1.9796584E3,1.7891069E3,1.9536891E3,1.7113657E3,1E0,1.589668E3,1.523765E3,1.560014E3,1.5876077E3,1.4905162E3,1.7322183E3,1.5959504E3,1.5848966E3,6E0,1.7916259E3,1.4904128E3,1.5298175E3,1.7213815E3,1.8162494E3,1.7607958E3,1.8578436E3,-2.066964E-3,-8.958523E-3,-1.9761907E-2,3.6660034E-2,8.644736E-4,1.5202261E-2,-1.2957345E-2,-1.7086603E-3,-1.744357E-2,-3.2408345E-2,-2.4676612E-2,-8.39192E-3,-2.4963072E-2,-1.5136443E-2,3.740406E-2,-2.2463595E-2,6.236105E-3,1.43722175E-2,3.756588E-2,1.3166624E-2,7.637711E-2,1.9767238E-2,-7.786918E-3,4.6155088E-2,1.0510585E-2,-4.408338E-2,4.073446E-3,-8.690859E-3,1.7066501E-2,-3.797495E-2,2.7666992E-2,7.256926E-3],"split_indices":[3,4,4,3,4,3,3,4,4,3,4,3,3,4,0,4,3,4,4,3,4,3,3,0,3,4,4,3,4,4,3,0,0,0,0,0,0,0,0,0,0,0,0,0,0,0,0,0,0,0,0,0,0,0,0,0,0,0,0,0,0,0,0],"split_type":[0,0,0,0,0,0,0,0,0,0,0,0,0,0,0,0,0,0,0,0,0,0,0,0,0,0,0,0,0,0,0,0,0,0,0,0,0,0,0,0,0,0,0,0,0,0,0,0,0,0,0,0,0,0,0,0,0,0,0,0,0,0,0],"sum_hessian":[7.274E3,4.962E3,2.312E3,3.453E3,1.509E3,1.573E3,7.39E2,1.266E3,2.187E3,1.071E3,4.38E2,1.117E3,4.56E2,4.7E2,2.69E2,1.238E3,2.8E1,5.25E2,1.662E3,5.6E1,1.015E3,4.19E2,1.9E1,6.43E2,4.74E2,4.01E2,5.5E1,1.4E1,4.56E2,1.5E1,2.54E2,3.46E2,8.92E2,8E0,2E1,3.53E2,1.72E2,9E1,1.572E3,2.9E1,2.7E1,3.9E1,9.76E2,1.4E2,2.79E2,7E0,1.2E1,4.75E2,1.68E2,2.5E1,4.49E2,6E0,3.95E2,4E0,5.1E1,1E0,1.3E1,2.71E2,1.85E2,4E0,1.1E1,6.5E1,1.89E2],"tree_param":{"num_deleted":"0","num_feature":"6","num_nodes":"63","size_leaf_vector":"1"}},{"base_weights":[-5.9492504E-3,-1.0367529E-1,2.028603E-1,-5.4355215E-2,-2.5222853E-1,2.9829958E-1,7.979072E-3,4.5389E-2,-9.7711384E-2,-2.1314633E-1,-3.2197186E-1,2.0389806E-1,3.636066E-1,-8.016973E-2,1.7302185E-1,2.9730644E-2,4.613289E-1,-9.269475E-2,-7.750942E-1,-4.5966753E-1,-2.0019841E-1,-3.4029877E-1,2.7489165E-2,2.3144604E-1,-8.8012986E-2,1.0578284E0,3.5017905E-1,1.30018955E-2,-2.0577188E-1,1.5388408E0,1.3572776E-1,-9.677714E-7,1.0215077E-2,4.531459E-2,3.6846555E-3,-9.213334E-3,-3.0376904E-3,-4.944143E-2,-2.4192521E-2,-1.7282492E-2,-4.006606E-2,-1.4780386E-3,-1.1937199E-2,-2.3101224E-2,-1.4307255E-2,3.6997505E-2,-2.416875E-2,1.0513074E-2,3.956995E-2,7.217962E-2,-1.5033874E-2,6.061352E-2,-3.533105E-2,1.4174453E-2,2.1786813E-2,-1.639837E-3,4.92171E-2,-7.562492E-3,-2.7324466E-2,9.0988256E-2,2.7884329E-2,1.257649E-2,-1.1232775E-2],"categories":[],"categories_nodes":[],"categories_segments":[],"categories_sizes":[],"default_left":[0,0,0,0,0,0,0,0,0,0,0,0,0,0,0,0,0,0,0,0,0,0,0,0,0,0,0,0,0,0,0,0,0,0,0,0,0,0,0,0,0,0,0,0,0,0,0,0,0,0,0,0,0,0,0,0,0,0,0,0,0,0,0],"id":21,"left_children":[1,3,5,7,9,11,13,15,17,19,21,23,25,27,29,31,33,35,37,39,41,43,45,47,49,51,53,55,57,59,61,-1,-1,-1,-1,-1,-1,-1,-1,-1,-1,-1,-1,-1,-1,-1,-1,-1,-1,-1,-1,-1,-1,-1,-1,-1,-1,-1,-1,-1,-1,-1,-1],"loss_changes":[1.4894496E2,3.6414433E1,4.3278244E1,1.6152218E1,3.308548E0,9.555725E0,1.1157886E1,7.358927E0,8.773611E0,2.45195E0,2.8465652E0,5.1750126E0,8.2241745E0,5.8539534E0,1.3391304E1,5.6712885E0,7.0050364E0,7.549654E0,7.042818E-1,1.2422504E0,4.985132E0,2.6429825E0,8.729E0,6.784939E0,1.867427E1,5.4892006E0,5.045944E0,1.2844266E1,3.8741608E0,9.145508E-1,1.0948851E1,0E0,0E0,0E0,0E0,0E0,0E0,0E0,0E0,0E0,0E0,0E0,0E0,0E0,0E0,0E0,0E0,0E0,0E0,0E0,0E0,0E0,0E0,0E0,0E0,0E0,0E0,0E0,0E0,0E0,0E0,0E0,0E0],"parents":[2147483647,0,0,1,1,2,2,3,3,4,4,5,5,6,6,7,7,8,8,9,9,10,10,11,11,12,12,13,13,14,14,15,15,16,16,17,17,18,18,19,19,20,20,21,21,22,22,23,23,24,24,25,25,26,26,27,27,28,28,29,29,30,30],"right_children":[2,4,6,8,10,12,14,16,18,20,22,24,26,28,30,32,34,36,38,40,42,44,46,48,50,52,54,56,58,60,62,-1,-1,-1,-1,-1,-1,-1,-1,-1,-1,-1,-1,-1,-1,-1,-1,-1,-1,-1,-1,-1,-1,-1,-1,-1,-1,-1,-1,-1,-1,-1,-1],"split_conditions":[1.7174644E3,1.7562756E3,1.7075408E3,1.5971542E3,1.8623407E3,1.7891069E3,1.8317345E3,1.5951652E3,1.7155902E3,1.5085059E3,1.9796584E3,1.7825206E3,1.4904128E3,1.7808746E3,1.8357213E3,6E0,1.6193152E3,1.5783341E3,1.6311754E3,1.5036615E3,1.5769042E3,1.5959504E3,1.5971027E3,1.7808746E3,1.5480796E3,1.9665094E3,1.6270182E3,1.7784564E3,1.8983402E3,6E0,1.843778E3,-9.677714E-7,1.0215077E-2,4.531459E-2,3.6846555E-3,-9.213334E-3,-3.0376904E-3,-4.944143E-2,-2.4192521E-2,-1.7282492E-2,-4.006606E-2,-1.4780386E-3,-1.1937199E-2,-2.3101224E-2,-1.4307255E-2,3.6997505E-2,-2.416875E-2,1.0513074E-2,3.956995E-2,7.217962E-2,-1.5033874E-2,6.061352E-2,-3.533105E-2,1.4174453E-2,2.1786813E-2,-1.639837E-3,4.92171E-2,-7.562492E-3,-2.7324466E-2,9.0988256E-2,2.7884329E-2,1.257649E-2,-1.1232775E-2],"split_indices":[3,4,4,4,4,3,3,4,3,3,4,3,4,3,3,0,3,3,4,3,3,3,3,3,4,3,4,3,4,0,4,0,0,0,0,0,0,0,0,0,0,0,0,0,0,0,0,0,0,0,0,0,0,0,0,0,0,0,0,0,0,0,0],"split_type":[0,0,0,0,0,0,0,0,0,0,0,0,0,0,0,0,0,0,0,0,0,0,0,0,0,0,0,0,0,0,0,0,0,0,0,0,0,0,0,0,0,0,0,0,0,0,0,0,0,0,0,0,0,0,0,0,0,0,0,0,0,0,0],"sum_hessian":[7.297E3,4.971E3,2.326E3,3.733E3,1.238E3,1.561E3,7.65E2,1.131E3,2.602E3,7.96E2,4.42E2,6.4E2,9.21E2,4.99E2,2.66E2,1.091E3,4E1,2.584E3,1.8E1,3.8E1,7.58E2,4.2E2,2.2E1,5.85E2,5.5E1,1.6E1,9.05E2,2.87E2,2.12E2,6E0,2.6E2,9.33E2,1.58E2,1.8E1,2.2E1,6.67E2,1.917E3,9E0,9E0,3E1,8E0,1.4E2,6.18E2,1.27E2,2.93E2,9E0,1.3E1,5.65E2,2E1,6E0,4.9E1,1.5E1,1E0,5.11E2,3.94E2,2.75E2,1.2E1,1.84E2,2.8E1,4E0,2E0,1.97E2,6.3E1],"tree_param":{"num_deleted":"0","num_feature":"6","num_nodes":"63","size_leaf_vector":"1"}},{"base_weights":[-2.6829615E-3,-7.578862E-2,2.8327936E-1,-2.1944109E-1,-7.1105184E-3,2.4575959E-1,6.0758E-1,-3.241119E-1,-1.8872492E-1,-4.094344E-2,7.071972E-2,9.836983E-2,3.1975967E-1,6.9531465E-1,2.5410476E-1,-3.443305E-1,-1.3684401E-3,-1.4658438E-1,-2.8044727E-1,-8.786794E-2,-3.6539247E-3,9.055953E-2,-4.6014044E-1,1.23902984E-1,-4.8197538E-1,3.00598E-1,7.765265E-1,5.27599E-1,1.1920561E0,4.4281238E-1,-2.014877E-2,-1.7513774E-2,2.7858285E-2,2.7003342E-2,-1.8675983E-2,-8.774366E-3,7.513118E-3,-1.5012944E-2,1.0915788E-2,-1.5676813E-2,-3.6769062E-3,-7.7519607E-4,1.3355076E-2,-6.3488807E-4,8.178268E-3,4.7202613E-2,-2.945281E-2,1.9329855E-3,1.6281594E-2,2.8730502E-2,-2.8629867E-2,1.651878E-2,-1.0641706E-3,4.7881726E-2,-2.5082434E-2,1.1210811E-2,3.3425402E-2,1.3159975E-1,4.6729084E-2,-1.5160483E-2,3.0082107E-2,-2.527677E-2,1.5284054E-2],"categories":[],"categories_nodes":[],"categories_segments":[],"categories_sizes":[],"default_left":[0,0,0,0,0,0,0,0,0,0,0,0,0,0,0,0,0,0,0,0,0,0,0,0,0,0,0,0,0,0,0,0,0,0,0,0,0,0,0,0,0,0,0,0,0,0,0,0,0,0,0,0,0,0,0,0,0,0,0,0,0,0,0],"id":22,"left_children":[1,3,5,7,9,11,13,15,17,19,21,23,25,27,29,31,33,35,37,39,41,43,45,47,49,51,53,55,57,59,61,-1,-1,-1,-1,-1,-1,-1,-1,-1,-1,-1,-1,-1,-1,-1,-1,-1,-1,-1,-1,-1,-1,-1,-1,-1,-1,-1,-1,-1,-1,-1,-1],"loss_changes":[1.5217143E2,5.7190353E1,1.7883186E1,5.9671173E0,1.0333034E1,1.4474655E1,4.568157E0,2.7663078E0,5.5712013E0,4.7853594E0,1.2564415E1,6.6685653E0,7.512474E0,9.535057E0,1.6650417E0,2.3335533E0,5.440616E0,8.580376E0,4.571415E0,3.8930569E0,4.897029E0,8.648604E0,8.340072E0,7.3473105E0,2.1482673E0,8.163742E0,8.58247E0,3.825798E0,8.662613E0,2.433743E0,2.3686807E0,0E0,0E0,0E0,0E0,0E0,0E0,0E0,0E0,0E0,0E0,0E0,0E0,0E0,0E0,0E0,0E0,0E0,0E0,0E0,0E0,0E0,0E0,0E0,0E0,0E0,0E0,0E0,0E0,0E0,0E0,0E0,0E0],"parents":[2147483647,0,0,1,1,2,2,3,3,4,4,5,5,6,6,7,7,8,8,9,9,10,10,11,11,12,12,13,13,14,14,15,15,16,16,17,17,18,18,19,19,20,20,21,21,22,22,23,23,24,24,25,25,26,26,27,27,28,28,29,29,30,30],"right_children":[2,4,6,8,10,12,14,16,18,20,22,24,26,28,30,32,34,36,38,40,42,44,46,48,50,52,54,56,58,60,62,-1,-1,-1,-1,-1,-1,-1,-1,-1,-1,-1,-1,-1,-1,-1,-1,-1,-1,-1,-1,-1,-1,-1,-1,-1,-1,-1,-1,-1,-1,-1,-1],"split_conditions":[1.3546048E2,-1.0019262E2,3.271314E2,-2.5876587E2,1.6891602E3,1.5747336E3,4.0235757E2,1.9796584E3,1.6425011E3,-1.5615864E1,1.3034235E2,1.5718872E3,1.7457961E3,3.7599005E2,1.9665094E3,1.6967205E3,1.5971027E3,1.8357284E3,1.7848761E3,1E0,1.663037E3,3.617294E1,1.565736E3,2.5365695E2,1.7131229E3,1.6961743E3,1.8061837E3,5E0,1.8770425E3,1.86969E3,1.5555266E3,-1.7513774E-2,2.7858285E-2,2.7003342E-2,-1.8675983E-2,-8.774366E-3,7.513118E-3,-1.5012944E-2,1.0915788E-2,-1.5676813E-2,-3.6769062E-3,-7.7519607E-4,1.3355076E-2,-6.3488807E-4,8.178268E-3,4.7202613E-2,-2.945281E-2,1.9329855E-3,1.6281594E-2,2.8730502E-2,-2.8629867E-2,1.651878E-2,-1.0641706E-3,4.7881726E-2,-2.5082434E-2,1.1210811E-2,3.3425402E-2,1.3159975E-1,4.6729084E-2,-1.5160483E-2,3.0082107E-2,-2.527677E-2,1.5284054E-2],"split_indices":[5,5,5,5,3,4,5,4,3,5,5,4,4,5,3,3,3,4,3,0,4,5,4,5,3,4,4,0,3,3,4,0,0,0,0,0,0,0,0,0,0,0,0,0,0,0,0,0,0,0,0,0,0,0,0,0,0,0,0,0,0,0,0],"split_type":[0,0,0,0,0,0,0,0,0,0,0,0,0,0,0,0,0,0,0,0,0,0,0,0,0,0,0,0,0,0,0,0,0,0,0,0,0,0,0,0,0,0,0,0,0,0,0,0,0,0,0,0,0,0,0,0,0,0,0,0,0,0,0],"sum_hessian":[7.277E3,5.796E3,1.481E3,1.874E3,3.922E3,1.329E3,1.52E2,4.23E2,1.451E3,2.734E3,1.188E3,4.45E2,8.84E2,1.21E2,3.1E1,3.98E2,2.5E1,9.96E2,4.55E2,1.21E3,1.524E3,1.146E3,4.2E1,4.27E2,1.8E1,8.5E2,3.4E1,9.2E1,2.9E1,1.8E1,1.3E1,3.96E2,2E0,1E1,1.5E1,9.08E2,8.8E1,4.38E2,1.7E1,7.1E1,1.139E3,1.461E3,6.3E1,4.75E2,6.71E2,3E0,3.9E1,3.01E2,1.26E2,1E0,1.7E1,7.78E2,7.2E1,3E1,4E0,3E1,6.2E1,3E0,2.6E1,3E0,1.5E1,5E0,8E0],"tree_param":{"num_deleted":"0","num_feature":"6","num_nodes":"63","size_leaf_vector":"1"}},{"base_weights":[5.9064315E-3,-1.290306E-1,1.465598E-1,-1.8787773E-1,-6.767179E-2,7.9306595E-2,3.1690064E-1,-6.647801E-1,-1.837476E-1,-1.3113743E-1,-2.8020456E-3,3.219138E-1,6.9059454E-2,2.88809E-1,7.671852E-1,-7.069736E-1,-1.2314174E-2,-2.314685E-1,-1.392413E-1,-3.4501413E-1,-9.066178E-2,2.867391E-1,-3.077365E-2,6.64706E-1,1.532258E-1,-2.950791E-1,8.152923E-2,1.9274928E-1,4.380338E-1,5.1816E-1,1.8067354E0,-1.7699322E-2,-4.0638495E-2,-1.9553576E-2,-1.0978428E-2,-1.3602927E-2,-5.224812E-3,2.2469098E-2,-1.9698387E-2,2.3366861E-2,-6.3539133E-3,3.646447E-4,3.0565191E-2,-9.950618E-4,-2.9065246E-2,2.477907E-2,9.046226E-2,-2.258499E-3,2.7181646E-2,-1.9766023E-2,7.1562002E-3,2.9566432E-3,8.666663E-3,1.2351246E-2,-1.5374486E-3,2.6852503E-2,1.8064113E-3,3.6048394E-2,-2.3165805E-2,1.2790504E-1,3.7712373E-2],"categories":[],"categories_nodes":[],"categories_segments":[],"categories_sizes":[],"default_left":[0,0,0,0,0,0,0,0,0,0,0,0,0,0,0,0,0,0,0,0,0,0,0,0,0,0,0,0,0,0,0,0,0,0,0,0,0,0,0,0,0,0,0,0,0,0,0,0,0,0,0,0,0,0,0,0,0,0,0,0,0],"id":23,"left_children":[1,3,5,7,9,11,13,15,17,19,21,23,25,27,29,31,-1,33,35,37,39,41,43,45,47,49,51,53,55,57,59,-1,-1,-1,-1,-1,-1,-1,-1,-1,-1,-1,-1,-1,-1,-1,-1,-1,-1,-1,-1,-1,-1,-1,-1,-1,-1,-1,-1,-1,-1],"loss_changes":[1.3904265E2,1.34880295E1,4.106742E1,3.635971E0,7.541976E0,6.3743286E0,1.2617401E1,1.0840988E-1,3.9882736E0,7.9849167E0,7.3545547E0,5.9119425E0,1.1239654E1,1.3633682E1,1.4337402E1,2.3511648E-1,0E0,1.6462631E0,4.50325E0,5.8936596E0,1.5909275E1,7.2514124E0,4.944512E0,5.684742E0,5.5238695E0,3.6585174E0,4.901718E0,7.091814E0,1.4863991E1,1.0087542E1,6.76939E0,0E0,0E0,0E0,0E0,0E0,0E0,0E0,0E0,0E0,0E0,0E0,0E0,0E0,0E0,0E0,0E0,0E0,0E0,0E0,0E0,0E0,0E0,0E0,0E0,0E0,0E0,0E0,0E0,0E0,0E0],"parents":[2147483647,0,0,1,1,2,2,3,3,4,4,5,5,6,6,7,7,8,8,9,9,10,10,11,11,12,12,13,13,14,14,15,15,17,17,18,18,19,19,20,20,21,21,22,22,23,23,24,24,25,25,26,26,27,27,28,28,29,29,30,30],"right_children":[2,4,6,8,10,12,14,16,18,20,22,24,26,28,30,32,-1,34,36,38,40,42,44,46,48,50,52,54,56,58,60,-1,-1,-1,-1,-1,-1,-1,-1,-1,-1,-1,-1,-1,-1,-1,-1,-1,-1,-1,-1,-1,-1,-1,-1,-1,-1,-1,-1,-1,-1],"split_conditions":[1.6645073E0,-9.903403E1,1.8192911E2,1.5983007E3,1.659582E3,7.5971594E0,3.7599005E2,-1.1813406E2,-1.9090936E2,-6.87273E1,1.6661736E3,1.6092233E3,1.1391558E1,1.6092233E3,1.5770997E3,-1.6548393E2,-1.2314174E-2,-3.6958044E2,3E0,-9.640908E1,-6.2511326E1,1.663037E3,1.9193087E3,6E0,1.6746185E3,1.7382461E3,1.6769432E3,6E0,2.7481088E2,6E0,1.5951652E3,-1.7699322E-2,-4.0638495E-2,-1.9553576E-2,-1.0978428E-2,-1.3602927E-2,-5.224812E-3,2.2469098E-2,-1.9698387E-2,2.3366861E-2,-6.3539133E-3,3.646447E-4,3.0565191E-2,-9.950618E-4,-2.9065246E-2,2.477907E-2,9.046226E-2,-2.258499E-3,2.7181646E-2,-1.9766023E-2,7.1562002E-3,2.9566432E-3,8.666663E-3,1.2351246E-2,-1.5374486E-3,2.6852503E-2,1.8064113E-3,3.6048394E-2,-2.3165805E-2,1.2790504E-1,3.7712373E-2],"split_indices":[5,5,5,4,4,5,5,5,5,5,4,4,5,4,4,5,0,5,0,5,5,4,4,0,4,4,4,0,5,0,4,0,0,0,0,0,0,0,0,0,0,0,0,0,0,0,0,0,0,0,0,0,0,0,0,0,0,0,0,0,0],"split_type":[0,0,0,0,0,0,0,0,0,0,0,0,0,0,0,0,0,0,0,0,0,0,0,0,0,0,0,0,0,0,0,0,0,0,0,0,0,0,0,0,0,0,0,0,0,0,0,0,0,0,0,0,0,0,0,0,0,0,0,0,0],"sum_hessian":[7.324E3,3.738E3,3.586E3,1.907E3,1.831E3,2.572E3,1.014E3,1.5E1,1.892E3,9.25E2,9.06E2,1.03E2,2.469E3,9.56E2,5.8E1,1.3E1,2E0,9.11E2,9.81E2,1.46E2,7.79E2,7.9E1,8.27E2,3.3E1,7E1,8.1E1,2.388E3,5.83E2,3.73E2,4.8E1,1E1,4E0,9E0,6.1E1,8.5E2,2.02E2,7.79E2,8E0,1.38E2,4.7E1,7.32E2,4.3E1,3.6E1,8.12E2,1.5E1,3E1,3E0,4.7E1,2.3E1,6.6E1,1.5E1,1.921E3,4.67E2,4.69E2,1.14E2,2.99E2,7.4E1,4E1,8E0,5E0,5E0],"tree_param":{"num_deleted":"0","num_feature":"6","num_nodes":"61","size_leaf_vector":"1"}},{"base_weights":[-8.600586E-3,-1.2029191E-1,1.24255896E-1,-2.2442709E-1,-8.692991E-2,6.286736E-2,2.9448372E-1,-2.715684E-1,-8.818096E-2,-4.6954356E-2,-1.2213313E-1,1.20022565E-1,8.930816E-3,2.6983052E-1,7.075782E-1,-1.2959558E-1,-3.079614E-1,-1.5717433E-1,1.457648E-1,-9.0149984E-2,5.8093935E-2,-1.0482744E-1,-4.8103467E-1,5.058717E-1,1.0011171E-1,-1.1507979E-1,3.5010923E-2,2.4082485E-1,3.8071325E-1,8.9508516E-1,5.484138E-2,-1.1284239E-2,2.7851693E-3,-1.8000245E-2,-1.11615695E-2,-4.0828777E-3,-1.55253885E-2,-1.5705135E-2,1.8303262E-2,-3.8283952E-3,-1.5037713E-2,-6.6954973E-3,9.332044E-3,-7.8908885E-3,-4.1830787E-3,-3.550503E-2,-1.841492E-2,1.4259997E-2,4.55444E-2,3.107252E-3,1.1474476E-2,-3.726987E-3,-3.1238649E-2,-5.344538E-3,3.3922554E-3,1.4117432E-2,4.460273E-3,2.2009192E-2,-9.424587E-5,1.8289581E-2,7.637006E-2,3.717465E-2,-2.7163295E-2],"categories":[],"categories_nodes":[],"categories_segments":[],"categories_sizes":[],"default_left":[0,0,0,0,0,0,0,0,0,0,0,0,0,0,0,0,0,0,0,0,0,0,0,0,0,0,0,0,0,0,0,0,0,0,0,0,0,0,0,0,0,0,0,0,0,0,0,0,0,0,0,0,0,0,0,0,0,0,0,0,0,0,0],"id":24,"left_children":[1,3,5,7,9,11,13,15,17,19,21,23,25,27,29,31,33,35,37,39,41,43,45,47,49,51,53,55,57,59,61,-1,-1,-1,-1,-1,-1,-1,-1,-1,-1,-1,-1,-1,-1,-1,-1,-1,-1,-1,-1,-1,-1,-1,-1,-1,-1,-1,-1,-1,-1,-1,-1],"loss_changes":[1.0802742E2,1.3720791E1,3.4727863E1,6.1355324E0,4.211849E0,7.5362635E0,8.781265E0,3.6388664E0,4.025806E0,6.380602E0,9.843758E0,9.068586E0,4.075899E0,2.5874329E0,5.9481544E0,2.6299396E0,2.415493E0,2.1978602E0,5.8895955E0,2.8259735E0,1.0144412E1,1.69273E0,1.6236267E0,4.9240036E0,5.5363493E0,4.478624E0,4.8575063E0,4.1489334E0,3.8916512E0,1.2159161E1,5.346565E0,0E0,0E0,0E0,0E0,0E0,0E0,0E0,0E0,0E0,0E0,0E0,0E0,0E0,0E0,0E0,0E0,0E0,0E0,0E0,0E0,0E0,0E0,0E0,0E0,0E0,0E0,0E0,0E0,0E0,0E0,0E0,0E0],"parents":[2147483647,0,0,1,1,2,2,3,3,4,4,5,5,6,6,7,7,8,8,9,9,10,10,11,11,12,12,13,13,14,14,15,15,16,16,17,17,18,18,19,19,20,20,21,21,22,22,23,23,24,24,25,25,26,26,27,27,28,28,29,29,30,30],"right_children":[2,4,6,8,10,12,14,16,18,20,22,24,26,28,30,32,34,36,38,40,42,44,46,48,50,52,54,56,58,60,62,-1,-1,-1,-1,-1,-1,-1,-1,-1,-1,-1,-1,-1,-1,-1,-1,-1,-1,-1,-1,-1,-1,-1,-1,-1,-1,-1,-1,-1,-1,-1,-1],"split_conditions":[1.4474665E1,-1.8439865E2,1.9388358E2,1.1E1,6E0,6E0,3.7599005E2,3E0,6E0,-2.7866512E1,7.5971594E0,2.0518711E1,4E0,2.9988156E2,1.1E1,-2.2291429E2,8E0,-2.2291429E2,-2.8990173E2,-3.499574E1,3E0,-1.0887294E2,1E1,1.9290794E1,1.4048059E2,1.7778462E2,3.617294E1,2.6862863E2,1.2E1,8E0,4.0235757E2,-1.1284239E-2,2.7851693E-3,-1.8000245E-2,-1.11615695E-2,-4.0828777E-3,-1.55253885E-2,-1.5705135E-2,1.8303262E-2,-3.8283952E-3,-1.5037713E-2,-6.6954973E-3,9.332044E-3,-7.8908885E-3,-4.1830787E-3,-3.550503E-2,-1.841492E-2,1.4259997E-2,4.55444E-2,3.107252E-3,1.1474476E-2,-3.726987E-3,-3.1238649E-2,-5.344538E-3,3.3922554E-3,1.4117432E-2,4.460273E-3,2.2009192E-2,-9.424587E-5,1.8289581E-2,7.637006E-2,3.717465E-2,-2.7163295E-2],"split_indices":[5,5,5,1,1,1,5,0,0,5,5,5,0,5,1,5,1,5,5,5,1,5,1,5,5,5,5,5,1,1,5,0,0,0,0,0,0,0,0,0,0,0,0,0,0,0,0,0,0,0,0,0,0,0,0,0,0,0,0,0,0,0,0],"split_type":[0,0,0,0,0,0,0,0,0,0,0,0,0,0,0,0,0,0,0,0,0,0,0,0,0,0,0,0,0,0,0,0,0,0,0,0,0,0,0,0,0,0,0,0,0,0,0,0,0,0,0,0,0,0,0,0,0,0,0,0,0,0,0],"sum_hessian":[7.278E3,3.954E3,3.324E3,9.58E2,2.996E3,2.444E3,8.8E2,7.11E2,2.47E2,1.404E3,1.592E3,1.186E3,1.258E3,8.32E2,4.8E1,1.46E2,5.65E2,1.91E2,5.6E1,9.95E2,4.09E2,1.52E3,7.2E1,5.7E1,1.129E3,2.18E2,1.04E3,6.62E2,1.7E2,3.7E1,1.1E1,9.6E1,5E1,3.48E2,2.17E2,1.29E2,6.2E1,1.8E1,3.8E1,9.36E2,5.9E1,1.64E2,2.45E2,4.32E2,1.088E3,2.2E1,5E1,3.8E1,1.9E1,8.74E2,2.55E2,2.03E2,1.5E1,1.95E2,8.45E2,5.19E2,1.43E2,1.47E2,2.3E1,2.1E1,1.6E1,5E0,6E0],"tree_param":{"num_deleted":"0","num_feature":"6","num_nodes":"63","size_leaf_vector":"1"}},{"base_weights":[-2.8701953E-3,-7.903058E-2,1.6433607E-1,-7.662394E-2,-4.7509733E-1,9.276305E-2,2.7434498E-1,-8.918233E-2,1.9900387E-2,5.945866E-1,-5.727386E-1,-5.6932565E-2,1.288595E-1,3.1550345E-1,1.4702085E-1,-2.0477302E-1,-8.127311E-2,2.9212487E-1,3.258412E-3,-2.397129E-3,4.6991125E-2,-6.709734E-1,-3.5992345E-1,8.258004E-1,-9.7769246E-2,4.5154786E-1,8.9044146E-2,1.7093028E-1,3.5774693E-1,8.145828E-1,7.285392E-2,-6.075173E-3,-1.6752807E-2,-2.7145331E-3,-5.335096E-3,-1.1607665E-2,3.0138364E-2,-1.8114675E-3,6.7481757E-3,-4.5291137E-2,-1.962559E-2,1.1104552E-2,-3.6211524E-2,1.3303615E-2,6.705916E-2,-1.9782051E-2,-3.733677E-4,3.2016397E-2,-1.3505714E-2,3.0564244E-3,9.698542E-3,3.5451434E-3,3.3224657E-2,2.2527993E-2,1.512743E-2,5.0533086E-2,-1.6021868E-2,1.8334164E-3,3.783567E-2],"categories":[],"categories_nodes":[],"categories_segments":[],"categories_sizes":[],"default_left":[0,0,0,0,0,0,0,0,0,0,0,0,0,0,0,0,0,0,0,0,0,0,0,0,0,0,0,0,0,0,0,0,0,0,0,0,0,0,0,0,0,0,0,0,0,0,0,0,0,0,0,0,0,0,0,0,0,0,0],"id":25,"left_children":[1,3,5,7,9,11,13,15,17,19,21,23,25,27,29,31,33,35,37,-1,-1,39,41,43,45,47,49,51,53,55,57,-1,-1,-1,-1,-1,-1,-1,-1,-1,-1,-1,-1,-1,-1,-1,-1,-1,-1,-1,-1,-1,-1,-1,-1,-1,-1,-1,-1],"loss_changes":[9.2656425E1,4.728607E0,1.79029E1,6.0263577E0,3.4738998E0,7.4695444E0,4.654312E0,4.004154E0,2.5949404E0,7.105299E-1,3.4386444E-1,9.777619E0,1.4259563E1,4.0734787E0,1.0882589E1,3.0077524E0,2.8196945E0,5.514415E0,2.8184898E0,0E0,0E0,8.215914E-1,2.4931965E0,3.1048393E0,6.9368296E0,1.6793686E1,2.8938074E0,7.605207E0,2.5430756E0,5.220029E0,4.9214253E0,0E0,0E0,0E0,0E0,0E0,0E0,0E0,0E0,0E0,0E0,0E0,0E0,0E0,0E0,0E0,0E0,0E0,0E0,0E0,0E0,0E0,0E0,0E0,0E0,0E0,0E0,0E0,0E0],"parents":[2147483647,0,0,1,1,2,2,3,3,4,4,5,5,6,6,7,7,8,8,9,9,10,10,11,11,12,12,13,13,14,14,15,15,16,16,17,17,18,18,21,21,22,22,23,23,24,24,25,25,26,26,27,27,28,28,29,29,30,30],"right_children":[2,4,6,8,10,12,14,16,18,20,22,24,26,28,30,32,34,36,38,-1,-1,40,42,44,46,48,50,52,54,56,58,-1,-1,-1,-1,-1,-1,-1,-1,-1,-1,-1,-1,-1,-1,-1,-1,-1,-1,-1,-1,-1,-1,-1,-1,-1,-1,-1,-1],"split_conditions":[1.7174644E3,1.7155902E3,1.8260396E3,1.6811228E3,2E0,3E0,1.1E1,1.5201549E3,1.6825237E3,1E0,6E0,1.7213815E3,4E0,4E0,1.8357213E3,1.5036615E3,8E0,4E0,1.1E1,-2.397129E-3,4.6991125E-2,1.1E1,6E0,6E0,1.739872E3,1.8028387E3,1.2E1,1.926088E3,1.86969E3,6E0,1.9792186E3,-6.075173E-3,-1.6752807E-2,-2.7145331E-3,-5.335096E-3,-1.1607665E-2,3.0138364E-2,-1.8114675E-3,6.7481757E-3,-4.5291137E-2,-1.962559E-2,1.1104552E-2,-3.6211524E-2,1.3303615E-2,6.705916E-2,-1.9782051E-2,-3.733677E-4,3.2016397E-2,-1.3505714E-2,3.0564244E-3,9.698542E-3,3.5451434E-3,3.3224657E-2,2.2527993E-2,1.512743E-2,5.0533086E-2,-1.6021868E-2,1.8334164E-3,3.783567E-2],"split_indices":[3,3,3,3,1,1,1,3,3,0,0,3,1,0,3,3,1,1,1,0,0,1,1,0,3,3,1,3,3,0,3,0,0,0,0,0,0,0,0,0,0,0,0,0,0,0,0,0,0,0,0,0,0,0,0,0,0,0,0],"split_type":[0,0,0,0,0,0,0,0,0,0,0,0,0,0,0,0,0,0,0,0,0,0,0,0,0,0,0,0,0,0,0,0,0,0,0,0,0,0,0,0,0,0,0,0,0,0,0,0,0,0,0,0,0,0,0,0,0,0,0],"sum_hessian":[7.274E3,4.998E3,2.276E3,4.969E3,2.9E1,1.38E3,8.96E2,4.397E3,5.72E2,2E0,2.7E1,2.68E2,1.112E3,6.76E2,2.2E2,2.8E2,4.117E3,3.2E1,5.4E2,1E0,1E0,1.7E1,1E1,1.1E1,2.57E2,1.21E2,9.91E2,1.54E2,5.22E2,2.1E1,1.99E2,1.72E2,1.08E2,1.999E3,2.118E3,1.2E1,2E1,4.16E2,1.24E2,8E0,9E0,4E0,6E0,6E0,5E0,5.9E1,1.98E2,9.6E1,2.5E1,7.84E2,2.07E2,1.29E2,2.5E1,1.92E2,3.3E2,1.8E1,3E0,1.9E2,9E0],"tree_param":{"num_deleted":"0","num_feature":"6","num_nodes":"59","size_leaf_vector":"1"}},{"base_weights":[-6.96083E-3,-7.4628934E-2,2.0958887E-1,-1.737523E-1,-2.754263E-2,1.77549E-1,5.60582E-1,-2.6737055E-1,-1.5235941E-1,-7.5119056E-2,1.49654765E-2,1.3120712E-1,2.2448665E-1,7.5747937E-1,4.2659823E-2,-5.696212E-1,-2.3656231E-1,3.0958872E-2,-1.5941708E-1,-1.0247933E-1,1.8991128E-2,2.0624964E-2,-4.316007E-1,1.8557337E-1,5.7810556E-2,2.5351021E-2,2.4969709E-1,3.2245433E-1,9.039309E-1,1.0661803E0,-3.7166364E-2,-1.0806078E-2,-4.3271292E-2,1.893819E-3,-1.2909171E-2,-2.3005357E-2,3.924778E-3,-2.7028725E-2,-7.5360215E-3,-2.909064E-3,-9.664941E-3,2.4952441E-2,-1.5519756E-3,3.2664903E-3,-1.1712677E-3,9.718716E-3,-2.9890656E-2,7.073322E-3,2.482414E-2,1.2592986E-2,3.658379E-4,-1.1551242E-2,1.378012E-2,1.323884E-2,-4.2623538E-3,-1.329729E-2,3.0758366E-2,2.3578001E-2,5.083486E-2,6.612715E-2,1.3836372E-2,-1.4382541E-2,1.2082051E-2],"categories":[],"categories_nodes":[],"categories_segments":[],"categories_sizes":[],"default_left":[0,0,0,0,0,0,0,0,0,0,0,0,0,0,0,0,0,0,0,0,0,0,0,0,0,0,0,0,0,0,0,0,0,0,0,0,0,0,0,0,0,0,0,0,0,0,0,0,0,0,0,0,0,0,0,0,0,0,0,0,0,0,0],"id":26,"left_children":[1,3,5,7,9,11,13,15,17,19,21,23,25,27,29,31,33,35,37,39,41,43,45,47,49,51,53,55,57,59,61,-1,-1,-1,-1,-1,-1,-1,-1,-1,-1,-1,-1,-1,-1,-1,-1,-1,-1,-1,-1,-1,-1,-1,-1,-1,-1,-1,-1,-1,-1,-1,-1],"loss_changes":[1.07030205E2,2.5969032E1,1.9456863E1,3.5482178E0,7.633601E0,3.4399605E0,1.4754425E1,2.95677E0,1.8951759E0,4.5878077E0,5.048408E0,3.2014618E0,3.9647255E0,6.3980865E0,3.3894792E0,2.9499674E0,1.8076801E0,1.3200173E0,4.5824394E0,5.5406675E0,9.670564E0,3.880978E0,2.717321E0,6.2652893E0,3.3687649E0,5.8379283E0,3.5682793E0,4.986108E0,3.323597E0,2.411747E-1,2.7931485E0,0E0,0E0,0E0,0E0,0E0,0E0,0E0,0E0,0E0,0E0,0E0,0E0,0E0,0E0,0E0,0E0,0E0,0E0,0E0,0E0,0E0,0E0,0E0,0E0,0E0,0E0,0E0,0E0,0E0,0E0,0E0,0E0],"parents":[2147483647,0,0,1,1,2,2,3,3,4,4,5,5,6,6,7,7,8,8,