{"learner":{"attributes":{},"feature_names":["FullTimeHomeTeamGoals_rolling_5","FullTimeAwayTeamGoals_rolling_5","HomeTeamShots_rolling_5","AwayTeamShots_rolling_5","HomeTeamShotsOnTarget_rolling_5","AwayTeamShotsOnTarget_rolling_5","HomeTeamCorners_rolling_5","AwayTeamCorners_rolling_5","HomeTeamYellowCards_rolling_5","AwayTeamYellowCards_rolling_5","HomeTeamRedCards_rolling_5","AwayTeamRedCards_rolling_5","Weekday","Month","IsWeekend","ELO_home","ELO_away","ELO_diff"],"feature_types":["float","float","float","float","float","float","float","float","float","float","float","float","int","int","int","float","float","float"],"gradient_booster":{"model":{"cats":{"enc":[],"feature_segments":[],"sorted_idx":[]},"gbtree_model_param":{"num_parallel_tree":"1","num_trees":"300"},"iteration_indptr":[0,1,2,3,4,5,6,7,8,9,10,11,12,13,14,15,16,17,18,19,20,21,22,23,24,25,26,27,28,29,30,31,32,33,34,35,36,37,38,39,40,41,42,43,44,45,46,47,48,49,50,51,52,53,54,55,56,57,58,59,60,61,62,63,64,65,66,67,68,69,70,71,72,73,74,75,76,77,78,79,80,81,82,83,84,85,86,87,88,89,90,91,92,93,94,95,96,97,98,99,100,101,102,103,104,105,106,107,108,109,110,111,112,113,114,115,116,117,118,119,120,121,122,123,124,125,126,127,128,129,130,131,132,133,134,135,136,137,138,139,140,141,142,143,144,145,146,147,148,149,150,151,152,153,154,155,156,157,158,159,160,161,162,163,164,165,166,167,168,169,170,171,172,173,174,175,176,177,178,179,180,181,182,183,184,185,186,187,188,189,190,191,192,193,194,195,196,197,198,199,200,201,202,203,204,205,206,207,208,209,210,211,212,213,214,215,216,217,218,219,220,221,222,223,224,225,226,227,228,229,230,231,232,233,234,235,236,237,238,239,240,241,242,243,244,245,246,247,248,249,250,251,252,253,254,255,256,257,258,259,260,261,262,263,264,265,266,267,268,269,270,271,272,273,274,275,276,277,278,279,280,281,282,283,284,285,286,287,288,289,290,291,292,293,294,295,296,297,298,299,300],"tree_info":[0,0,0,0,0,0,0,0,0,0,0,0,0,0,0,0,0,0,0,0,0,0,0,0,0,0,0,0,0,0,0,0,0,0,0,0,0,0,0,0,0,0,0,0,0,0,0,0,0,0,0,0,0,0,0,0,0,0,0,0,0,0,0,0,0,0,0,0,0,0,0,0,0,0,0,0,0,0,0,0,0,0,0,0,0,0,0,0,0,0,0,0,0,0,0,0,0,0,0,0,0,0,0,0,0,0,0,0,0,0,0,0,0,0,0,0,0,0,0,0,0,0,0,0,0,0,0,0,0,0,0,0,0,0,0,0,0,0,0,0,0,0,0,0,0,0,0,0,0,0,0,0,0,0,0,0,0,0,0,0,0,0,0,0,0,0,0,0,0,0,0,0,0,0,0,0,0,0,0,0,0,0,0,0,0,0,0,0,0,0,0,0,0,0,0,0,0,0,0,0,0,0,0,0,0,0,0,0,0,0,0,0,0,0,0,0,0,0,0,0,0,0,0,0,0,0,0,0,0,0,0,0,0,0,0,0,0,0,0,0,0,0,0,0,0,0,0,0,0,0,0,0,0,0,0,0,0,0,0,0,0,0,0,0,0,0,0,0,0,0,0,0,0,0,0,0,0,0,0,0,0,0,0,0,0,0,0,0,0,0,0,0,0,0,0,0,0,0,0,0],"trees":[{"base_weights":[7.833763E-3,2.8259676E0,-9.0747505E-1,1.094577E0,3.666278E0,-3.6204994E-1,-2.6719284E0,6.730424E-1,2.1315618E0,2.8150308E0,4.4066277E0,-9.852105E-1,2.2524716E-1,-1.4628333E0,-3.0701687E0,1.1859397E0,-8.271084E-1,4.0191154E0,1.4641001E0,3.0113404E0,1.4200939E-1,4.7392163E0,1.9441942E0,-8.215192E-1,-2.1628196E0,8.116649E-1,-4.1035634E-1,-2.452169E0,-6.6161245E-1,-3.2965932E0,-1.7276826E0,-6.471408E-2,7.2822586E-2,-5.467555E-2,1.9335788E-1,2.4035227E-1,-3.6085535E-2,3.3636745E-2,1.252152E-1,1.1662381E-1,1.8671316E-1,1.938454E-2,-1.2220176E-1,2.7307352E-1,1.8929884E-1,1.10782884E-1,-1.3747698E-1,-4.357491E-2,7.398807E-2,6.586249E-2,-1.2617269E-1,9.350368E-2,3.098904E-2,-2.3041774E-2,2.521102E-1,-9.809699E-2,-1.8694943E-1,1.1002946E-1,-6.121294E-2,-1.1354984E-1,-1.7401496E-1,-9.518697E-2,1.3335788E-1],"categories":[],"categories_nodes":[],"categories_segments":[],"categories_sizes":[],"default_left":[0,1,0,0,0,1,1,0,0,0,0,1,0,0,1,0,1,0,0,0,0,1,0,1,0,0,0,1,0,0,0,0,0,0,0,0,0,0,0,0,0,0,0,0,0,0,0,0,0,0,0,0,0,0,0,0,0,0,0,0,0,0,0],"id":0,"left_children":[1,3,5,7,9,11,13,15,17,19,21,23,25,27,29,31,33,35,37,39,41,43,45,47,49,51,53,55,57,59,61,-1,-1,-1,-1,-1,-1,-1,-1,-1,-1,-1,-1,-1,-1,-1,-1,-1,-1,-1,-1,-1,-1,-1,-1,-1,-1,-1,-1,-1,-1,-1,-1],"loss_changes":[1.5603154E4,2.1536123E3,4.393247E3,2.1100812E2,6.1655566E2,1.2771274E3,5.1457715E2,2.6797076E2,1.7049731E2,2.4462573E2,4.264834E2,3.2457324E2,6.701273E2,2.116076E2,2.4052148E2,1.7565582E2,1.1552905E2,1.3794519E2,8.474927E1,2.0477344E2,2.1913853E1,3.0153125E2,8.8913574E1,1.724331E2,2.6186047E2,1.8873181E2,2.3985612E2,6.8364685E1,2.4425516E2,1.2247412E2,9.71528E1,0E0,0E0,0E0,0E0,0E0,0E0,0E0,0E0,0E0,0E0,0E0,0E0,0E0,0E0,0E0,0E0,0E0,0E0,0E0,0E0,0E0,0E0,0E0,0E0,0E0,0E0,0E0,0E0,0E0,0E0,0E0,0E0],"parents":[2147483647,0,0,1,1,2,2,3,3,4,4,5,5,6,6,7,7,8,8,9,9,10,10,11,11,12,12,13,13,14,14,15,15,16,16,17,17,18,18,19,19,20,20,21,21,22,22,23,23,24,24,25,25,26,26,27,27,28,28,29,29,30,30],"right_children":[2,4,6,8,10,12,14,16,18,20,22,24,26,28,30,32,34,36,38,40,42,44,46,48,50,52,54,56,58,60,62,-1,-1,-1,-1,-1,-1,-1,-1,-1,-1,-1,-1,-1,-1,-1,-1,-1,-1,-1,-1,-1,-1,-1,-1,-1,-1,-1,-1,-1,-1,-1,-1],"split_conditions":[-1.00019646E2,1.12E1,1.4162747E2,1.5856914E3,1.36E1,9.8E0,6E0,6.6E0,-1.978737E2,1.6805537E3,-1.3182465E2,8.6E0,7.3741546E0,9.6E0,1.2E1,8E-1,2.2E0,2E0,5.8E0,1.8E0,2E-1,5.4E0,1.06E1,2.8E0,1.5630127E3,3.8E0,1.82E1,2E-1,1.6263902E2,1.6E0,2.2E0,-6.471408E-2,7.2822586E-2,-5.467555E-2,1.9335788E-1,2.4035227E-1,-3.6085535E-2,3.3636745E-2,1.252152E-1,1.1662381E-1,1.8671316E-1,1.938454E-2,-1.2220176E-1,2.7307352E-1,1.8929884E-1,1.10782884E-1,-1.3747698E-1,-4.357491E-2,7.398807E-2,6.586249E-2,-1.2617269E-1,9.350368E-2,3.098904E-2,-2.3041774E-2,2.521102E-1,-9.809699E-2,-1.8694943E-1,1.1002946E-1,-6.121294E-2,-1.1354984E-1,-1.7401496E-1,-9.518697E-2,1.3335788E-1],"split_indices":[17,3,17,15,3,3,4,4,17,15,17,4,17,3,3,8,1,0,4,9,10,4,5,8,15,4,3,10,17,0,8,0,0,0,0,0,0,0,0,0,0,0,0,0,0,0,0,0,0,0,0,0,0,0,0,0,0,0,0,0,0,0,0],"split_type":[0,0,0,0,0,0,0,0,0,0,0,0,0,0,0,0,0,0,0,0,0,0,0,0,0,0,0,0,0,0,0,0,0,0,0,0,0,0,0,0,0,0,0,0,0,0,0,0,0,0,0,0,0,0,0,0,0,0,0,0,0,0,0],"sum_hessian":[6.047E3,1.482E3,4.565E3,4.85E2,9.97E2,3.488E3,1.077E3,3.46E2,1.39E2,4.66E2,5.31E2,1.692E3,1.796E3,2.68E2,8.09E2,2.58E2,8.8E1,3.5E1,1.04E2,4.34E2,3.2E1,4.67E2,6.4E1,1.487E3,2.05E2,9.34E2,8.62E2,1.19E2,1.49E2,6.91E2,1.18E2,2.5E1,2.33E2,8.4E1,4E0,3E1,5E0,6E1,4.4E1,2.26E2,2.08E2,3E1,2E0,2.63E2,2.04E2,6.1E1,3E0,1.456E3,3.1E1,1.9E1,1.86E2,1.42E2,7.92E2,8.55E2,7E0,8.8E1,3.1E1,2.4E1,1.25E2,1.07E2,5.84E2,1.14E2,4E0],"tree_param":{"num_deleted":"0","num_feature":"18","num_nodes":"63","size_leaf_vector":"1"}},{"base_weights":[-2.8204001E-2,-8.4134364E-1,2.5942473E0,-1.8241884E-1,-2.3044317E0,3.2836754E0,1.5258424E-1,-7.363577E-1,4.3545797E-1,-9.782626E-1,-2.6789389E0,2.5176194E0,4.1844053E0,-4.0432012E-1,1.2754611E0,-2.703636E-1,-1.0847327E0,2.0660852E-1,1.4385791E0,-1.5151724E0,6.514064E-1,-3.61537E0,-2.4465253E0,3.4401472E0,1.8692201E0,4.9590096E0,3.513814E0,-1.1401114E0,4.619033E-1,1.7823474E0,-1.9184726E0,9.178384E-3,-4.5054786E-2,-2.3217643E-2,-6.992711E-2,3.2090787E-2,-1.4816023E-2,1.1729373E-1,3.660522E-2,-8.046117E-2,3.2413062E-1,-1.2649538E-1,5.710107E-2,-1.8523945E-1,5.031849E-2,-1.027283E-1,-1.4169747E-1,8.329653E-2,1.9421214E-1,2.2264805E-1,8.107956E-2,1.463356E-1,2.7165702E-1,2.0435022E-1,1.14904426E-1,-3.462441E-2,-1.4599793E-1,-4.812944E-3,1.5799387E-1,-5.3914245E-2,1.1333668E-1,-2.180776E-2,-1.775121E-1],"categories":[],"categories_nodes":[],"categories_segments":[],"categories_sizes":[],"default_left":[0,0,0,1,0,0,0,1,0,0,1,1,1,0,0,0,0,0,1,0,0,0,0,0,0,0,0,0,0,0,0,0,0,0,0,0,0,0,0,0,0,0,0,0,0,0,0,0,0,0,0,0,0,0,0,0,0,0,0,0,0,0,0],"id":1,"left_children":[1,3,5,7,9,11,13,15,17,19,21,23,25,27,29,31,33,35,37,39,41,43,45,47,49,51,53,55,57,59,61,-1,-1,-1,-1,-1,-1,-1,-1,-1,-1,-1,-1,-1,-1,-1,-1,-1,-1,-1,-1,-1,-1,-1,-1,-1,-1,-1,-1,-1,-1,-1,-1],"loss_changes":[1.3009939E4,4.4892305E3,2.4302578E3,1.099679E3,7.155498E2,7.66416E2,1.9999756E2,2.747118E2,3.4841006E2,2.8098224E2,2.364336E2,3.5904907E2,2.5060742E2,1.369216E2,1.7502931E2,2.0802577E2,1.8799658E2,2.711615E2,1.7903925E2,1.9171204E2,1.2775322E2,9.547485E1,1.3175781E2,1.912976E2,2.2375024E2,2.1246582E2,1.8572363E2,9.0395294E1,1.4938896E2,1.2992404E2,3.473354E1,0E0,0E0,0E0,0E0,0E0,0E0,0E0,0E0,0E0,0E0,0E0,0E0,0E0,0E0,0E0,0E0,0E0,0E0,0E0,0E0,0E0,0E0,0E0,0E0,0E0,0E0,0E0,0E0,0E0,0E0,0E0,0E0],"parents":[2147483647,0,0,1,1,2,2,3,3,4,4,5,5,6,6,7,7,8,8,9,9,10,10,11,11,12,12,13,13,14,14,15,15,16,16,17,17,18,18,19,19,20,20,21,21,22,22,23,23,24,24,25,25,26,26,27,27,28,28,29,29,30,30],"right_children":[2,4,6,8,10,12,14,16,18,20,22,24,26,28,30,32,34,36,38,40,42,44,46,48,50,52,54,56,58,60,62,-1,-1,-1,-1,-1,-1,-1,-1,-1,-1,-1,-1,-1,-1,-1,-1,-1,-1,-1,-1,-1,-1,-1,-1,-1,-1,-1,-1,-1,-1,-1,-1],"split_conditions":[1.7285226E3,1.6852059E3,1.7380831E3,9.8E0,5.6E0,1.36E1,1.48E1,5.4E0,1.6738606E3,5.2E0,8E0,5.4E0,1.24E1,1.4E0,8.6E0,1.60374E3,1.5736432E3,1.6022076E3,1.4E0,9.6E0,9.6E0,3.8E0,1.8008398E3,1.04E1,1.5180906E3,1.7699958E3,1.6467577E3,1.8951697E3,1.8581669E3,5.2E0,1.8152207E3,9.178384E-3,-4.5054786E-2,-2.3217643E-2,-6.992711E-2,3.2090787E-2,-1.4816023E-2,1.1729373E-1,3.660522E-2,-8.046117E-2,3.2413062E-1,-1.2649538E-1,5.710107E-2,-1.8523945E-1,5.031849E-2,-1.027283E-1,-1.4169747E-1,8.329653E-2,1.9421214E-1,2.2264805E-1,8.107956E-2,1.463356E-1,2.7165702E-1,2.0435022E-1,1.14904426E-1,-3.462441E-2,-1.4599793E-1,-4.812944E-3,1.5799387E-1,-5.3914245E-2,1.1333668E-1,-2.180776E-2,-1.775121E-1],"split_indices":[16,15,15,3,4,3,3,6,16,7,3,6,2,8,6,15,15,15,8,6,3,0,15,3,15,16,15,15,16,4,16,0,0,0,0,0,0,0,0,0,0,0,0,0,0,0,0,0,0,0,0,0,0,0,0,0,0,0,0,0,0,0,0],"split_type":[0,0,0,0,0,0,0,0,0,0,0,0,0,0,0,0,0,0,0,0,0,0,0,0,0,0,0,0,0,0,0,0,0,0,0,0,0,0,0,0,0,0,0,0,0,0,0,0,0,0,0,0,0,0,0,0,0,0,0,0,0,0,0],"sum_hessian":[6.099E3,4.656E3,1.443E3,3.211E3,1.445E3,1.125E3,3.18E2,1.693E3,1.518E3,3.19E2,1.126E3,6.1E2,5.15E2,2.13E2,1.05E2,7.25E2,9.68E2,1.237E3,2.81E2,2.4E2,7.9E1,2.21E2,9.05E2,2.5E2,3.6E2,2.36E2,2.79E2,1.15E2,9.8E1,9.1E1,1.4E1,4.22E2,3.03E2,3.26E2,6.42E2,6.63E2,5.74E2,1.22E2,1.59E2,2.38E2,2E0,1E1,6.9E1,2.17E2,4E0,4.53E2,4.52E2,5.1E1,1.99E2,3E1,3.3E2,4.6E1,1.9E2,1.88E2,9.1E1,9.3E1,2.2E1,8.2E1,1.6E1,1.3E1,7.8E1,8E0,6E0],"tree_param":{"num_deleted":"0","num_feature":"18","num_nodes":"63","size_leaf_vector":"1"}},{"base_weights":[-1.239741E-2,2.3355844E0,-9.07143E-1,5.635186E-1,3.2362363E0,-4.0647715E-1,-2.4773946E0,3.9941058E-1,4.427664E0,2.5930843E0,3.9568226E0,-9.1118985E-1,6.2648036E-2,-2.984376E0,-1.9972496E0,2.8802283E0,2.8954783E-1,6.7736607E0,7.005018E-1,1.6523821E0,2.8706295E0,4.55237E0,3.1540356E0,-7.192626E-1,-1.7859881E0,6.229905E-1,-4.6513546E-1,-3.0350373E0,2.1295081E-1,-3.716407E-1,-2.2731583E0,-1.3927588E-2,2.4653848E-1,-7.3989764E-2,2.1561395E-2,3.705311E-2,3.8586694E-1,1.16873994E-1,-1.1696676E-1,5.8408625E-2,1.7909114E-1,2.0959699E-1,1.2433106E-1,2.148277E-1,4.2640582E-1,1.659606E-1,-5.986742E-2,-1.14998475E-1,-3.198282E-2,-1.7902806E-2,-1.0069684E-1,1.06538E-1,2.3193846E-2,4.131615E-3,-4.1591678E-2,-1.3086878E-1,-1.8299763E-1,1.47782E-2,-9.842836E-2,-1.0419535E-1,-1.8039204E-1],"categories":[],"categories_nodes":[],"categories_segments":[],"categories_sizes":[],"default_left":[0,0,0,1,0,1,1,0,0,0,0,0,0,1,0,0,0,0,0,0,0,0,0,0,0,0,0,0,0,0,0,0,0,0,0,0,0,0,0,0,0,0,0,0,0,0,0,0,0,0,0,0,0,0,0,0,0,0,0,0,0],"id":2,"left_children":[1,3,5,7,9,11,13,15,17,19,21,23,25,27,29,31,33,35,37,39,41,43,45,47,49,51,53,55,-1,57,59,-1,-1,-1,-1,-1,-1,-1,-1,-1,-1,-1,-1,-1,-1,-1,-1,-1,-1,-1,-1,-1,-1,-1,-1,-1,-1,-1,-1,-1,-1],"loss_changes":[1.2783667E4,2.6778848E3,3.4628645E3,3.577873E2,5.0555566E2,7.91354E2,2.5328662E2,1.477055E2,1.9636493E2,1.4955933E2,2.3568652E2,2.6903052E2,5.1280634E2,2.0227686E2,2.4584106E2,1.5034923E2,1.317441E2,7.398065E1,5.5229614E1,1.2380859E2,2.2044067E2,2.6644238E2,1.6641064E2,1.6488147E2,9.3346985E1,2.0077298E2,1.7944154E2,1.2431543E2,0E0,8.688546E1,1.11198975E2,0E0,0E0,0E0,0E0,0E0,0E0,0E0,0E0,0E0,0E0,0E0,0E0,0E0,0E0,0E0,0E0,0E0,0E0,0E0,0E0,0E0,0E0,0E0,0E0,0E0,0E0,0E0,0E0,0E0,0E0],"parents":[2147483647,0,0,1,1,2,2,3,3,4,4,5,5,6,6,7,7,8,8,9,9,10,10,11,11,12,12,13,13,14,14,15,15,16,16,17,17,18,18,19,19,20,20,21,21,22,22,23,23,24,24,25,25,26,26,27,27,29,29,30,30],"right_children":[2,4,6,8,10,12,14,16,18,20,22,24,26,28,30,32,34,36,38,40,42,44,46,48,50,52,54,56,-1,58,60,-1,-1,-1,-1,-1,-1,-1,-1,-1,-1,-1,-1,-1,-1,-1,-1,-1,-1,-1,-1,-1,-1,-1,-1,-1,-1,-1,-1,-1,-1],"split_conditions":[-8.413586E1,1.7285226E3,1.4162747E2,8.2E0,1.36E1,9.8E0,9.6E0,-2.3459457E2,-1.21569786E2,1.06E1,-2.0511414E2,1.6759269E3,7.3741546E0,2.8E0,1.7407616E3,1.3863983E3,8E-1,1.4811501E3,1.1E1,1.8496938E3,1.5610214E3,8.8E0,1.773025E3,6.2E0,3.2652138E1,1.5786938E3,1.6493729E3,2.371511E2,2.1295081E-1,5.8E0,3.2E0,-1.3927588E-2,2.4653848E-1,-7.3989764E-2,2.1561395E-2,3.705311E-2,3.8586694E-1,1.16873994E-1,-1.1696676E-1,5.8408625E-2,1.7909114E-1,2.0959699E-1,1.2433106E-1,2.148277E-1,4.2640582E-1,1.659606E-1,-5.986742E-2,-1.14998475E-1,-3.198282E-2,-1.7902806E-2,-1.0069684E-1,1.06538E-1,2.3193846E-2,4.131615E-3,-4.1591678E-2,-1.3086878E-1,-1.8299763E-1,1.47782E-2,-9.842836E-2,-1.0419535E-1,-1.8039204E-1],"split_indices":[17,16,17,5,3,3,3,17,17,3,17,15,17,8,15,15,8,15,13,16,15,7,15,3,17,16,15,17,0,5,0,0,0,0,0,0,0,0,0,0,0,0,0,0,0,0,0,0,0,0,0,0,0,0,0,0,0,0,0,0,0],"split_type":[0,0,0,0,0,0,0,0,0,0,0,0,0,0,0,0,0,0,0,0,0,0,0,0,0,0,0,0,0,0,0,0,0,0,0,0,0,0,0,0,0,0,0,0,0,0,0,0,0,0,0,0,0,0,0,0,0,0,0,0,0],"sum_hessian":[6.083E3,1.678E3,4.405E3,5.66E2,1.112E3,3.341E3,1.064E3,5.44E2,2.2E1,5.9E2,5.22E2,1.609E3,1.732E3,5.15E2,5.49E2,2.2E1,5.22E2,1.3E1,9E0,1.36E2,4.54E2,2.97E2,2.25E2,1.321E3,2.88E2,8.4E2,8.92E2,5.12E2,3E0,8E1,4.69E2,9E0,1.3E1,3.8E1,4.84E2,2E0,1.1E1,6E0,3E0,1.1E2,2.6E1,1E2,3.54E2,2.81E2,1.6E1,2.17E2,8E0,6.2E1,1.259E3,4E1,2.48E2,7.9E1,7.61E2,3.58E2,5.34E2,3.1E2,2.02E2,5.7E1,2.3E1,4.13E2,5.6E1],"tree_param":{"num_deleted":"0","num_feature":"18","num_nodes":"61","size_leaf_vector":"1"}},{"base_weights":[2.9816432E-2,-7.828113E-1,2.2066379E0,-3.0031487E-1,-1.5203E0,2.8507755E0,7.615186E-1,-8.001474E-1,3.3201802E-1,-9.1301626E-1,-2.269901E0,1.7628441E0,3.4318533E0,1.3670537E0,-1.3437393E-1,-2.717872E0,-7.0973647E-1,9.6106565E-1,6.976851E-2,-3.732698E-1,-1.4291103E0,-1.6914745E-1,-2.5390623E0,6.316036E-1,2.4610147E0,2.6581843E0,4.2951884E0,4.822211E-1,1.8708383E0,-2.351557E0,1.9710848E-1,-1.8430734E-1,-8.908434E-2,-5.294623E-2,-2.086944E-2,-1.1556315E-2,6.152712E-2,-6.492615E-4,1.3241826E-1,-3.8936507E-2,2.3441685E-2,-7.4325286E-2,2.993892E-1,1.6021077E-1,-3.1543527E-2,-1.3984382E-1,-7.718179E-2,5.1612377E-2,-5.6545246E-2,1.5049218E-1,7.175891E-2,1.5126298E-1,6.9029614E-2,2.3351236E-1,5.4642946E-2,4.582278E-2,-8.457385E-2,1.8489714E-1,6.936288E-2,-1.9141717E-1,2.7090712E-2,1.07709E-3,1.5985723E-1],"categories":[],"categories_nodes":[],"categories_segments":[],"categories_sizes":[],"default_left":[0,1,1,1,0,0,0,0,0,0,0,0,0,0,0,0,0,0,0,0,1,0,1,1,1,1,1,0,0,0,0,0,0,0,0,0,0,0,0,0,0,0,0,0,0,0,0,0,0,0,0,0,0,0,0,0,0,0,0,0,0,0,0],"id":3,"left_children":[1,3,5,7,9,11,13,15,17,19,21,23,25,27,29,31,33,35,37,39,41,43,45,47,49,51,53,55,57,59,61,-1,-1,-1,-1,-1,-1,-1,-1,-1,-1,-1,-1,-1,-1,-1,-1,-1,-1,-1,-1,-1,-1,-1,-1,-1,-1,-1,-1,-1,-1,-1,-1],"loss_changes":[1.0756916E4,1.5751838E3,1.5365342E3,8.4667584E2,7.9501855E2,7.1652246E2,2.773984E2,2.574525E2,1.9508945E2,2.6939117E2,4.4231152E2,3.1436536E2,4.8552832E2,1.3505621E2,1.5259964E2,5.41669E1,1.4553857E2,1.1208566E2,1.784272E2,1.6254889E2,2.1961969E2,1.422018E2,1.737876E2,1.09912704E2,1.3474353E2,1.8106738E2,4.152671E2,1.0726637E2,1.6627911E2,1.1744235E2,9.5264984E1,0E0,0E0,0E0,0E0,0E0,0E0,0E0,0E0,0E0,0E0,0E0,0E0,0E0,0E0,0E0,0E0,0E0,0E0,0E0,0E0,0E0,0E0,0E0,0E0,0E0,0E0,0E0,0E0,0E0,0E0,0E0,0E0],"parents":[2147483647,0,0,1,1,2,2,3,3,4,4,5,5,6,6,7,7,8,8,9,9,10,10,11,11,12,12,13,13,14,14,15,15,16,16,17,17,18,18,19,19,20,20,21,21,22,22,23,23,24,24,25,25,26,26,27,27,28,28,29,29,30,30],"right_children":[2,4,6,8,10,12,14,16,18,20,22,24,26,28,30,32,34,36,38,40,42,44,46,48,50,52,54,56,58,60,62,-1,-1,-1,-1,-1,-1,-1,-1,-1,-1,-1,-1,-1,-1,-1,-1,-1,-1,-1,-1,-1,-1,-1,-1,-1,-1,-1,-1,-1,-1,-1,-1],"split_conditions":[1.7061671E3,1.4E1,1.5E1,9.8E0,2E0,1.7699958E3,1.76E1,6E0,4.8E0,6.8E0,5.2E0,1.14E1,1.38E1,1.7722241E3,4E0,1.5291034E3,1.5912354E3,1.5498789E3,1.5E1,1.06E1,2.4E0,4E0,5.6E0,7E0,1.6E0,1.8E0,7E0,2E0,5.8E0,1.7777758E3,1.8E1,-1.8430734E-1,-8.908434E-2,-5.294623E-2,-2.086944E-2,-1.1556315E-2,6.152712E-2,-6.492615E-4,1.3241826E-1,-3.8936507E-2,2.3441685E-2,-7.4325286E-2,2.993892E-1,1.6021077E-1,-3.1543527E-2,-1.3984382E-1,-7.718179E-2,5.1612377E-2,-5.6545246E-2,1.5049218E-1,7.175891E-2,1.5126298E-1,6.9029614E-2,2.3351236E-1,5.4642946E-2,4.582278E-2,-8.457385E-2,1.8489714E-1,6.936288E-2,-1.9141717E-1,2.7090712E-2,1.07709E-3,1.5985723E-1],"split_indices":[16,2,2,3,0,16,2,3,6,6,6,3,3,16,5,16,16,16,3,3,1,6,5,6,0,0,6,1,6,16,3,0,0,0,0,0,0,0,0,0,0,0,0,0,0,0,0,0,0,0,0,0,0,0,0,0,0,0,0,0,0,0,0],"split_type":[0,0,0,0,0,0,0,0,0,0,0,0,0,0,0,0,0,0,0,0,0,0,0,0,0,0,0,0,0,0,0,0,0,0,0,0,0,0,0,0,0,0,0,0,0,0,0,0,0,0,0,0,0,0,0,0,0,0,0,0,0,0,0],"sum_hessian":[6.079E3,4.427E3,1.652E3,2.677E3,1.75E3,1.142E3,5.1E2,1.495E3,1.182E3,9.68E2,7.82E2,3.99E2,7.43E2,3.04E2,2.06E2,6.6E1,1.429E3,3.47E2,8.35E2,4.74E2,4.94E2,8.9E1,6.93E2,1.53E2,2.46E2,3.94E2,3.49E2,1.11E2,1.93E2,2.6E1,1.8E2,3.1E1,3.5E1,6.5E2,7.79E2,6.4E1,2.83E2,8.1E2,2.5E1,3.2E2,1.54E2,4.91E2,3E0,1E1,7.9E1,5.49E2,1.44E2,1.25E2,2.8E1,1.59E2,8.7E1,3.05E2,8.9E1,3.12E2,3.7E1,9.3E1,1.8E1,3.9E1,1.54E2,1.7E1,9E0,1.71E2,9E0],"tree_param":{"num_deleted":"0","num_feature":"18","num_nodes":"63","size_leaf_vector":"1"}},{"base_weights":[3.608311E-2,2.3809738E0,-7.6799095E-1,7.197942E-1,3.1122732E0,-2.781753E-1,-2.3019865E0,4.5958233E-1,2.5871904E0,3.6576922E0,2.483844E0,-7.679535E-1,1.8810692E-1,-8.2701635E-1,-2.558785E0,5.7629294E0,3.5548922E-1,2.1630332E0,3.8862774E-1,1.9244008E0,3.9461858E0,1.7327291E0,3.0503135E0,-5.6301475E-1,-1.7286932E0,6.5251696E-1,-3.087218E-1,-8.540769E-2,-1.9552294E0,-3.166535E0,-2.2512906E0,3.3572352E-1,-2.2446418E-2,6.781777E-2,3.5765865E-3,1.4779487E-1,1.0843611E-2,1.7962132E-1,5.783608E-2,1.8296878E-1,2.7339718E-1,1.3549505E-1,4.5199E-2,3.0242665E-2,1.6889283E-1,-3.0421922E-2,8.276385E-2,-7.264888E-2,-1.5917869E-1,1.153741E-1,2.559281E-2,-1.8296877E-2,1.8610525E-1,-8.2775645E-2,2.1609902E-2,-1.5686554E-1,-1.8981745E-2,-1.6004322E-1,1.8689115E-1,-9.894027E-2,-1.5486678E-1],"categories":[],"categories_nodes":[],"categories_segments":[],"categories_sizes":[],"default_left":[0,0,0,0,0,1,1,0,1,0,0,1,0,0,1,0,1,0,0,0,0,0,0,1,0,0,0,0,0,0,0,0,0,0,0,0,0,0,0,0,0,0,0,0,0,0,0,0,0,0,0,0,0,0,0,0,0,0,0,0,0],"id":4,"left_children":[1,3,5,7,9,11,13,15,17,19,21,23,25,27,29,31,33,35,-1,37,39,41,43,45,47,49,51,53,55,57,59,-1,-1,-1,-1,-1,-1,-1,-1,-1,-1,-1,-1,-1,-1,-1,-1,-1,-1,-1,-1,-1,-1,-1,-1,-1,-1,-1,-1,-1,-1],"loss_changes":[1.1467348E4,1.884373E3,3.402337E3,2.3010828E2,3.6040723E2,7.843839E2,4.130166E2,2.2925688E2,1.1075345E2,2.7993066E2,2.091582E2,3.2882214E2,4.0629022E2,1.370506E2,1.6722998E2,5.0301025E1,1.169948E2,8.42262E1,0E0,1.0340732E2,1.9472754E2,1.7490314E2,2.2704102E2,1.4026169E2,1.13307556E2,2.1065652E2,1.9762534E2,8.198506E1,1.19870224E2,8.567871E1,1.374939E2,0E0,0E0,0E0,0E0,0E0,0E0,0E0,0E0,0E0,0E0,0E0,0E0,0E0,0E0,0E0,0E0,0E0,0E0,0E0,0E0,0E0,0E0,0E0,0E0,0E0,0E0,0E0,0E0,0E0,0E0],"parents":[2147483647,0,0,1,1,2,2,3,3,4,4,5,5,6,6,7,7,8,8,9,9,10,10,11,11,12,12,13,13,14,14,15,15,16,16,17,17,19,19,20,20,21,21,22,22,23,23,24,24,25,25,26,26,27,27,28,28,29,29,30,30],"right_children":[2,4,6,8,10,12,14,16,18,20,22,24,26,28,30,32,34,36,-1,38,40,42,44,46,48,50,52,54,56,58,60,-1,-1,-1,-1,-1,-1,-1,-1,-1,-1,-1,-1,-1,-1,-1,-1,-1,-1,-1,-1,-1,-1,-1,-1,-1,-1,-1,-1,-1,-1],"split_conditions":[-9.182619E1,1.7285226E3,1.4162747E2,1.32E1,-2.0511414E2,9.8E0,5.4E0,2.4E0,8.4E0,1.08E1,1.4E0,8E0,1.1160606E1,1.7826749E3,8.8E0,1.2E0,3.8E0,-1.03308136E2,3.8862774E-1,4E0,1.7E1,6E0,1.04E1,2.8E0,1.7360411E3,1.5730654E3,1.78E1,2.8E0,3.8E0,3E0,2.8161496E2,3.3572352E-1,-2.2446418E-2,6.781777E-2,3.5765865E-3,1.4779487E-1,1.0843611E-2,1.7962132E-1,5.783608E-2,1.8296878E-1,2.7339718E-1,1.3549505E-1,4.5199E-2,3.0242665E-2,1.6889283E-1,-3.0421922E-2,8.276385E-2,-7.264888E-2,-1.5917869E-1,1.153741E-1,2.559281E-2,-1.8296877E-2,1.8610525E-1,-8.2775645E-2,2.1609902E-2,-1.5686554E-1,-1.8981745E-2,-1.6004322E-1,1.8689115E-1,-9.894027E-2,-1.5486678E-1],"split_indices":[17,16,17,3,17,3,4,4,7,3,8,4,17,15,3,1,4,17,0,13,3,4,3,8,15,16,3,5,5,8,17,0,0,0,0,0,0,0,0,0,0,0,0,0,0,0,0,0,0,0,0,0,0,0,0,0,0,0,0,0,0],"split_type":[0,0,0,0,0,0,0,0,0,0,0,0,0,0,0,0,0,0,0,0,0,0,0,0,0,0,0,0,0,0,0,0,0,0,0,0,0,0,0,0,0,0,0,0,0,0,0,0,0,0,0,0,0,0,0,0,0,0,0,0,0],"sum_hessian":[6.08E3,1.552E3,4.528E3,4.75E2,1.077E3,3.433E3,1.095E3,4.18E2,5.7E1,5.74E2,5.03E2,1.674E3,1.759E3,1.63E2,9.32E2,7E0,4.11E2,5.4E1,3E0,8.3E1,4.91E2,2.18E2,2.85E2,1.381E3,2.93E2,9.09E2,8.5E2,9.9E1,6.4E1,3.1E2,6.22E2,6E0,1E0,9E1,3.21E2,3.8E1,1.6E1,2.5E1,5.8E1,4.16E2,7.5E1,9.9E1,1.19E2,3.4E1,2.51E2,1.354E3,2.7E1,2.48E2,4.5E1,7E1,8.39E2,8.39E2,1.1E1,2.4E1,7.5E1,3.6E1,2.8E1,3.09E2,1E0,4.73E2,1.49E2],"tree_param":{"num_deleted":"0","num_feature":"18","num_nodes":"61","size_leaf_vector":"1"}},{"base_weights":[-6.644793E-3,2.0999484E0,-7.9507303E-1,5.478733E-1,2.8553476E0,-3.3533472E-1,-2.2068791E0,4.2072117E-1,2.7957966E0,2.2995272E0,3.47997E0,-7.4174446E-1,1.9420609E-1,-1.8304621E0,-2.8415117E0,2.7459317E-1,1.6187642E0,5.5742183E0,1.8994051E-1,2.9993873E0,1.8297886E0,3.594508E0,-6.46324E-1,-4.0037805E-1,-1.1727663E0,5.5570287E-1,-3.9643732E-1,-2.1850975E0,-8.4182155E-1,-2.918112E0,8.4461904E-1,2.145345E-2,-6.401903E-2,2.4801281E-1,4.3668326E-2,2.8394142E-2,3.180642E-1,4.7577616E-2,-1.1663914E-1,1.314904E-1,2.5286254E-1,9.7299345E-2,-8.413824E-2,1.9154987E-1,9.727677E-2,1.5309641E-1,-9.142738E-2,4.897266E-3,-4.1000333E-2,-4.3636464E-2,-8.9639835E-2,3.6568254E-2,-3.038736E-2,-2.3517447E-2,2.3487921E-1,-9.8596975E-2,-1.6303161E-1,3.2928575E-2,-5.8814924E-2,-7.7640556E-2,-1.5645728E-1,-1.9124923E-2,1.7131768E-1],"categories":[],"categories_nodes":[],"categories_segments":[],"categories_sizes":[],"default_left":[0,0,0,0,0,1,0,0,0,0,0,0,1,1,1,0,0,0,0,0,0,1,0,1,0,0,0,1,0,0,0,0,0,0,0,0,0,0,0,0,0,0,0,0,0,0,0,0,0,0,0,0,0,0,0,0,0,0,0,0,0,0,0],"id":5,"left_children":[1,3,5,7,9,11,13,15,17,19,21,23,25,27,29,31,33,35,37,39,41,43,45,47,49,51,53,55,57,59,61,-1,-1,-1,-1,-1,-1,-1,-1,-1,-1,-1,-1,-1,-1,-1,-1,-1,-1,-1,-1,-1,-1,-1,-1,-1,-1,-1,-1,-1,-1,-1,-1],"loss_changes":[1.0129823E4,1.9458516E3,2.8797942E3,1.5460014E2,3.7979492E2,7.208843E2,2.5518506E2,9.006546E1,2.0890608E2,1.8979028E2,2.4997559E2,2.78354E2,3.1088562E2,2.3902734E2,1.165376E2,1.11524445E2,1.351493E2,5.155194E1,3.2961136E1,1.6694922E2,1.4939343E2,1.9142773E2,7.135863E1,2.215286E2,1.5414429E2,1.8499442E2,2.1041806E2,1.093457E2,9.261264E1,1.0923804E2,2.9823397E1,0E0,0E0,0E0,0E0,0E0,0E0,0E0,0E0,0E0,0E0,0E0,0E0,0E0,0E0,0E0,0E0,0E0,0E0,0E0,0E0,0E0,0E0,0E0,0E0,0E0,0E0,0E0,0E0,0E0,0E0,0E0,0E0],"parents":[2147483647,0,0,1,1,2,2,3,3,4,4,5,5,6,6,7,7,8,8,9,9,10,10,11,11,12,12,13,13,14,14,15,15,16,16,17,17,18,18,19,19,20,20,21,21,22,22,23,23,24,24,25,25,26,26,27,27,28,28,29,29,30,30],"right_children":[2,4,6,8,10,12,14,16,18,20,22,24,26,28,30,32,34,36,38,40,42,44,46,48,50,52,54,56,58,60,62,-1,-1,-1,-1,-1,-1,-1,-1,-1,-1,-1,-1,-1,-1,-1,-1,-1,-1,-1,-1,-1,-1,-1,-1,-1,-1,-1,-1,-1,-1,-1,-1],"split_conditions":[-8.413586E1,1.7285226E3,1.4162747E2,8.2E0,1.36E1,1.02E1,2.422038E2,1.5878867E3,-1.21569786E2,5.4E0,1.7659246E3,2.9148716E1,6.6E0,1.1E1,1.8E0,1.5736432E3,1.6838287E3,1.4811501E3,1.1E1,5.2E0,8.2E0,7.2E0,1.6E0,5.4E0,1.6010522E3,1.7407616E3,1.78E1,2.8E0,8E-1,1.7988516E3,1.6367552E3,2.145345E-2,-6.401903E-2,2.4801281E-1,4.3668326E-2,2.8394142E-2,3.180642E-1,4.7577616E-2,-1.1663914E-1,1.314904E-1,2.5286254E-1,9.7299345E-2,-8.413824E-2,1.9154987E-1,9.727677E-2,1.5309641E-1,-9.142738E-2,4.897266E-3,-4.1000333E-2,-4.3636464E-2,-8.9639835E-2,3.6568254E-2,-3.038736E-2,-2.3517447E-2,2.3487921E-1,-9.8596975E-2,-1.6303161E-1,3.2928575E-2,-5.8814924E-2,-7.7640556E-2,-1.5645728E-1,-1.9124923E-2,1.7131768E-1],"split_indices":[17,16,17,5,3,3,17,15,17,6,15,17,6,3,1,15,16,15,13,6,5,6,1,6,16,15,3,0,1,15,16,0,0,0,0,0,0,0,0,0,0,0,0,0,0,0,0,0,0,0,0,0,0,0,0,0,0,0,0,0,0,0,0],"split_type":[0,0,0,0,0,0,0,0,0,0,0,0,0,0,0,0,0,0,0,0,0,0,0,0,0,0,0,0,0,0,0,0,0,0,0,0,0,0,0,0,0,0,0,0,0,0,0,0,0,0,0,0,0,0,0,0,0,0,0,0,0,0,0],"sum_hessian":[6.097E3,1.66E3,4.437E3,5.44E2,1.116E3,3.348E3,1.089E3,5.16E2,2.8E1,5.93E2,5.23E2,1.894E3,1.454E3,6.86E2,4.03E2,4.61E2,5.5E1,1.3E1,1.5E1,2.36E2,3.57E2,5.09E2,1.4E1,1.058E3,8.36E2,9.02E2,5.52E2,5.04E2,1.82E2,3.95E2,8E0,4.2E2,4.1E1,9E0,4.6E1,2E0,1.1E1,1.2E1,3E0,2.02E2,3.4E1,3.46E2,1.1E1,4.44E2,6.5E1,3E0,1.1E1,4.84E2,5.74E2,5.65E2,2.71E2,7.84E2,1.18E2,5.45E2,7E0,4.23E2,8.1E1,3.3E1,1.49E2,5.4E1,3.41E2,6E0,2E0],"tree_param":{"num_deleted":"0","num_feature":"18","num_nodes":"63","size_leaf_vector":"1"}},{"base_weights":[2.5465628E-2,-6.9955236E-1,1.3303522E0,-8.473992E-2,-1.8642046E0,1.950977E0,-6.6451406E-1,-3.965487E-1,4.8700365E-1,-1.1777686E0,-2.270279E0,1.4132973E0,3.0445278E0,-1.440582E0,8.743146E-2,-1.4715968E-1,-1.0375162E0,1.252993E0,2.7196547E-1,-2.2147524E0,-6.305686E-1,-2.307591E0,3.3255646E0,2.1415963E0,8.4704113E-1,2.8950946E0,6.15539E0,-2.0046082E0,-9.710138E-1,-1.7293137E-1,1.6753929E0,-3.9565317E-2,6.1716145E-4,8.428266E-2,-5.8550667E-2,1.84397E-1,4.469396E-2,3.6424976E-2,-4.350779E-3,-5.876578E-4,-1.1894391E-1,-3.8188633E-2,1.8541682E-1,-1.577396E-1,-1.0688801E-1,2.0269819E-1,-7.910728E-3,8.741531E-2,1.2989374E-1,8.314005E-2,1.5300165E-2,1.6448548E-1,9.404982E-2,3.497033E-1,7.848031E-2,-1.1265709E-2,-1.2259219E-1,-8.197073E-2,-2.246103E-2,-1.3202784E-2,2.4752405E-1,2.8689304E-1,5.740896E-2],"categories":[],"categories_nodes":[],"categories_segments":[],"categories_sizes":[],"default_left":[1,0,0,1,0,0,0,1,0,1,0,0,0,0,0,1,0,0,0,0,0,1,0,0,1,0,0,0,0,0,0,0,0,0,0,0,0,0,0,0,0,0,0,0,0,0,0,0,0,0,0,0,0,0,0,0,0,0,0,0,0,0,0],"id":6,"left_children":[1,3,5,7,9,11,13,15,17,19,21,23,25,27,29,31,33,35,37,39,41,43,45,47,49,51,53,55,57,59,61,-1,-1,-1,-1,-1,-1,-1,-1,-1,-1,-1,-1,-1,-1,-1,-1,-1,-1,-1,-1,-1,-1,-1,-1,-1,-1,-1,-1,-1,-1,-1,-1],"loss_changes":[5.7293613E3,2.787397E3,2.679227E3,4.5461526E2,3.7223682E2,9.6586475E2,3.0007623E2,2.6360028E2,1.479045E2,2.834571E2,1.8389453E2,4.551294E2,2.3460205E2,6.506024E1,1.0861261E2,1.2217151E2,1.6992712E2,1.6896475E2,1.1543989E2,6.2523376E1,1.9355891E2,1.1397217E2,1.5866882E1,8.231177E1,2.7533923E2,2.0190479E2,8.1325745E1,9.016464E1,4.8090927E1,1.0681922E2,7.265809E1,0E0,0E0,0E0,0E0,0E0,0E0,0E0,0E0,0E0,0E0,0E0,0E0,0E0,0E0,0E0,0E0,0E0,0E0,0E0,0E0,0E0,0E0,0E0,0E0,0E0,0E0,0E0,0E0,0E0,0E0,0E0,0E0],"parents":[2147483647,0,0,1,1,2,2,3,3,4,4,5,5,6,6,7,7,8,8,9,9,10,10,11,11,12,12,13,13,14,14,15,15,16,16,17,17,18,18,19,19,20,20,21,21,22,22,23,23,24,24,25,25,26,26,27,27,28,28,29,29,30,30],"right_children":[2,4,6,8,10,12,14,16,18,20,22,24,26,28,30,32,34,36,38,40,42,44,46,48,50,52,54,56,58,60,62,-1,-1,-1,-1,-1,-1,-1,-1,-1,-1,-1,-1,-1,-1,-1,-1,-1,-1,-1,-1,-1,-1,-1,-1,-1,-1,-1,-1,-1,-1,-1,-1],"split_conditions":[1.14E1,1.6684119E3,1.7380831E3,9.8E0,1.7360411E3,1.42E1,1.32E1,6.6E0,1.5517933E3,8.6E0,3E0,1.5964442E3,8.8E0,7E0,1.68E1,6.6E0,1.5101984E3,1E1,5.6E0,1E1,2.4E0,7.6E0,1.2E0,1.26E1,5.4E0,1.1E1,1.4E1,5E0,1.2E0,2.3E1,1.7511367E3,-3.9565317E-2,6.1716145E-4,8.428266E-2,-5.8550667E-2,1.84397E-1,4.469396E-2,3.6424976E-2,-4.350779E-3,-5.876578E-4,-1.1894391E-1,-3.8188633E-2,1.8541682E-1,-1.577396E-1,-1.0688801E-1,2.0269819E-1,-7.910728E-3,8.741531E-2,1.2989374E-1,8.314005E-2,1.5300165E-2,1.6448548E-1,9.404982E-2,3.497033E-1,7.848031E-2,-1.1265709E-2,-1.2259219E-1,-8.197073E-2,-2.246103E-2,-1.3202784E-2,2.4752405E-1,2.8689304E-1,5.740896E-2],"split_indices":[3,15,15,3,15,3,3,6,15,3,8,15,7,6,3,3,15,3,6,2,8,3,1,3,6,13,2,6,8,2,15,0,0,0,0,0,0,0,0,0,0,0,0,0,0,0,0,0,0,0,0,0,0,0,0,0,0,0,0,0,0,0,0],"split_type":[0,0,0,0,0,0,0,0,0,0,0,0,0,0,0,0,0,0,0,0,0,0,0,0,0,0,0,0,0,0,0,0,0,0,0,0,0,0,0,0,0,0,0,0,0,0,0,0,0,0,0,0,0,0,0,0,0,0,0,0,0,0,0],"sum_hessian":[6.054E3,3.892E3,2.162E3,2.548E3,1.344E3,1.649E3,5.13E2,1.649E3,8.99E2,5.01E2,8.43E2,1.107E3,5.42E2,2.52E2,2.61E2,1.188E3,4.61E2,1.96E2,7.03E2,1.72E2,3.29E2,8.38E2,5E0,4.83E2,6.24E2,5.19E2,2.3E1,1.13E2,1.39E2,2.25E2,3.6E1,2.35E2,9.53E2,2.1E1,4.4E2,2.4E1,1.72E2,3.09E2,3.94E2,1.2E1,1.6E2,3.2E2,9E0,1.37E2,7.01E2,4E0,1E0,2.62E2,2.21E2,2.48E2,3.76E2,3.72E2,1.47E2,1.9E1,4E0,2.3E1,9E1,6E1,7.9E1,2.22E2,3E0,3E0,3.3E1],"tree_param":{"num_deleted":"0","num_feature":"18","num_nodes":"63","size_leaf_vector":"1"}},{"base_weights":[-2.8084323E-2,-6.7215157E-1,1.8019726E0,-5.3175557E-3,-1.1478833E0,2.0783703E0,-2.4064891E-1,-5.12377E-1,4.9907035E-1,-5.740332E-1,-1.6146777E0,1.6494865E0,2.796304E0,-1.3395183E0,6.345338E-1,-5.79081E-1,1.7695938E0,1.4845498E0,3.3622846E-1,-1.037285E0,-6.6544786E-2,-9.3489814E-1,-1.9270661E0,2.0630243E0,9.61513E-1,5.4675364E0,2.6172457E0,-1.1090826E0,-2.4023366E-1,1.21410824E-1,2.2284396E0,8.4699914E-2,-3.2501135E-2,1.511987E-1,-1.6493287E-2,1.8431798E-1,5.8801647E-2,5.767869E-3,6.19159E-2,1.3314787E-1,-5.449597E-2,8.905998E-2,-1.0494946E-2,-5.9071988E-2,5.8108777E-2,-1.0057423E-1,1.2927385E-2,8.8944875E-2,1.6251193E-1,-1.2000869E-3,8.655403E-2,4.0530467E-1,1.8497156E-1,1.7256208E-1,1.0107738E-1,-7.429431E-2,4.8809417E-2,4.131743E-2,-9.1935396E-2,1.7076592E-1,-6.04887E-4],"categories":[],"categories_nodes":[],"categories_segments":[],"categories_sizes":[],"default_left":[0,1,1,1,0,0,0,1,0,0,0,1,0,0,0,0,0,0,0,0,0,0,1,0,0,0,1,0,0,0,0,0,0,0,0,0,0,0,0,0,0,0,0,0,0,0,0,0,0,0,0,0,0,0,0,0,0,0,0,0,0],"id":7,"left_children":[1,3,5,7,9,11,13,15,17,19,21,23,25,27,29,31,33,35,37,39,41,43,45,47,49,51,53,55,-1,57,59,-1,-1,-1,-1,-1,-1,-1,-1,-1,-1,-1,-1,-1,-1,-1,-1,-1,-1,-1,-1,-1,-1,-1,-1,-1,-1,-1,-1,-1,-1],"loss_changes":[7.221804E3,1.437699E3,9.00999E2,4.8312057E2,7.075896E2,4.2800098E2,1.8453688E2,1.4441267E2,1.5147287E2,2.7922372E2,3.07812E2,2.48948E2,2.3632275E2,6.2543335E1,8.724151E1,1.4881165E2,7.210256E1,8.669031E1,1.6204297E2,1.2384839E2,1.5082672E2,2.3971744E2,1.8465771E2,1.797439E2,2.5259549E2,1.1929993E2,2.3795044E2,6.5095215E1,0E0,1.1482387E2,6.91817E1,0E0,0E0,0E0,0E0,0E0,0E0,0E0,0E0,0E0,0E0,0E0,0E0,0E0,0E0,0E0,0E0,0E0,0E0,0E0,0E0,0E0,0E0,0E0,0E0,0E0,0E0,0E0,0E0,0E0,0E0],"parents":[2147483647,0,0,1,1,2,2,3,3,4,4,5,5,6,6,7,7,8,8,9,9,10,10,11,11,12,12,13,13,14,14,15,15,16,16,17,17,18,18,19,19,20,20,21,21,22,22,23,23,24,24,25,25,26,26,27,27,29,29,30,30],"right_children":[2,4,6,8,10,12,14,16,18,20,22,24,26,28,30,32,34,36,38,40,42,44,46,48,50,52,54,56,-1,58,60,-1,-1,-1,-1,-1,-1,-1,-1,-1,-1,-1,-1,-1,-1,-1,-1,-1,-1,-1,-1,-1,-1,-1,-1,-1,-1,-1,-1,-1,-1],"split_conditions":[1.7116974E3,5.6E0,1.76E1,9.8E0,1.4E1,1.4E1,1.32E1,2.8E0,8E-1,1.6010522E3,6.4E0,6.4E0,8E-1,8.2E0,8.2E0,2.6E0,4.4E0,1E1,1.6660961E3,2E-1,6E-1,2E0,7.8E0,1.8541416E3,5E0,4.8E0,1.24E1,6.2E0,-2.4023366E-1,8.2E0,7E0,8.4699914E-2,-3.2501135E-2,1.511987E-1,-1.6493287E-2,1.8431798E-1,5.8801647E-2,5.767869E-3,6.19159E-2,1.3314787E-1,-5.449597E-2,8.905998E-2,-1.0494946E-2,-5.9071988E-2,5.8108777E-2,-1.0057423E-1,1.2927385E-2,8.8944875E-2,1.6251193E-1,-1.2000869E-3,8.655403E-2,4.0530467E-1,1.8497156E-1,1.7256208E-1,1.0107738E-1,-7.429431E-2,4.8809417E-2,4.131743E-2,-9.1935396E-2,1.7076592E-1,-6.04887E-4],"split_indices":[16,4,2,3,2,3,3,8,0,16,6,6,1,5,5,4,7,3,16,1,1,8,5,16,13,5,2,5,0,4,7,0,0,0,0,0,0,0,0,0,0,0,0,0,0,0,0,0,0,0,0,0,0,0,0,0,0,0,0,0,0],"split_type":[0,0,0,0,0,0,0,0,0,0,0,0,0,0,0,0,0,0,0,0,0,0,0,0,0,0,0,0,0,0,0,0,0,0,0,0,0,0,0,0,0,0,0,0,0,0,0,0,0,0,0,0,0,0,0,0,0,0,0,0,0],"sum_hessian":[6.125E3,4.531E3,1.594E3,1.887E3,2.644E3,1.404E3,1.9E2,9.41E2,9.46E2,1.187E3,1.457E3,8.81E2,5.23E2,8.4E1,1.06E2,9.15E2,2.6E1,1.33E2,8.13E2,6.2E2,5.67E2,4.6E2,9.97E2,5.49E2,3.32E2,3.1E1,4.92E2,8E1,4E0,8.1E1,2.5E1,2.7E1,8.88E2,1.6E1,1E1,1.5E1,1.18E2,6.54E2,1.59E2,8E0,6.12E2,4E1,5.27E2,4.12E2,4.8E1,9.6E2,3.7E1,4.45E2,1.04E2,1.46E2,1.86E2,1.1E1,2E1,2.03E2,2.89E2,6.8E1,1.2E1,6E1,2.1E1,1.6E1,9E0],"tree_param":{"num_deleted":"0","num_feature":"18","num_nodes":"61","size_leaf_vector":"1"}},{"base_weights":[-1.9908478E-3,1.7955009E0,-6.650526E-1,8.176257E-1,2.5461848E0,-2.6850826E-1,-1.9251122E0,1.0858781E0,-4.8747785E-2,3.0787952E0,1.9674696E0,5.75371E-2,-6.786556E-1,-1.1028388E0,-2.1930513E0,1.0214921E0,6.7103744E0,-2.5308943E-1,3.6348183E0,3.000703E0,4.3869925E-1,2.9981167E0,1.5038142E0,-5.519847E-2,1.4663208E0,-3.472306E-1,-1.0847999E0,1.8026271E-1,-1.170768E0,-2.4005475E0,-1.4456329E0,3.1051595E-2,9.1059364E-2,3.724558E-1,7.5416684E-2,-3.2515515E-2,5.0817925E-2,3.0096248E-1,-4.252664E-2,1.429839E-1,2.4057376E-1,-2.274127E-3,1.6054069E-1,8.355116E-2,-3.3129208E-2,1.3826141E-3,-4.3375555E-2,2.6285872E-2,1.6581646E-1,3.297827E-1,-1.8601326E-2,-6.215051E-2,8.821017E-3,-4.5624573E-2,-1.17904685E-1,-1.0224481E-1,-1.418413E-1,-8.2162485E-2,5.8689065E-2],"categories":[],"categories_nodes":[],"categories_segments":[],"categories_sizes":[],"default_left":[0,0,0,1,1,0,1,1,1,1,0,1,0,0,1,0,0,0,0,0,0,0,0,0,0,0,0,0,0,0,0,0,0,0,0,0,0,0,0,0,0,0,0,0,0,0,0,0,0,0,0,0,0,0,0,0,0,0,0],"id":8,"left_children":[1,3,5,7,9,11,13,15,17,19,21,23,25,27,29,31,33,35,37,39,-1,41,43,45,47,49,51,-1,53,55,57,-1,-1,-1,-1,-1,-1,-1,-1,-1,-1,-1,-1,-1,-1,-1,-1,-1,-1,-1,-1,-1,-1,-1,-1,-1,-1,-1,-1],"loss_changes":[7.266699E3,1.2040034E3,2.2250112E3,1.6622379E2,2.8028857E2,4.5323856E2,2.324414E2,1.9087341E2,1.2887994E2,1.8804102E2,2.0957495E2,3.0009198E2,2.0166754E2,8.865265E1,1.2106445E2,1.7212213E2,1.18220215E1,8.234963E1,1.01374664E2,1.08049805E2,0E0,8.948218E1,1.137641E2,1.17800224E2,2.4187387E2,1.4499823E2,1.3470782E2,0E0,7.788611E1,9.148584E1,9.355109E1,0E0,0E0,0E0,0E0,0E0,0E0,0E0,0E0,0E0,0E0,0E0,0E0,0E0,0E0,0E0,0E0,0E0,0E0,0E0,0E0,0E0,0E0,0E0,0E0,0E0,0E0,0E0,0E0],"parents":[2147483647,0,0,1,1,2,2,3,3,4,4,5,5,6,6,7,7,8,8,9,9,10,10,11,11,12,12,13,13,14,14,15,15,16,16,17,17,18,18,19,19,21,21,22,22,23,23,24,24,25,25,26,26,28,28,29,29,30,30],"right_children":[2,4,6,8,10,12,14,16,18,20,22,24,26,28,30,32,34,36,38,40,-1,42,44,46,48,50,52,-1,54,56,58,-1,-1,-1,-1,-1,-1,-1,-1,-1,-1,-1,-1,-1,-1,-1,-1,-1,-1,-1,-1,-1,-1,-1,-1,-1,-1,-1,-1],"split_conditions":[-8.413586E1,1.7565612E3,1.4162747E2,6.6E0,5.4E0,2.3818321E1,6E0,2.4E0,9E0,2.4E0,-2.591397E2,4E-1,6.4E0,3.2E0,5.6E0,1.7038906E3,1.36E1,7.4E0,-1.2736451E2,2.8E0,4.3869925E-1,5.6E0,1.84E1,3E0,1.61848E3,1.8E0,1.7261637E3,1.8026271E-1,2.672326E2,2.371511E2,2.12E1,3.1051595E-2,9.1059364E-2,3.724558E-1,7.5416684E-2,-3.2515515E-2,5.0817925E-2,3.0096248E-1,-4.252664E-2,1.429839E-1,2.4057376E-1,-2.274127E-3,1.6054069E-1,8.355116E-2,-3.3129208E-2,1.3826141E-3,-4.3375555E-2,2.6285872E-2,1.6581646E-1,3.297827E-1,-1.8601326E-2,-6.215051E-2,8.821017E-3,-4.5624573E-2,-1.17904685E-1,-1.0224481E-1,-1.418413E-1,-8.2162485E-2,5.8689065E-2],"split_indices":[17,16,17,4,4,17,4,0,5,0,17,11,6,6,5,16,2,6,17,9,0,4,2,9,15,4,16,0,17,17,2,0,0,0,0,0,0,0,0,0,0,0,0,0,0,0,0,0,0,0,0,0,0,0,0,0,0,0,0],"split_type":[0,0,0,0,0,0,0,0,0,0,0,0,0,0,0,0,0,0,0,0,0,0,0,0,0,0,0,0,0,0,0,0,0,0,0,0,0,0,0,0,0,0,0,0,0,0,0,0,0,0,0,0,0,0,0,0,0,0,0],"sum_hessian":[6.095E3,1.642E3,4.453E3,7.14E2,9.28E2,3.388E3,1.065E3,5.45E2,1.69E2,4.81E2,4.47E2,1.888E3,1.5E3,2.63E2,8.02E2,5.4E2,5E0,1.61E2,8E0,4.76E2,5E0,1.37E2,3.1E2,1.749E3,1.39E2,8.27E2,6.73E2,3E0,2.6E2,6.26E2,1.76E2,3.61E2,1.79E2,4E0,1E0,1.23E2,3.8E1,5E0,3E0,4.44E2,3.2E1,9E0,1.28E2,2.88E2,2.2E1,1.588E3,1.61E2,9.3E1,4.6E1,2E0,8.25E2,5.98E2,7.5E1,2.15E2,4.5E1,3.48E2,2.78E2,1.64E2,1.2E1],"tree_param":{"num_deleted":"0","num_feature":"18","num_nodes":"59","size_leaf_vector":"1"}},{"base_weights":[1.3080824E-2,1.794569E0,-6.4425194E-1,6.7316514E-1,2.3618672E0,-2.5477308E-1,-1.8913014E0,5.473305E-1,3.4187222E0,1.8679824E0,2.954146E0,-6.4241856E-1,1.0798714E-1,-1.1607751E0,-2.2559533E0,-1.5586733E0,7.1349514E-1,5.885534E0,4.6144915E-1,2.0474362E0,1.0097248E-1,3.8509738E0,2.008052E0,-4.338751E-1,-1.5591283E0,3.438978E-1,-7.5793564E-1,-1.849638E0,-5.356963E-1,-3.0941045E0,-2.023432E0,-9.403284E-2,8.6442254E-2,7.102654E-2,1.5697168E-2,1.8625748E-1,3.892562E-1,-1.4203245E-2,2.165526E-1,1.20627694E-1,7.391248E-2,-4.130667E-2,1.7846026E-1,1.3418888E-1,2.1842289E-1,1.1060389E-1,-5.0603487E-2,-8.5170425E-2,-1.7901177E-2,-5.248102E-3,-8.96365E-2,1.5321833E-2,1.7544718E-1,-3.929058E-3,-7.506855E-2,-5.320399E-2,-1.4539392E-1,-3.7134282E-2,1.1459527E-1,-2.0208128E-1,-1.2702142E-1,-1.0409834E-1,5.2766304E-2],"categories":[],"categories_nodes":[],"categories_segments":[],"categories_sizes":[],"default_left":[0,0,0,1,0,1,1,0,0,0,0,1,0,0,1,0,0,0,1,0,1,0,1,0,0,0,0,0,0,0,0,0,0,0,0,0,0,0,0,0,0,0,0,0,0,0,0,0,0,0,0,0,0,0,0,0,0,0,0,0,0,0,0],"id":9,"left_children":[1,3,5,7,9,11,13,15,17,19,21,23,25,27,29,31,33,35,37,39,41,43,45,47,49,51,53,55,57,59,61,-1,-1,-1,-1,-1,-1,-1,-1,-1,-1,-1,-1,-1,-1,-1,-1,-1,-1,-1,-1,-1,-1,-1,-1,-1,-1,-1,-1,-1,-1,-1,-1],"loss_changes":[7.1210225E3,1.0410928E3,2.156995E3,1.8883719E2,3.1274072E2,4.762167E2,2.7895337E2,1.8623212E2,1.7236502E2,1.8878296E2,4.1056934E2,3.1227502E2,3.5775137E2,1.514393E2,1.3094043E2,4.453389E1,1.3826025E2,2.4349213E1,3.584842E1,1.088645E2,1.8301212E2,1.4048535E2,1.513551E2,1.27945526E2,1.02739624E2,1.6207191E2,1.8927806E2,1.3656573E2,1.1115013E2,6.895007E1,1.02035645E2,0E0,0E0,0E0,0E0,0E0,0E0,0E0,0E0,0E0,0E0,0E0,0E0,0E0,0E0,0E0,0E0,0E0,0E0,0E0,0E0,0E0,0E0,0E0,0E0,0E0,0E0,0E0,0E0,0E0,0E0,0E0,0E0],"parents":[2147483647,0,0,1,1,2,2,3,3,4,4,5,5,6,6,7,7,8,8,9,9,10,10,11,11,12,12,13,13,14,14,15,15,16,16,17,17,18,18,19,19,20,20,21,21,22,22,23,23,24,24,25,25,26,26,27,27,28,28,29,29,30,30],"right_children":[2,4,6,8,10,12,14,16,18,20,22,24,26,28,30,32,34,36,38,40,42,44,46,48,50,52,54,56,58,60,62,-1,-1,-1,-1,-1,-1,-1,-1,-1,-1,-1,-1,-1,-1,-1,-1,-1,-1,-1,-1,-1,-1,-1,-1,-1,-1,-1,-1,-1,-1,-1,-1],"split_conditions":[-8.413586E1,1.7285226E3,1.4162747E2,8E0,1.36E1,9.8E0,6.6E0,8E-1,-1.4071484E2,1.66E1,-2.117766E2,8E0,6.9954704E1,9.6E0,8E0,1.18E1,1.4E0,6.4E0,4E-1,6E0,9.8E0,4E0,1.84E1,6.2E0,1.5731051E3,9.4E0,1.599899E3,2.1953151E2,6.4E0,1.56E1,2.34E1,-9.403284E-2,8.6442254E-2,7.102654E-2,1.5697168E-2,1.8625748E-1,3.892562E-1,-1.4203245E-2,2.165526E-1,1.20627694E-1,7.391248E-2,-4.130667E-2,1.7846026E-1,1.3418888E-1,2.1842289E-1,1.1060389E-1,-5.0603487E-2,-8.5170425E-2,-1.7901177E-2,-5.248102E-3,-8.96365E-2,1.5321833E-2,1.7544718E-1,-3.929058E-3,-7.506855E-2,-5.320399E-2,-1.4539392E-1,-3.7134282E-2,1.1459527E-1,-2.0208128E-1,-1.2702142E-1,-1.0409834E-1,5.2766304E-2],"split_indices":[17,16,17,5,3,3,4,8,17,2,17,4,17,3,3,3,8,7,10,5,4,13,2,3,15,5,16,17,7,2,2,0,0,0,0,0,0,0,0,0,0,0,0,0,0,0,0,0,0,0,0,0,0,0,0,0,0,0,0,0,0,0,0],"split_type":[0,0,0,0,0,0,0,0,0,0,0,0,0,0,0,0,0,0,0,0,0,0,0,0,0,0,0,0,0,0,0,0,0,0,0,0,0,0,0,0,0,0,0,0,0,0,0,0,0,0,0,0,0,0,0,0,0,0,0,0,0,0,0],"sum_hessian":[6.079E3,1.638E3,4.441E3,5.51E2,1.087E3,3.385E3,1.056E3,5.28E2,2.3E1,5.95E2,4.92E2,1.636E3,1.749E3,3.53E2,7.03E2,3.8E1,4.9E2,1.2E1,1.1E1,5.4E2,5.5E1,2.51E2,2.41E2,1.334E3,3.02E2,1.375E3,3.74E2,1.67E2,1.86E2,1.5E2,5.53E2,3.5E1,3E0,1.76E2,3.14E2,7E0,5E0,1E1,1E0,3.27E2,2.13E2,4.4E1,1.1E1,7.9E1,1.72E2,2.26E2,1.5E1,7.4E1,1.26E3,4.2E1,2.6E2,1.36E3,1.5E1,1.96E2,1.78E2,9.7E1,7E1,1.74E2,1.2E1,5.3E1,9.7E1,5.43E2,1E1],"tree_param":{"num_deleted":"0","num_feature":"18","num_nodes":"63","size_leaf_vector":"1"}},{"base_weights":[5.9037764E-2,-5.540047E-1,1.6397585E0,-1.13889046E-1,-1.6715696E0,2.0732138E0,-1.0059782E-2,-2.5198224E-1,4.4604197E-1,-3.551633E-1,-1.8445816E0,1.4007775E0,2.5122697E0,1.6071925E-1,-2.0716858E0,6.9478795E-2,-5.310651E-1,-6.2095933E-3,1.1731055E0,-9.8379874E-1,1.3625424E0,-1.8694408E0,2.941653E0,1.568485E0,-2.051128E-1,2.3564277E0,4.600211E0,-5.447256E-1,6.374269E-1,3.899035E-1,-2.7935638E0,-4.399829E-3,6.2102642E-2,-4.0014166E-2,-3.407128E-4,2.7919367E-2,-2.9589787E-2,-1.3103056E-1,7.390841E-2,-6.702025E-2,4.8099365E-2,1.3846582E-1,-6.736813E-2,-1.1333086E-1,-8.135942E-2,2.235295E-1,-3.8740474E-3,3.0556816E-1,7.538997E-2,5.56806E-2,-8.105656E-2,1.545683E-1,9.891831E-2,2.4044254E-1,-3.0957732E-2,-7.1745895E-2,2.1176217E-2,-5.7246038E-5,7.233965E-2,-3.8758304E-2,7.287486E-2,-2.4379896E-1,-8.177663E-2],"categories":[],"categories_nodes":[],"categories_segments":[],"categories_sizes":[],"default_left":[0,0,0,0,0,0,0,1,1,0,0,1,0,0,0,1,1,0,1,0,0,0,0,0,0,0,0,0,0,0,0,0,0,0,0,0,0,0,0,0,0,0,0,0,0,0,0,0,0,0,0,0,0,0,0,0,0,0,0,0,0,0,0],"id":10,"left_children":[1,3,5,7,9,11,13,15,17,19,21,23,25,27,29,31,33,35,37,39,41,43,45,47,49,51,53,55,57,59,61,-1,-1,-1,-1,-1,-1,-1,-1,-1,-1,-1,-1,-1,-1,-1,-1,-1,-1,-1,-1,-1,-1,-1,-1,-1,-1,-1,-1,-1,-1,-1,-1],"loss_changes":[5.8500884E3,2.1393916E3,1.2064326E3,2.4151376E2,2.7925464E2,3.9091748E2,1.2426599E2,2.2477115E2,2.0321536E2,1.5683322E2,1.3471338E2,1.4306116E2,2.5174902E2,1.0997809E2,4.9067337E1,2.1522833E2,1.8926044E2,1.2662734E2,2.781589E2,7.4840675E1,1.5240802E2,1.0032251E2,2.8042782E1,1.2311572E2,9.703956E1,2.0310645E2,6.2870483E1,1.1438231E2,1.0078513E2,9.836548E0,4.2666702E1,0E0,0E0,0E0,0E0,0E0,0E0,0E0,0E0,0E0,0E0,0E0,0E0,0E0,0E0,0E0,0E0,0E0,0E0,0E0,0E0,0E0,0E0,0E0,0E0,0E0,0E0,0E0,0E0,0E0,0E0,0E0,0E0],"parents":[2147483647,0,0,1,1,2,2,3,3,4,4,5,5,6,6,7,7,8,8,9,9,10,10,11,11,12,12,13,13,14,14,15,15,16,16,17,17,18,18,19,19,20,20,21,21,22,22,23,23,24,24,25,25,26,26,27,27,28,28,29,29,30,30],"right_children":[2,4,6,8,10,12,14,16,18,20,22,24,26,28,30,32,34,36,38,40,42,44,46,48,50,52,54,56,58,60,62,-1,-1,-1,-1,-1,-1,-1,-1,-1,-1,-1,-1,-1,-1,-1,-1,-1,-1,-1,-1,-1,-1,-1,-1,-1,-1,-1,-1,-1,-1,-1,-1],"split_conditions":[1.6992349E3,1.6984644E3,1.7438698E3,1.6467906E3,5E0,1.7748013E3,1.9259579E3,5.4E0,1.4E0,5.2E0,3.2E0,1.64E1,1.92834E3,5E0,4.8E0,1.42E1,5.2E0,1.5964442E3,8.6E0,4.4E0,1.6281691E3,1.56E1,1.2E0,4E-1,1.6759269E3,1.5842079E3,2.6E0,1.7994459E3,1.4E0,6.6E0,5.4E0,-4.399829E-3,6.2102642E-2,-4.0014166E-2,-3.407128E-4,2.7919367E-2,-2.9589787E-2,-1.3103056E-1,7.390841E-2,-6.702025E-2,4.8099365E-2,1.3846582E-1,-6.736813E-2,-1.1333086E-1,-8.135942E-2,2.235295E-1,-3.8740474E-3,3.0556816E-1,7.538997E-2,5.56806E-2,-8.105656E-2,1.545683E-1,9.891831E-2,2.4044254E-1,-3.0957732E-2,-7.1745895E-2,2.1176217E-2,-5.7246038E-5,7.233965E-2,-3.8758304E-2,7.287486E-2,-2.4379896E-1,-8.177663E-2],"split_indices":[16,15,15,16,4,16,15,4,1,7,8,2,16,13,7,2,5,15,2,5,16,2,1,0,15,15,8,16,8,4,7,0,0,0,0,0,0,0,0,0,0,0,0,0,0,0,0,0,0,0,0,0,0,0,0,0,0,0,0,0,0,0,0],"split_type":[0,0,0,0,0,0,0,0,0,0,0,0,0,0,0,0,0,0,0,0,0,0,0,0,0,0,0,0,0,0,0,0,0,0,0,0,0,0,0,0,0,0,0,0,0,0,0,0,0,0,0,0,0,0,0,0,0,0,0,0,0,0,0],"sum_hessian":[6.035E3,4.349E3,1.686E3,3.121E3,1.228E3,1.335E3,3.51E2,2.504E3,6.17E2,1.43E2,1.085E3,5.29E2,8.06E2,3.25E2,2.6E1,1.164E3,1.34E3,3.81E2,2.36E2,1.05E2,3.8E1,1.08E3,5E0,4.79E2,5E1,7.52E2,5.4E1,1.31E2,1.94E2,6E0,2E1,1.027E3,1.37E2,8.85E2,4.55E2,1.94E2,1.87E2,1.7E1,2.19E2,8.9E1,1.6E1,2.5E1,1.3E1,4.06E2,6.74E2,3E0,2E0,5E0,4.74E2,2.6E1,2.4E1,2.53E2,4.99E2,5.2E1,2E0,6.8E1,6.3E1,1.09E2,8.5E1,3E0,3E0,6E0,1.4E1],"tree_param":{"num_deleted":"0","num_feature":"18","num_nodes":"63","size_leaf_vector":"1"}},{"base_weights":[-3.539256E-2,1.6645839E0,-6.1357987E-1,6.6427803E-1,2.166532E0,-2.5025275E-1,-1.7773457E0,-1.2842673E0,8.3553255E-1,1.8044869E0,3.097707E0,-5.4066986E-1,4.3309233E-1,-1.4663898E0,-2.2421734E0,-1.9175469E0,2.8350012E0,3.5688846E0,7.3225194E-1,2.6444833E0,1.4363401E0,3.2390244E0,-3.871831E-1,-3.5322595E-1,-1.3066704E0,1.400924E0,1.5395041E-1,-2.1208608E0,-1.0648718E0,-2.4857097E0,-6.4152443E-1,-3.269202E-2,-1.4795028E-1,1.857001E-1,-3.900006E-2,3.1142575E-1,5.4214593E-2,7.482018E-2,1.6044619E-2,2.6578283E-1,1.07757054E-1,6.1285317E-2,1.4030099E-1,1.1557599E-1,1.8475862E-1,8.211821E-2,-6.2309194E-2,4.9903154E-2,-2.1121277E-2,-7.515486E-2,4.9589746E-2,8.1164986E-2,-8.374037E-2,2.9014224E-2,-1.33209145E-2,-1.3357036E-1,-6.868581E-2,-6.780197E-2,-7.854211E-3,-8.528218E-2,-1.3792433E-1,-6.422012E-2,1.1110411E-1],"categories":[],"categories_nodes":[],"categories_segments":[],"categories_sizes":[],"default_left":[0,1,0,0,0,1,0,0,0,0,1,1,0,0,0,0,0,0,0,0,0,0,0,0,0,0,0,1,0,0,0,0,0,0,0,0,0,0,0,0,0,0,0,0,0,0,0,0,0,0,0,0,0,0,0,0,0,0,0,0,0,0,0],"id":11,"left_children":[1,3,5,7,9,11,13,15,17,19,21,23,25,27,29,31,33,35,37,39,41,43,45,47,49,51,53,55,57,59,61,-1,-1,-1,-1,-1,-1,-1,-1,-1,-1,-1,-1,-1,-1,-1,-1,-1,-1,-1,-1,-1,-1,-1,-1,-1,-1,-1,-1,-1,-1,-1,-1],"loss_changes":[5.9525103E3,7.70291E2,1.9103135E3,1.7292706E2,3.392915E2,6.8391187E2,1.520935E2,1.149995E2,1.3119794E2,2.2473145E2,1.4160938E2,3.4671997E2,2.7751123E2,1.6776147E2,1.6563623E2,4.6760895E1,2.1962463E1,1.0558414E2,1.4348807E2,2.813385E2,1.45427E2,1.07382324E2,2.296728E1,1.8220241E2,2.1594409E2,1.600314E2,1.4334937E2,9.710791E1,1.0630728E2,7.445068E1,1.0962914E2,0E0,0E0,0E0,0E0,0E0,0E0,0E0,0E0,0E0,0E0,0E0,0E0,0E0,0E0,0E0,0E0,0E0,0E0,0E0,0E0,0E0,0E0,0E0,0E0,0E0,0E0,0E0,0E0,0E0,0E0,0E0,0E0],"parents":[2147483647,0,0,1,1,2,2,3,3,4,4,5,5,6,6,7,7,8,8,9,9,10,10,11,11,12,12,13,13,14,14,15,15,16,16,17,17,18,18,19,19,20,20,21,21,22,22,23,23,24,24,25,25,26,26,27,27,28,28,29,29,30,30],"right_children":[2,4,6,8,10,12,14,16,18,20,22,24,26,28,30,32,34,36,38,40,42,44,46,48,50,52,54,56,58,60,62,-1,-1,-1,-1,-1,-1,-1,-1,-1,-1,-1,-1,-1,-1,-1,-1,-1,-1,-1,-1,-1,-1,-1,-1,-1,-1,-1,-1,-1,-1,-1,-1],"split_conditions":[-9.338065E1,1.12E1,1.4162747E2,8E-1,1.52E1,1.12E1,2.371511E2,1.5971837E3,3.6E0,5E0,8.6E0,7.2E0,1.5964442E3,1.2E0,1.04E1,1.5197684E3,2.2E0,1.02E1,1.4E0,-2.7002347E2,2.2E0,5E0,3E0,3E0,2.2E0,8.4E0,6.4E0,9.8E0,6E0,6.4E0,1.4E0,-3.269202E-2,-1.4795028E-1,1.857001E-1,-3.900006E-2,3.1142575E-1,5.4214593E-2,7.482018E-2,1.6044619E-2,2.6578283E-1,1.07757054E-1,6.1285317E-2,1.4030099E-1,1.1557599E-1,1.8475862E-1,8.211821E-2,-6.2309194E-2,4.9903154E-2,-2.1121277E-2,-7.515486E-2,4.9589746E-2,8.1164986E-2,-8.374037E-2,2.9014224E-2,-1.33209145E-2,-1.3357036E-1,-6.868581E-2,-6.780197E-2,-7.854211E-3,-8.528218E-2,-1.3792433E-1,-6.422012E-2,1.1110411E-1],"split_indices":[17,3,17,8,3,3,17,15,6,5,6,6,15,8,4,15,0,2,8,17,8,13,13,4,8,6,6,3,12,4,1,0,0,0,0,0,0,0,0,0,0,0,0,0,0,0,0,0,0,0,0,0,0,0,0,0,0,0,0,0,0,0,0],"split_type":[0,0,0,0,0,0,0,0,0,0,0,0,0,0,0,0,0,0,0,0,0,0,0,0,0,0,0,0,0,0,0,0,0,0,0,0,0,0,0,0,0,0,0,0,0,0,0,0,0,0,0,0,0,0,0,0,0,0,0,0,0,0,0],"sum_hessian":[6.054E3,1.536E3,4.518E3,5.14E2,1.022E3,3.444E3,1.074E3,4.1E1,4.73E2,7.38E2,2.84E2,2.417E3,1.027E3,6.46E2,4.28E2,3.6E1,5E0,1.6E1,4.57E2,2.23E2,5.15E2,2.73E2,1.1E1,1.943E3,4.74E2,2.29E2,7.98E2,2.44E2,4.02E2,3.71E2,5.7E1,1.7E1,1.9E1,4E0,1E0,7E0,9E0,1.59E2,2.98E2,3.3E1,1.9E2,4.48E2,6.7E1,9.2E1,1.81E2,3E0,8E0,9.4E1,1.849E3,4.37E2,3.7E1,2.14E2,1.5E1,3.96E2,4.02E2,1.39E2,1.05E2,3.04E2,9.8E1,9.8E1,2.73E2,4.7E1,1E1],"tree_param":{"num_deleted":"0","num_feature":"18","num_nodes":"63","size_leaf_vector":"1"}},{"base_weights":[3.751874E-2,1.5799608E0,-5.6100225E-1,2.5229769E0,1.0523237E0,-2.562663E-1,-1.518051E0,2.4057238E0,5.867515E0,8.033485E-1,1.7124605E0,-1.417106E-2,-7.37407E-1,-6.4828986E-1,-1.7981256E0,4.0054007E0,2.2668009E0,7.8031797E0,2.634683E0,2.7626193E-1,1.1849452E0,4.2977196E-1,1.6371696E0,-8.405288E-1,9.165024E-2,-7.889383E-1,3.3751915E0,3.9368024E0,-7.353101E-1,-1.9836241E0,-1.1553088E0,-1.22100614E-1,2.4256161E-1,1.2097768E-1,5.9566762E-2,4.414262E-1,8.921544E-2,-1.7403854E-2,2.092038E-1,8.805064E-3,2.877874E-1,2.2552864E-1,5.5069514E-2,-4.7425177E-2,8.890345E-2,6.721837E-2,-5.0717145E-2,1.5275824E-2,-1.49823865E-2,-1.0549009E-2,-4.8035882E-2,3.2897856E-2,2.1981446E-1,2.1655491E-1,5.899048E-2,-4.226726E-2,1.02804355E-1,-1.0196215E-1,8.0930844E-2,-7.923102E-2,-8.053063E-3],"categories":[],"categories_nodes":[],"categories_segments":[],"categories_sizes":[],"default_left":[0,0,0,0,1,1,0,0,0,1,1,0,1,0,0,0,1,0,0,1,0,0,0,1,0,0,0,0,0,0,0,0,0,0,0,0,0,0,0,0,0,0,0,0,0,0,0,0,0,0,0,0,0,0,0,0,0,0,0,0,0],"id":12,"left_children":[1,3,5,7,9,11,13,15,17,19,21,23,25,27,29,31,33,35,37,39,41,-1,43,45,47,49,51,53,55,57,59,-1,-1,-1,-1,-1,-1,-1,-1,-1,-1,-1,-1,-1,-1,-1,-1,-1,-1,-1,-1,-1,-1,-1,-1,-1,-1,-1,-1,-1,-1],"loss_changes":[5.630462E3,8.4570264E2,1.2811088E3,2.2549194E2,1.7859595E2,3.8834015E2,2.5729175E2,1.2248193E2,1.04594666E2,1.5997687E2,1.408772E2,1.9412027E2,2.391737E2,1.06633644E2,9.334009E1,2.6270416E2,8.697876E1,5.830414E1,4.3049583E1,1.8339293E2,1.2340924E2,0E0,1.09889404E2,9.706462E1,1.6478447E2,1.09304504E2,3.5951294E1,3.2549286E-1,8.03689E1,1.2771973E2,7.742998E1,0E0,0E0,0E0,0E0,0E0,0E0,0E0,0E0,0E0,0E0,0E0,0E0,0E0,0E0,0E0,0E0,0E0,0E0,0E0,0E0,0E0,0E0,0E0,0E0,0E0,0E0,0E0,0E0,0E0,0E0],"parents":[2147483647,0,0,1,1,2,2,3,3,4,4,5,5,6,6,7,7,8,8,9,9,10,10,11,11,12,12,13,13,14,14,15,15,16,16,17,17,18,18,19,19,20,20,22,22,23,23,24,24,25,25,26,26,27,27,28,28,29,29,30,30],"right_children":[2,4,6,8,10,12,14,16,18,20,22,24,26,28,30,32,34,36,38,40,42,-1,44,46,48,50,52,54,56,58,60,-1,-1,-1,-1,-1,-1,-1,-1,-1,-1,-1,-1,-1,-1,-1,-1,-1,-1,-1,-1,-1,-1,-1,-1,-1,-1,-1,-1,-1,-1],"split_conditions":[-8.0815994E1,-2.0511414E2,1.4162747E2,8.8E0,6E0,6.6E0,6E0,-3.6248886E2,6.2E0,1.2E0,3E0,3.2E0,9.2E0,3.2E0,6E0,4.2E0,7.2E0,2.4E0,1.4E0,2.8E0,3.4E0,4.2977196E-1,8.8E0,8.6E0,3.422813E1,5.4E0,5E0,2.2E0,9.2E0,2.32E1,5.2E0,-1.22100614E-1,2.4256161E-1,1.2097768E-1,5.9566762E-2,4.414262E-1,8.921544E-2,-1.7403854E-2,2.092038E-1,8.805064E-3,2.877874E-1,2.2552864E-1,5.5069514E-2,-4.7425177E-2,8.890345E-2,6.721837E-2,-5.0717145E-2,1.5275824E-2,-1.49823865E-2,-1.0549009E-2,-4.8035882E-2,3.2897856E-2,2.1981446E-1,2.1655491E-1,5.899048E-2,-4.226726E-2,1.02804355E-1,-1.0196215E-1,8.0930844E-2,-7.923102E-2,-8.053063E-3],"split_indices":[17,17,17,7,7,6,4,17,4,0,6,7,5,6,12,6,6,1,0,8,6,0,2,2,17,4,13,0,6,2,7,0,0,0,0,0,0,0,0,0,0,0,0,0,0,0,0,0,0,0,0,0,0,0,0,0,0,0,0,0,0],"split_type":[0,0,0,0,0,0,0,0,0,0,0,0,0,0,0,0,0,0,0,0,0,0,0,0,0,0,0,0,0,0,0,0,0,0,0,0,0,0,0,0,0,0,0,0,0,0,0,0,0,0,0,0,0,0,0,0,0,0,0,0,0],"sum_hessian":[6.097E3,1.704E3,4.393E3,6.1E2,1.094E3,3.333E3,1.06E3,5.91E2,1.9E1,7.96E2,2.98E2,2.218E3,1.115E3,2.59E2,8.01E2,4.5E1,5.46E2,1.1E1,8E0,3.35E2,4.61E2,2E0,2.96E2,2.51E2,1.967E3,1.102E3,1.3E1,4E0,2.55E2,6.2E2,1.81E2,5E0,4E1,4.77E2,6.9E1,9E0,2E0,3E0,5E0,3.3E2,5E0,1E1,4.51E2,1.5E1,2.81E2,1.8E1,2.33E2,1.272E3,6.95E2,2.53E2,8.49E2,4E0,9E0,3E0,1E0,2.46E2,9E0,6.11E2,9E0,1.26E2,5.5E1],"tree_param":{"num_deleted":"0","num_feature":"18","num_nodes":"61","size_leaf_vector":"1"}},{"base_weights":[6.533075E-3,1.5492909E0,-4.8381516E-1,1.0646023E0,2.4380147E0,-1.5702443E-1,-1.5524539E0,2.9640353E-1,1.5181013E0,1.494324E0,2.8222191E0,-5.262281E-1,1.7998601E-1,-1.5772915E0,2.0589907E-1,1.8005502E-1,2.2362385E0,2.3500726E0,1.0427597E0,3.2063067E0,1.0988853E0,3.3960693E0,1.8565077E0,-4.9664629E-1,-3.1032848E0,5.9434354E-1,-2.6324448E-1,-2.1097646E0,-1.3066332E0,1.9916879E-2,-3.20136E-2,3.5661903E-1,2.8321454E-2,5.247813E-2,1.4557785E-1,-1.6075157E-2,6.665177E-2,-5.0195772E-2,1.9749202E-1,1.4345436E-1,3.025016E-2,1.2402313E-1,2.0559537E-1,1.8187068E-1,5.993702E-2,-2.6894853E-2,7.246294E-2,-1.984334E-1,5.6760977E-3,1.0353804E-1,2.3329746E-2,-1.5070947E-2,2.0058982E-1,-1.4521171E-1,-8.91302E-2,1.748332E-1,-6.760108E-2],"categories":[],"categories_nodes":[],"categories_segments":[],"categories_sizes":[],"default_left":[0,1,0,0,0,1,1,0,0,0,0,1,0,1,0,0,0,0,0,0,0,0,0,1,0,0,0,0,0,0,0,0,0,0,0,0,0,0,0,0,0,0,0,0,0,0,0,0,0,0,0,0,0,0,0,0,0],"id":13,"left_children":[1,3,5,7,9,11,13,15,17,19,21,23,25,27,-1,29,31,33,35,37,39,41,43,45,47,49,51,53,55,-1,-1,-1,-1,-1,-1,-1,-1,-1,-1,-1,-1,-1,-1,-1,-1,-1,-1,-1,-1,-1,-1,-1,-1,-1,-1,-1,-1],"loss_changes":[4.610791E3,6.3061304E2,1.6149044E3,3.3155383E2,1.83594E2,4.409342E2,1.590249E2,7.971976E1,2.3443628E2,9.9378265E1,1.9707715E2,1.273703E2,3.4047086E2,1.5274658E2,0E0,6.042024E1,1.5947249E2,1.55401E2,1.5210129E2,9.1617676E1,1.07548065E2,1.3989307E2,1.5846729E2,1.3507141E2,5.334218E1,1.7972247E2,1.4743402E2,8.891382E1,1.6126123E2,0E0,0E0,0E0,0E0,0E0,0E0,0E0,0E0,0E0,0E0,0E0,0E0,0E0,0E0,0E0,0E0,0E0,0E0,0E0,0E0,0E0,0E0,0E0,0E0,0E0,0E0,0E0,0E0],"parents":[2147483647,0,0,1,1,2,2,3,3,4,4,5,5,6,6,7,7,8,8,9,9,10,10,11,11,12,12,13,13,15,15,16,16,17,17,18,18,19,19,20,20,21,21,22,22,23,23,24,24,25,25,26,26,27,27,28,28],"right_children":[2,4,6,8,10,12,14,16,18,20,22,24,26,28,-1,30,32,34,36,38,40,42,44,46,48,50,52,54,56,-1,-1,-1,-1,-1,-1,-1,-1,-1,-1,-1,-1,-1,-1,-1,-1,-1,-1,-1,-1,-1,-1,-1,-1,-1,-1,-1,-1],"split_conditions":[-1.00019646E2,1.36E1,1.4162747E2,1.7226989E3,4E0,9.8E0,3.2E0,2E0,4.8E0,2E0,1.1E1,3E0,7.3741546E0,8.8E0,2.0589907E-1,1.4E0,1E0,1.6E0,1.04E1,5.6E0,1.5387253E3,1.52E1,1.46E1,2.8E0,4E0,1.5786938E3,1.82E1,1E0,3.6E0,1.9916879E-2,-3.20136E-2,3.5661903E-1,2.8321454E-2,5.247813E-2,1.4557785E-1,-1.6075157E-2,6.665177E-2,-5.0195772E-2,1.9749202E-1,1.4345436E-1,3.025016E-2,1.2402313E-1,2.0559537E-1,1.8187068E-1,5.993702E-2,-2.6894853E-2,7.246294E-2,-1.984334E-1,5.6760977E-3,1.0353804E-1,2.3329746E-2,-1.5070947E-2,2.0058982E-1,-1.4521171E-1,-8.91302E-2,1.748332E-1,-6.760108E-2],"split_indices":[17,3,17,16,13,3,8,0,7,12,13,0,17,3,0,0,1,9,3,7,15,3,3,8,13,16,3,8,6,0,0,0,0,0,0,0,0,0,0,0,0,0,0,0,0,0,0,0,0,0,0,0,0,0,0,0,0],"split_type":[0,0,0,0,0,0,0,0,0,0,0,0,0,0,0,0,0,0,0,0,0,0,0,0,0,0,0,0,0,0,0,0,0,0,0,0,0,0,0,0,0,0,0,0,0,0,0,0,0,0,0,0,0,0,0,0,0],"sum_hessian":[6.093E3,1.469E3,4.624E3,9.52E2,5.17E2,3.542E3,1.082E3,3.54E2,5.98E2,1.51E2,3.66E2,1.69E3,1.852E3,1.078E3,4E0,3.35E2,1.9E1,2.16E2,3.82E2,2.7E1,1.24E2,2.28E2,1.38E2,1.672E3,1.8E1,9.57E2,8.95E2,3.61E2,7.17E2,2.65E2,7E1,4E0,1.5E1,6.6E1,1.5E2,6.7E1,3.15E2,4E0,2.3E1,2.6E1,9.8E1,1.02E2,1.26E2,3.6E1,1.02E2,1.638E3,3.4E1,1.4E1,4E0,7.5E1,8.82E2,8.88E2,7E0,1.03E2,2.58E2,6E0,7.11E2],"tree_param":{"num_deleted":"0","num_feature":"18","num_nodes":"57","size_leaf_vector":"1"}},{"base_weights":[6.0615246E-3,1.2826657E0,-5.660756E-1,3.6897966E-1,1.863641E0,-2.6754218E-1,-1.4668036E0,1.8749538E-1,1.7094203E0,1.9628042E0,-4.7453278E-1,-5.38128E-1,8.753807E-2,-1.6834447E0,-5.390506E-1,1.0220731E0,-4.27057E-2,1.0291066E0,3.1304812E0,9.774206E-1,2.164587E0,-1.9878216E0,8.5114084E-2,-3.8581467E-1,-1.0477233E0,7.9781324E-1,-2.2394742E-1,-2.1463392E0,-1.3318757E0,9.6808964E-1,-9.9257666E-1,4.4843513E-3,8.362698E-2,-2.078711E-2,3.0945439E-2,8.60325E-2,-1.3751115E-2,1.0539935E-1,3.2641482E-1,7.603325E-2,-2.534161E-3,1.4289293E-1,9.0637036E-2,-1.6150068E-1,8.073067E-2,7.6107666E-2,-7.1824454E-2,-9.57104E-2,-1.6607959E-2,-6.1488964E-2,1.1301788E-1,1.5945204E-2,6.7703694E-2,1.2098485E-1,-1.516075E-2,-1.1118604E-1,1.6408695E-2,-4.817414E-2,-9.5230006E-2,2.3858483E-1,2.0083373E-2,-6.2090497E-2,2.0978201E-2],"categories":[],"categories_nodes":[],"categories_segments":[],"categories_sizes":[],"default_left":[0,0,0,1,1,1,1,1,1,0,0,0,1,0,0,1,0,0,0,0,0,0,0,0,0,1,0,0,0,0,0,0,0,0,0,0,0,0,0,0,0,0,0,0,0,0,0,0,0,0,0,0,0,0,0,0,0,0,0,0,0,0,0],"id":14,"left_children":[1,3,5,7,9,11,13,15,17,19,21,23,25,27,29,31,33,35,37,39,41,43,45,47,49,51,53,55,57,59,61,-1,-1,-1,-1,-1,-1,-1,-1,-1,-1,-1,-1,-1,-1,-1,-1,-1,-1,-1,-1,-1,-1,-1,-1,-1,-1,-1,-1,-1,-1,-1,-1],"loss_changes":[4.479494E3,1.0068259E3,1.1383883E3,1.7945522E2,2.698899E2,3.057726E2,2.109353E2,1.2530635E2,8.185391E1,2.1918604E2,4.0820747E1,1.3977417E2,3.0482672E2,1.361211E2,1.383499E2,8.536447E1,1.2662215E2,5.5486763E1,8.3517334E1,1.0675282E2,2.199624E2,6.3389107E1,8.090429E1,1.1351752E2,2.5271597E2,1.11455475E2,2.0148761E2,7.100342E1,1.0112683E2,9.934241E1,5.5073654E1,0E0,0E0,0E0,0E0,0E0,0E0,0E0,0E0,0E0,0E0,0E0,0E0,0E0,0E0,0E0,0E0,0E0,0E0,0E0,0E0,0E0,0E0,0E0,0E0,0E0,0E0,0E0,0E0,0E0,0E0,0E0,0E0],"parents":[2147483647,0,0,1,1,2,2,3,3,4,4,5,5,6,6,7,7,8,8,9,9,10,10,11,11,12,12,13,13,14,14,15,15,16,16,17,17,18,18,19,19,20,20,21,21,22,22,23,23,24,24,25,25,26,26,27,27,28,28,29,29,30,30],"right_children":[2,4,6,8,10,12,14,16,18,20,22,24,26,28,30,32,34,36,38,40,42,44,46,48,50,52,54,56,58,60,62,-1,-1,-1,-1,-1,-1,-1,-1,-1,-1,-1,-1,-1,-1,-1,-1,-1,-1,-1,-1,-1,-1,-1,-1,-1,-1,-1,-1,-1,-1,-1,-1],"split_conditions":[-6.963883E1,1.7285226E3,1.438015E2,1.32E1,1.84E1,1.02E1,1.16E1,3.4E0,2E-1,1.1E1,1.7921302E3,1.6638239E3,1.2E1,1.2E0,1.7826749E3,8E0,2E-1,1.8E0,2E0,1.34E1,1.5842079E3,1.8E0,6E0,6E0,2.4E0,1.6E0,2.8E0,3.8E0,2.422038E2,3.4E0,1.6749747E3,4.4843513E-3,8.362698E-2,-2.078711E-2,3.0945439E-2,8.60325E-2,-1.3751115E-2,1.0539935E-1,3.2641482E-1,7.603325E-2,-2.534161E-3,1.4289293E-1,9.0637036E-2,-1.6150068E-1,8.073067E-2,7.6107666E-2,-7.1824454E-2,-9.57104E-2,-1.6607959E-2,-6.1488964E-2,1.1301788E-1,1.5945204E-2,6.7703694E-2,1.2098485E-1,-1.516075E-2,-1.1118604E-1,1.6408695E-2,-4.817414E-2,-9.5230006E-2,2.3858483E-1,2.0083373E-2,-6.2090497E-2,2.0978201E-2],"split_indices":[17,16,17,3,2,3,3,5,10,3,16,15,2,8,15,3,11,1,1,2,15,0,12,3,8,8,5,0,17,5,16,0,0,0,0,0,0,0,0,0,0,0,0,0,0,0,0,0,0,0,0,0,0,0,0,0,0,0,0,0,0,0,0],"split_type":[0,0,0,0,0,0,0,0,0,0,0,0,0,0,0,0,0,0,0,0,0,0,0,0,0,0,0,0,0,0,0,0,0,0,0,0,0,0,0,0,0,0,0,0,0,0,0,0,0,0,0,0,0,0,0,0,0,0,0,0,0,0,0],"sum_hessian":[6.131E3,1.897E3,4.234E3,7.38E2,1.159E3,3.181E3,1.053E3,6.51E2,8.7E1,1.112E3,4.7E1,1.805E3,1.376E3,8.53E2,2E2,1.4E2,5.11E2,6E1,2.7E1,1.9E2,9.22E2,1.2E1,3.5E1,1.391E3,4.14E2,4.19E2,9.57E2,3.66E2,4.87E2,4.6E1,1.54E2,5.8E1,8.2E1,3.27E2,1.84E2,3.9E1,2.1E1,2.2E1,5E0,1.24E2,6.6E1,3.08E2,6.14E2,9E0,3E0,1.8E1,1.7E1,4.6E1,1.345E3,3.93E2,2.1E1,2.26E2,1.93E2,2.7E1,9.3E2,3.55E2,1.1E1,2.98E2,1.89E2,5E0,4.1E1,1.31E2,2.3E1],"tree_param":{"num_deleted":"0","num_feature":"18","num_nodes":"63","size_leaf_vector":"1"}},{"base_weights":[-1.0069368E-2,-4.6854916E-1,1.1030163E0,-1.14374414E-1,-1.3352308E0,1.4785119E0,-2.6030588E-1,8.345743E-1,-1.988731E-1,-1.8972428E-1,-1.5055051E0,7.6737046E-1,1.8662E0,-4.1631E-1,1.4021714E0,1.362446E0,3.3296928E-1,-5.377449E-1,8.470887E-3,-3.3782098E-1,2.872275E-1,-1.522493E0,3.4533443E0,5.7497E-1,1.8412033E0,2.8614366E0,1.6116488E0,-1.3152787E-1,-1.1269501E0,-1.7062178E-1,1.8228698E0,4.786239E-2,1.6804172E-1,-4.2487796E-2,5.9793074E-2,-3.319081E-2,1.891208E-2,2.8103162E-2,-8.35529E-3,-2.640889E-2,9.203307E-2,-1.13557614E-1,-7.0284404E-2,2.3086925E-1,-9.694338E-4,9.363919E-2,1.904288E-2,1.5529524E-1,2.4627931E-2,-6.942373E-2,1.5329951E-1,1.12269476E-1,5.1714953E-2,2.8988886E-1,-8.92181E-3,-7.0468314E-2,3.5428047E-2,1.2887828E-1,-8.756451E-2],"categories":[],"categories_nodes":[],"categories_segments":[],"categories_sizes":[],"default_left":[0,0,0,0,0,0,0,0,1,0,0,0,0,0,0,0,0,1,0,0,0,0,0,1,0,0,1,0,0,0,0,0,0,0,0,0,0,0,0,0,0,0,0,0,0,0,0,0,0,0,0,0,0,0,0,0,0,0,0],"id":15,"left_children":[1,3,5,7,9,11,13,15,17,19,21,23,25,27,29,31,33,35,37,39,-1,41,43,45,47,49,51,53,55,-1,57,-1,-1,-1,-1,-1,-1,-1,-1,-1,-1,-1,-1,-1,-1,-1,-1,-1,-1,-1,-1,-1,-1,-1,-1,-1,-1,-1,-1],"loss_changes":[3.0874863E3,1.3151572E3,9.039265E2,2.4416869E2,2.4216211E2,3.8013818E2,9.965671E1,6.547734E1,1.9638972E2,1.4431375E2,9.640552E1,1.0017828E2,2.2212646E2,7.068393E1,7.306184E1,9.476178E1,1.3266898E2,1.227749E2,1.687323E2,6.690774E1,0E0,9.116284E1,1.6259132E1,1.04338104E2,1.2468703E2,1.6160645E2,2.5928894E2,7.0846115E1,5.2836426E1,0E0,8.8133575E1,0E0,0E0,0E0,0E0,0E0,0E0,0E0,0E0,0E0,0E0,0E0,0E0,0E0,0E0,0E0,0E0,0E0,0E0,0E0,0E0,0E0,0E0,0E0,0E0,0E0,0E0,0E0,0E0],"parents":[2147483647,0,0,1,1,2,2,3,3,4,4,5,5,6,6,7,7,8,8,9,9,10,10,11,11,12,12,13,13,14,14,15,15,16,16,17,17,18,18,19,19,21,21,22,22,23,23,24,24,25,25,26,26,27,27,28,28,30,30],"right_children":[2,4,6,8,10,12,14,16,18,20,22,24,26,28,30,32,34,36,38,40,-1,42,44,46,48,50,52,54,56,-1,58,-1,-1,-1,-1,-1,-1,-1,-1,-1,-1,-1,-1,-1,-1,-1,-1,-1,-1,-1,-1,-1,-1,-1,-1,-1,-1,-1,-1],"split_conditions":[1.6934443E3,1.6919899E3,1.7438698E3,4E0,5E0,1.18E1,1.14E1,1.5935977E3,8.8E0,9E0,3.2E0,1.846292E3,1.5553683E3,8.6E0,4.4E0,1.5814896E3,1.6208429E3,4.6E0,4.4E0,1.8E0,2.872275E-1,7.6E0,1.8E0,3.6E0,1.6E0,3.6E0,5.6E0,8.2E0,8.6E0,-1.7062178E-1,2.2E0,4.786239E-2,1.6804172E-1,-4.2487796E-2,5.9793074E-2,-3.319081E-2,1.891208E-2,2.8103162E-2,-8.35529E-3,-2.640889E-2,9.203307E-2,-1.13557614E-1,-7.0284404E-2,2.3086925E-1,-9.694338E-4,9.363919E-2,1.904288E-2,1.5529524E-1,2.4627931E-2,-6.942373E-2,1.5329951E-1,1.12269476E-1,5.1714953E-2,2.8988886E-1,-8.92181E-3,-7.0468314E-2,3.5428047E-2,1.2887828E-1,-8.756451E-2],"split_indices":[16,15,15,6,4,3,4,15,3,6,8,16,15,4,5,15,15,5,4,1,0,3,0,4,8,6,6,3,5,0,1,0,0,0,0,0,0,0,0,0,0,0,0,0,0,0,0,0,0,0,0,0,0,0,0,0,0,0,0],"split_type":[0,0,0,0,0,0,0,0,0,0,0,0,0,0,0,0,0,0,0,0,0,0,0,0,0,0,0,0,0,0,0,0,0,0,0,0,0,0,0,0,0,0,0,0,0,0,0,0,0,0,0,0,0,0,0,0,0,0,0],"sum_hessian":[6.048E3,4.284E3,1.764E3,3.042E3,1.242E3,1.383E3,3.81E2,2.48E2,2.794E3,1.61E2,1.081E3,4.89E2,8.94E2,3.49E2,3.2E1,1.2E2,1.28E2,1.06E3,1.734E3,1.58E2,3E0,1.078E3,3E0,4.16E2,7.3E1,1.8E2,7.14E2,2.5E2,9.9E1,2E0,3E1,1.01E2,1.9E1,5.4E1,7.4E1,9.32E2,1.28E2,4.17E2,1.317E3,1.46E2,1.2E1,1.43E2,9.35E2,2E0,1E0,5.3E1,3.63E2,3.7E1,3.6E1,8E0,1.72E2,3.39E2,3.75E2,1E0,2.49E2,8.6E1,1.3E1,2.5E1,5E0],"tree_param":{"num_deleted":"0","num_feature":"18","num_nodes":"59","size_leaf_vector":"1"}},{"base_weights":[-1.1273214E-2,1.0411818E0,-5.4127437E-1,4.2322657E-1,1.6569023E0,-2.746363E-1,-1.2927929E0,7.466765E-2,1.0510031E0,1.7763317E0,-1.8358551E-1,-5.4752684E-1,8.2189426E-2,-1.822672E0,-1.0168916E0,1.6843131E-1,-1.6428521E0,2.355388E0,8.2533294E-1,1.4509789E0,2.470425E0,-4.9593833E-1,4.5476027E0,-6.236473E-1,2.683756E-1,3.5643226E-1,-4.364844E-1,3.6520725E-1,-1.9318556E0,-4.4768465E-1,-1.3600037E0,-1.0675987E-1,1.163883E-2,-1.0879173E-1,3.6188602E-2,7.8466825E-2,2.2165039E-1,3.6758784E-2,2.3178546E-1,9.581276E-2,4.209223E-2,2.606625E-1,1.0866394E-1,-6.957308E-2,2.5466328E-2,3.175895E-1,9.144721E-2,-6.0519107E-2,-2.4509234E-2,8.284354E-3,3.763881E-1,1.42869E-1,1.3687508E-2,-2.5549972E-2,1.8628588E-1,2.0077685E-1,-4.8228405E-2,-1.0115123E-1,1.8081369E-2,-3.109766E-2,6.604577E-2,-8.0102675E-2,-2.9200912E-2],"categories":[],"categories_nodes":[],"categories_segments":[],"categories_sizes":[],"default_left":[0,0,0,0,0,1,1,1,1,0,0,1,1,0,0,0,0,0,1,0,0,0,0,0,1,0,0,0,0,0,0,0,0,0,0,0,0,0,0,0,0,0,0,0,0,0,0,0,0,0,0,0,0,0,0,0,0,0,0,0,0,0,0],"id":16,"left_children":[1,3,5,7,9,11,13,15,17,19,21,23,25,27,29,31,33,35,37,39,41,43,45,47,49,51,53,55,57,59,61,-1,-1,-1,-1,-1,-1,-1,-1,-1,-1,-1,-1,-1,-1,-1,-1,-1,-1,-1,-1,-1,-1,-1,-1,-1,-1,-1,-1,-1,-1,-1,-1],"loss_changes":[3.389213E3,7.735913E2,8.093944E2,2.2245853E2,2.2431055E2,2.906101E2,1.5282007E2,1.0575852E2,1.04908966E2,2.1253027E2,9.535673E1,1.0519003E2,1.8421748E2,8.694141E1,1.3571185E2,9.269465E1,4.4461372E1,7.959827E1,1.0343074E2,1.8374072E2,2.3643616E2,5.472299E1,8.0028E0,1.2054785E2,1.0684382E2,1.7436353E2,1.4084952E2,9.124738E1,7.265991E1,8.218933E1,8.0769165E1,0E0,0E0,0E0,0E0,0E0,0E0,0E0,0E0,0E0,0E0,0E0,0E0,0E0,0E0,0E0,0E0,0E0,0E0,0E0,0E0,0E0,0E0,0E0,0E0,0E0,0E0,0E0,0E0,0E0,0E0,0E0,0E0],"parents":[2147483647,0,0,1,1,2,2,3,3,4,4,5,5,6,6,7,7,8,8,9,9,10,10,11,11,12,12,13,13,14,14,15,15,16,16,17,17,18,18,19,19,20,20,21,21,22,22,23,23,24,24,25,25,26,26,27,27,28,28,29,29,30,30],"right_children":[2,4,6,8,10,12,14,16,18,20,22,24,26,28,30,32,34,36,38,40,42,44,46,48,50,52,54,56,58,60,62,-1,-1,-1,-1,-1,-1,-1,-1,-1,-1,-1,-1,-1,-1,-1,-1,-1,-1,-1,-1,-1,-1,-1,-1,-1,-1,-1,-1,-1,-1,-1,-1],"split_conditions":[-5.9843513E1,1.7534685E3,1.438015E2,1.14E1,1.7511367E3,1.02E1,8.8E0,8.2E0,4.2E0,1.48E1,-6.323962E1,4E-1,6.8E0,1.6541707E3,1.7988516E3,1.3863983E3,1.7433018E3,1.5743822E3,2.4E0,6E0,1.5280535E3,2.2E0,1.8E0,4E0,1.12E1,1.5311304E3,1.76E1,5E0,1.6622434E3,9.2E0,6E0,-1.0675987E-1,1.163883E-2,-1.0879173E-1,3.6188602E-2,7.8466825E-2,2.2165039E-1,3.6758784E-2,2.3178546E-1,9.581276E-2,4.209223E-2,2.606625E-1,1.0866394E-1,-6.957308E-2,2.5466328E-2,3.175895E-1,9.144721E-2,-6.0519107E-2,-2.4509234E-2,8.284354E-3,3.763881E-1,1.42869E-1,1.3687508E-2,-2.5549972E-2,1.8628588E-1,2.0077685E-1,-4.8228405E-2,-1.0115123E-1,1.8081369E-2,-3.109766E-2,6.604577E-2,-8.0102675E-2,-2.9200912E-2],"split_indices":[17,16,17,3,15,3,3,6,7,3,17,11,6,15,15,15,16,15,0,6,15,0,0,12,6,15,3,6,16,6,12,0,0,0,0,0,0,0,0,0,0,0,0,0,0,0,0,0,0,0,0,0,0,0,0,0,0,0,0,0,0,0,0],"split_type":[0,0,0,0,0,0,0,0,0,0,0,0,0,0,0,0,0,0,0,0,0,0,0,0,0,0,0,0,0,0,0,0,0,0,0,0,0,0,0,0,0,0,0,0,0,0,0,0,0,0,0,0,0,0,0,0,0,0,0,0,0,0,0],"sum_hessian":[6.074E3,2.034E3,4.04E3,1.016E3,1.018E3,2.983E3,1.057E3,6.54E2,3.62E2,9.56E2,6.2E1,1.69E3,1.293E3,3.6E2,6.97E2,6.21E2,3.3E1,5.2E1,3.1E2,6.53E2,3.03E2,5.9E1,3E0,1.546E3,1.44E2,8.46E2,4.47E2,1.7E1,3.43E2,2.63E2,4.34E2,1.6E1,6.05E2,2.7E1,6E0,3.9E1,1.3E1,3.04E2,6E0,3.69E2,2.84E2,2.8E1,2.75E2,3.1E1,2.8E1,1E0,2E0,2.85E2,1.261E3,1.43E2,1E0,2.6E1,8.2E2,4.4E2,7E0,4E0,1.3E1,3.3E2,1.3E1,2.4E2,2.3E1,3.3E2,1.04E2],"tree_param":{"num_deleted":"0","num_feature":"18","num_nodes":"63","size_leaf_vector":"1"}},{"base_weights":[5.65617E-2,-3.8477418E-1,1.2405266E0,-6.629536E-2,-1.1712259E0,1.5691411E0,-6.4745404E-2,6.629797E-1,-1.5088947E-1,-6.8489164E-2,-1.3228898E0,9.122803E-1,1.8084191E0,6.916728E-2,-1.8551959E0,-2.0437026E0,7.6430845E-1,3.36006E-2,-4.8683274E-1,-6.4938784E-1,1.4960356E0,-1.1873016E0,-2.2333634E0,4.5690867E-1,1.556071E0,2.2204494E0,1.323315E0,5.635211E-1,-4.5530888E-1,-2.2103078E0,1.4893177E-1,-2.0154381E-1,-4.667182E-2,3.4340005E-2,2.7084836E-1,3.725782E-3,-7.3451124E-2,-2.7674356E-2,7.997286E-2,-1.23941E-1,-6.4102956E-3,-2.8965345E-2,1.4652203E-1,-5.604884E-2,-1.3130373E-1,-1.1781516E-1,1.3139376E-1,-1.21942654E-1,3.3980023E-2,1.5943246E-1,5.327649E-2,1.0771896E-1,3.7386736E-1,6.377747E-2,3.9439207E-1,3.519422E-2,-9.270378E-2,-9.606219E-2,-8.041762E-3,-1.8954055E-1,-6.100096E-2],"categories":[],"categories_nodes":[],"categories_segments":[],"categories_sizes":[],"default_left":[0,0,0,0,0,0,0,0,0,0,1,0,1,0,0,0,1,1,1,0,0,0,0,0,0,1,0,0,0,0,0,0,0,0,0,0,0,0,0,0,0,0,0,0,0,0,0,0,0,0,0,0,0,0,0,0,0,0,0,0,0],"id":17,"left_children":[1,3,5,7,9,11,13,15,17,19,21,23,25,27,29,31,33,35,37,39,41,43,45,47,49,51,53,55,57,59,-1,-1,-1,-1,-1,-1,-1,-1,-1,-1,-1,-1,-1,-1,-1,-1,-1,-1,-1,-1,-1,-1,-1,-1,-1,-1,-1,-1,-1,-1,-1],"loss_changes":[3.148175E3,1.0992273E3,7.0183325E2,1.9288873E2,2.1147498E2,2.0377441E2,7.925044E1,9.069801E1,1.736173E2,1.4093137E2,1.3462415E2,1.02189575E2,1.8834448E2,8.011384E1,4.60644E1,2.2712925E1,1.0951431E2,1.11326584E2,1.3897223E2,1.0742397E2,1.2672668E2,8.961987E1,9.16546E1,1.3514397E2,1.1272522E2,1.631101E2,1.2853174E2,5.526039E1,6.444287E1,2.9808533E1,0E0,0E0,0E0,0E0,0E0,0E0,0E0,0E0,0E0,0E0,0E0,0E0,0E0,0E0,0E0,0E0,0E0,0E0,0E0,0E0,0E0,0E0,0E0,0E0,0E0,0E0,0E0,0E0,0E0,0E0,0E0],"parents":[2147483647,0,0,1,1,2,2,3,3,4,4,5,5,6,6,7,7,8,8,9,9,10,10,11,11,12,12,13,13,14,14,15,15,16,16,17,17,18,18,19,19,20,20,21,21,22,22,23,23,24,24,25,25,26,26,27,27,28,28,29,29],"right_children":[2,4,6,8,10,12,14,16,18,20,22,24,26,28,30,32,34,36,38,40,42,44,46,48,50,52,54,56,58,60,-1,-1,-1,-1,-1,-1,-1,-1,-1,-1,-1,-1,-1,-1,-1,-1,-1,-1,-1,-1,-1,-1,-1,-1,-1,-1,-1,-1,-1,-1,-1],"split_conditions":[1.7038906E3,1.6919899E3,1.7438698E3,4.2E0,5E0,1.7534685E3,1.9259579E3,2E0,2.1966974E1,5.2E0,2.6E0,6E0,5.4E0,7.6E0,1.9471487E3,1.5720876E3,6E-1,8.8E0,2.6E0,3E0,1.6E0,1.9259579E3,1.28E1,2E0,1.553158E3,2.4E0,1E1,4E-1,3E0,1.438015E2,1.4893177E-1,-2.0154381E-1,-4.667182E-2,3.4340005E-2,2.7084836E-1,3.725782E-3,-7.3451124E-2,-2.7674356E-2,7.997286E-2,-1.23941E-1,-6.4102956E-3,-2.8965345E-2,1.4652203E-1,-5.604884E-2,-1.3130373E-1,-1.1781516E-1,1.3139376E-1,-1.21942654E-1,3.3980023E-2,1.5943246E-1,5.327649E-2,1.0771896E-1,3.7386736E-1,6.377747E-2,3.9439207E-1,3.519422E-2,-9.270378E-2,-9.606219E-2,-8.041762E-3,-1.8954055E-1,-6.100096E-2],"split_indices":[16,15,15,6,4,16,15,5,17,7,9,5,4,4,16,15,11,6,0,12,0,15,4,13,15,0,7,11,12,17,0,0,0,0,0,0,0,0,0,0,0,0,0,0,0,0,0,0,0,0,0,0,0,0,0,0,0,0,0,0,0],"split_type":[0,0,0,0,0,0,0,0,0,0,0,0,0,0,0,0,0,0,0,0,0,0,0,0,0,0,0,0,0,0,0,0,0,0,0,0,0,0,0,0,0,0,0,0,0,0,0,0,0,0,0,0,0,0,0,0,0,0,0,0,0],"sum_hessian":[6.023E3,4.388E3,1.635E3,3.124E3,1.264E3,1.306E3,3.29E2,3.24E2,2.8E3,1.53E2,1.111E3,3.5E2,9.56E2,3.07E2,2.2E1,1.1E1,3.13E2,1.808E3,9.92E2,1.12E2,4.1E1,9.69E2,1.42E2,2.06E2,1.44E2,5.15E2,4.41E2,1.58E2,1.49E2,2.1E1,1E0,3E0,8E0,3.09E2,4E0,1.761E3,4.7E1,9.62E2,3E1,2.4E1,8.8E1,1.7E1,2.4E1,9.28E2,4.1E1,1.39E2,3E0,1.4E1,1.92E2,3.2E1,1.12E2,5.1E2,5E0,4.39E2,2E0,1.5E2,8E0,2.4E1,1.25E2,7E0,1.4E1],"tree_param":{"num_deleted":"0","num_feature":"18","num_nodes":"61","size_leaf_vector":"1"}},{"base_weights":[2.3040289E-2,1.0286235E0,-4.4194844E-1,4.8222497E-1,1.5922898E0,-8.263711E-2,-8.9487267E-1,1.5500061E-1,1.0118117E0,1.7004694E0,-9.8659813E-1,-4.6800202E-1,2.8602794E-1,-1.5205763E-1,-1.1551802E0,4.0358796E0,9.672334E-2,1.7149566E0,4.4782603E-1,2.1242537E0,1.4153683E0,1.4780412E0,-1.5719267E0,-5.196363E-1,2.1866179E0,1.3530455E0,1.6344716E-1,-2.3131691E-1,3.612112E0,-1.6602993E-1,-1.2719371E0,3.1569356E-1,-1.9503856E-2,1.8174708E-2,-2.9166332E-2,1.3010634E-1,3.7044886E-2,-3.4886354E-3,1.17361926E-1,9.198342E-2,1.7191981E-1,6.702426E-2,1.9984172E-1,-1.6536896E-1,1.3170777E-1,-1.5231963E-1,-2.6746383E-2,3.931526E-2,-3.0696807E-2,3.9847815E-1,8.4769865E-4,1.4176132E-1,2.6046652E-2,5.905964E-3,1.6763493E-1,-2.1095706E-2,4.550311E-2,-6.9287226E-2,2.517397E-1,3.5763443E-2,-5.937251E-2,-2.194631E-1,-6.187681E-2],"categories":[],"categories_nodes":[],"categories_segments":[],"categories_sizes":[],"default_left":[0,1,0,0,1,1,0,0,0,0,0,0,0,0,0,0,0,0,0,0,0,0,0,0,0,0,0,0,0,0,0,0,0,0,0,0,0,0,0,0,0,0,0,0,0,0,0,0,0,0,0,0,0,0,0,0,0,0,0,0,0,0,0],"id":18,"left_children":[1,3,5,7,9,11,13,15,17,19,21,23,25,27,29,31,33,35,37,39,41,43,45,47,49,51,53,55,57,59,61,-1,-1,-1,-1,-1,-1,-1,-1,-1,-1,-1,-1,-1,-1,-1,-1,-1,-1,-1,-1,-1,-1,-1,-1,-1,-1,-1,-1,-1,-1,-1,-1],"loss_changes":[2.8644116E3,5.9580176E2,6.816472E2,1.7053745E2,2.6754858E2,3.321528E2,3.581211E2,1.3757152E2,1.483399E2,1.07545166E2,5.8585705E1,1.5780649E2,1.560799E2,1.4463802E2,1.5824146E2,9.320352E1,1.0942536E2,1.4238614E2,2.0662181E2,1.305531E2,1.00961914E2,5.297209E1,4.7299034E1,1.386571E2,2.758999E2,1.50224E2,1.54719E2,1.0328212E2,7.808055E1,1.322751E2,1.2615015E2,0E0,0E0,0E0,0E0,0E0,0E0,0E0,0E0,0E0,0E0,0E0,0E0,0E0,0E0,0E0,0E0,0E0,0E0,0E0,0E0,0E0,0E0,0E0,0E0,0E0,0E0,0E0,0E0,0E0,0E0,0E0,0E0],"parents":[2147483647,0,0,1,1,2,2,3,3,4,4,5,5,6,6,7,7,8,8,9,9,10,10,11,11,12,12,13,13,14,14,15,15,16,16,17,17,18,18,19,19,20,20,21,21,22,22,23,23,24,24,25,25,26,26,27,27,28,28,29,29,30,30],"right_children":[2,4,6,8,10,12,14,16,18,20,22,24,26,28,30,32,34,36,38,40,42,44,46,48,50,52,54,56,58,60,62,-1,-1,-1,-1,-1,-1,-1,-1,-1,-1,-1,-1,-1,-1,-1,-1,-1,-1,-1,-1,-1,-1,-1,-1,-1,-1,-1,-1,-1,-1,-1,-1],"split_conditions":[-6.64489E1,1.22E1,6.84232E1,1.7226989E3,1.82E1,9.8E0,5.6E0,2.4E0,4.8E0,-2.19893E2,5.4E0,6.467077E1,1.5590085E3,9.2E0,1.6479332E3,1.04E1,1.1E1,1.8019275E3,1.6541707E3,1.7E1,1.08E1,1.6029446E3,5E0,4E-1,5.4E0,4.8E0,9.4E0,1.24E1,1E1,6.4E0,5.2E0,3.1569356E-1,-1.9503856E-2,1.8174708E-2,-2.9166332E-2,1.3010634E-1,3.7044886E-2,-3.4886354E-3,1.17361926E-1,9.198342E-2,1.7191981E-1,6.702426E-2,1.9984172E-1,-1.6536896E-1,1.3170777E-1,-1.5231963E-1,-2.6746383E-2,3.931526E-2,-3.0696807E-2,3.9847815E-1,8.4769865E-4,1.4176132E-1,2.6046652E-2,5.905964E-3,1.6763493E-1,-2.1095706E-2,4.550311E-2,-6.9287226E-2,2.517397E-1,3.5763443E-2,-5.937251E-2,-2.194631E-1,-6.187681E-2],"split_indices":[17,3,17,16,2,3,4,4,7,17,4,17,15,6,15,3,13,16,15,3,4,15,13,1,4,4,5,3,3,6,3,0,0,0,0,0,0,0,0,0,0,0,0,0,0,0,0,0,0,0,0,0,0,0,0,0,0,0,0,0,0,0,0],"split_type":[0,0,0,0,0,0,0,0,0,0,0,0,0,0,0,0,0,0,0,0,0,0,0,0,0,0,0,0,0,0,0,0,0,0,0,0,0,0,0,0,0,0,0,0,0,0,0,0,0,0,0,0,0,0,0,0,0,0,0,0,0,0,0],"sum_hessian":[6.124E3,1.936E3,4.188E3,9.84E2,9.52E2,2.336E3,1.852E3,6.09E2,3.75E2,9.14E2,3.8E1,1.142E3,1.194E3,4.81E2,1.371E3,8E0,6.01E2,1.66E2,2.09E2,3.65E2,5.49E2,7E0,3.1E1,1.121E3,2.1E1,1.22E2,1.072E3,4.72E2,9E0,1.45E2,1.226E3,5E0,3E0,4.32E2,1.69E2,8.6E1,8E1,1.65E2,4.4E1,3.02E2,6.3E1,5.35E2,1.4E1,1E0,6E0,1.2E1,1.9E1,7.5E1,1.046E3,5E0,1.6E1,4.3E1,7.9E1,1.058E3,1.4E1,4.05E2,6.7E1,2E0,7E0,7.8E1,6.7E1,1.2E1,1.214E3],"tree_param":{"num_deleted":"0","num_feature":"18","num_nodes":"63","size_leaf_vector":"1"}},{"base_weights":[3.2271612E-2,9.2639107E-1,-4.5274457E-1,2.5575086E-1,1.3881847E0,-1.2520958E-1,-9.307234E-1,1.7122029E-1,1.553972E0,2.032806E0,9.753311E-1,-1.4528811E-1,2.9819245E0,-3.731954E-2,-1.1143731E0,6.595451E-1,-1.0895667E-1,2.4588587E0,-2.124582E0,1.914126E0,5.9396753E0,1.4581102E0,5.522899E-1,-7.123371E-2,-9.1539484E-1,1.1099193E0,2.4813996E-1,-3.2705295E0,9.805167E-2,-1.585043E0,-8.8360333E-1,7.89668E-2,1.9620487E-3,-4.547203E-2,5.7762605E-3,-2.0274302E-2,1.6144969E-1,7.878747E-2,-1.5609805E-1,8.931957E-2,2.539607E-1,3.5483024E-1,-3.3396546E-2,4.753636E-2,1.2431593E-1,3.7619695E-2,-5.0885905E-2,-6.9725513E-3,4.8950955E-2,-1.02862634E-1,-2.6935885E-2,2.5753102E-3,1.21002965E-1,-2.3353279E-1,-6.626573E-2,-1.11511074E-1,1.1895766E-2,1.1678531E-3,-8.4170654E-2,-3.983375E-2,-1.0819941E-1],"categories":[],"categories_nodes":[],"categories_segments":[],"categories_sizes":[],"default_left":[0,1,0,0,0,1,0,0,0,0,1,1,0,0,0,0,0,0,0,0,0,0,0,1,0,0,0,0,0,0,0,0,0,0,0,0,0,0,0,0,0,0,0,0,0,0,0,0,0,0,0,0,0,0,0,0,0,0,0,0,0],"id":19,"left_children":[1,3,5,7,9,11,13,15,17,19,21,23,25,27,29,31,33,35,37,39,41,43,45,47,49,51,-1,53,55,57,59,-1,-1,-1,-1,-1,-1,-1,-1,-1,-1,-1,-1,-1,-1,-1,-1,-1,-1,-1,-1,-1,-1,-1,-1,-1,-1,-1,-1,-1,-1],"loss_changes":[2.6240771E3,6.5868115E2,6.140477E2,9.509745E1,3.333462E2,1.4573184E2,2.6165552E2,1.1185164E2,1.8164378E2,2.1629126E2,1.56456E2,1.3195877E2,5.0114822E1,1.1980829E2,1.4229895E2,1.6996196E2,9.354601E1,9.61644E1,4.551639E1,1.8417798E2,1.1176343E2,1.849248E2,1.3020169E2,1.5152332E2,8.620441E1,1.2355374E1,0E0,2.376892E1,8.617412E1,6.8706055E1,9.733453E1,0E0,0E0,0E0,0E0,0E0,0E0,0E0,0E0,0E0,0E0,0E0,0E0,0E0,0E0,0E0,0E0,0E0,0E0,0E0,0E0,0E0,0E0,0E0,0E0,0E0,0E0,0E0,0E0,0E0,0E0],"parents":[2147483647,0,0,1,1,2,2,3,3,4,4,5,5,6,6,7,7,8,8,9,9,10,10,11,11,12,12,13,13,14,14,15,15,16,16,17,17,18,18,19,19,20,20,21,21,22,22,23,23,24,24,25,25,27,27,28,28,29,29,30,30],"right_children":[2,4,6,8,10,12,14,16,18,20,22,24,26,28,30,32,34,36,38,40,42,44,46,48,50,52,-1,54,56,58,60,-1,-1,-1,-1,-1,-1,-1,-1,-1,-1,-1,-1,-1,-1,-1,-1,-1,-1,-1,-1,-1,-1,-1,-1,-1,-1,-1,-1,-1,-1],"split_conditions":[-5.1927097E1,1.12E1,8.911959E1,1.846292E3,-2.0511414E2,1.78E1,5E0,1E0,9E0,3E0,5.4E0,8.2E0,7.8E0,9.1438034E1,8.8E0,5.4E0,1.633548E3,9.8E0,1E0,8.8E0,6E0,1.8E0,1.8E1,1.7E1,4E0,1.94E1,2.4813996E-1,9.2E0,1.6018523E3,1.6139604E3,1.9259579E3,7.89668E-2,1.9620487E-3,-4.547203E-2,5.7762605E-3,-2.0274302E-2,1.6144969E-1,7.878747E-2,-1.5609805E-1,8.931957E-2,2.539607E-1,3.5483024E-1,-3.3396546E-2,4.753636E-2,1.2431593E-1,3.7619695E-2,-5.0885905E-2,-6.9725513E-3,4.8950955E-2,-1.02862634E-1,-2.6935885E-2,2.5753102E-3,1.21002965E-1,-2.3353279E-1,-6.626573E-2,-1.11511074E-1,1.1895766E-2,1.1678531E-3,-8.4170654E-2,-3.983375E-2,-1.0819941E-1],"split_indices":[17,3,17,16,17,3,4,1,4,9,4,6,4,17,3,6,16,3,0,7,7,1,2,2,13,2,0,3,15,15,15,0,0,0,0,0,0,0,0,0,0,0,0,0,0,0,0,0,0,0,0,0,0,0,0,0,0,0,0,0,0],"split_type":[0,0,0,0,0,0,0,0,0,0,0,0,0,0,0,0,0,0,0,0,0,0,0,0,0,0,0,0,0,0,0,0,0,0,0,0,0,0,0,0,0,0,0,0,0,0,0,0,0,0,0,0,0,0,0,0,0,0,0,0,0],"sum_hessian":[6.049E3,2.127E3,3.922E3,8.68E2,1.259E3,2.328E3,1.594E3,8.16E2,5.2E1,4.9E2,7.69E2,2.314E3,1.4E1,2.72E2,1.322E3,2.97E2,5.19E2,4.2E1,1E1,4.77E2,1.3E1,3.58E2,4.11E2,2.112E3,2.02E2,8E0,6E0,1E1,2.62E2,4.33E2,8.89E2,1.19E2,1.78E2,1.13E2,4.06E2,9E0,3.3E1,2E0,8E0,4.6E2,1.7E1,1.1E1,2E0,2.41E2,1.17E2,3.65E2,4.6E1,1.984E3,1.28E2,4.9E1,1.53E2,5E0,3E0,5E0,5E0,1.4E1,2.48E2,2.5E1,4.08E2,8.34E2,5.5E1],"tree_param":{"num_deleted":"0","num_feature":"18","num_nodes":"61","size_leaf_vector":"1"}},{"base_weights":[-3.1036671E-2,4.9959934E-1,-7.328994E-1,2.7578078E-2,1.0313716E0,-9.819045E-1,-3.092184E-1,1.1994443E0,-3.675171E-2,1.7456985E0,7.454904E-1,-1.1853743E0,-4.2128214E-1,5.869472E-1,-5.04335E-1,3.4656203E0,8.300499E-1,-8.176525E-2,1.9708716E0,2.2347703E0,1.1481706E0,1.055768E0,3.3360922E-1,-5.695701E-1,-1.4167947E0,1.4373856E0,-5.420655E-1,-4.9809468E-1,1.2608805E0,-1.1699502E0,-1.8115985E-1,6.2820846E-3,3.155255E-1,1.9741708E-1,1.9872112E-2,-7.806085E-3,3.6290403E-2,2.0489852E-1,-7.819391E-2,1.00044206E-1,2.1438888E-1,2.2672132E-2,1.3120902E-1,4.9073707E-2,1.6920482E-1,6.402986E-2,8.416294E-3,-6.8239294E-2,-8.828038E-3,-7.925924E-2,-4.096293E-2,1.5966989E-1,1.0829514E-2,-1.3420466E-1,-2.3830658E-2,2.780299E-1,-4.344901E-2,2.706029E-1,4.580887E-2,-2.9068608E-2,-8.002846E-2,-2.3181953E-2,2.3034515E-2],"categories":[],"categories_nodes":[],"categories_segments":[],"categories_sizes":[],"default_left":[0,1,0,0,0,1,0,0,0,0,1,0,0,0,0,0,0,1,0,0,0,0,0,0,0,0,0,0,0,0,0,0,0,0,0,0,0,0,0,0,0,0,0,0,0,0,0,0,0,0,0,0,0,0,0,0,0,0,0,0,0,0,0],"id":20,"left_children":[1,3,5,7,9,11,13,15,17,19,21,23,25,27,29,31,33,35,37,39,41,43,45,47,49,51,53,55,57,59,61,-1,-1,-1,-1,-1,-1,-1,-1,-1,-1,-1,-1,-1,-1,-1,-1,-1,-1,-1,-1,-1,-1,-1,-1,-1,-1,-1,-1,-1,-1,-1,-1],"loss_changes":[2.2517278E3,8.641914E2,2.7430945E2,1.3762335E2,3.2931897E2,1.8646082E2,1.6903278E2,7.664908E1,1.5659201E2,1.3244629E2,1.4763727E2,1.7048962E2,9.910847E1,1.2713356E2,1.703705E2,1.22731476E2,1.103975E2,1.018351E2,2.921217E2,1.1290381E2,2.1414938E2,1.1084558E2,7.788859E1,1.0289303E2,8.654175E1,5.718909E1,5.648343E1,1.5538647E2,1.4815042E2,6.4713776E1,9.721409E1,0E0,0E0,0E0,0E0,0E0,0E0,0E0,0E0,0E0,0E0,0E0,0E0,0E0,0E0,0E0,0E0,0E0,0E0,0E0,0E0,0E0,0E0,0E0,0E0,0E0,0E0,0E0,0E0,0E0,0E0,0E0,0E0],"parents":[2147483647,0,0,1,1,2,2,3,3,4,4,5,5,6,6,7,7,8,8,9,9,10,10,11,11,12,12,13,13,14,14,15,15,16,16,17,17,18,18,19,19,20,20,21,21,22,22,23,23,24,24,25,25,26,26,27,27,28,28,29,29,30,30],"right_children":[2,4,6,8,10,12,14,16,18,20,22,24,26,28,30,32,34,36,38,40,42,44,46,48,50,52,54,56,58,60,62,-1,-1,-1,-1,-1,-1,-1,-1,-1,-1,-1,-1,-1,-1,-1,-1,-1,-1,-1,-1,-1,-1,-1,-1,-1,-1,-1,-1,-1,-1,-1,-1],"split_conditions":[2.0946987E1,1.12E1,1.6E0,3E0,-2.0823549E2,1.12E1,4.4E0,2E0,1.8541416E3,1.5842079E3,6.2E0,1.6479332E3,4.2E0,6.297044E1,5E0,2.8E0,3.6E0,4E-1,7E0,1.5778696E3,1.56E1,1.8717834E3,4.4E0,8E0,6E0,6.84232E1,4.4E0,2E0,6.613567E1,1.6796014E3,1.6114323E3,6.2820846E-3,3.155255E-1,1.9741708E-1,1.9872112E-2,-7.806085E-3,3.6290403E-2,2.0489852E-1,-7.819391E-2,1.00044206E-1,2.1438888E-1,2.2672132E-2,1.3120902E-1,4.9073707E-2,1.6920482E-1,6.402986E-2,8.416294E-3,-6.8239294E-2,-8.828038E-3,-7.925924E-2,-4.096293E-2,1.5966989E-1,1.0829514E-2,-1.3420466E-1,-2.3830658E-2,2.780299E-1,-4.344901E-2,2.706029E-1,4.580887E-2,-2.9068608E-2,-8.002846E-2,-2.3181953E-2,2.3034515E-2],"split_indices":[17,3,8,4,17,3,4,13,16,15,6,15,6,17,13,4,6,11,4,15,3,16,4,3,12,17,6,4,17,15,16,0,0,0,0,0,0,0,0,0,0,0,0,0,0,0,0,0,0,0,0,0,0,0,0,0,0,0,0,0,0,0,0],"split_type":[0,0,0,0,0,0,0,0,0,0,0,0,0,0,0,0,0,0,0,0,0,0,0,0,0,0,0,0,0,0,0,0,0,0,0,0,0,0,0,0,0,0,0,0,0,0,0,0,0,0,0,0,0,0,0,0,0,0,0,0,0,0,0],"sum_hessian":[6.044E3,3.442E3,2.602E3,1.824E3,1.618E3,1.638E3,9.64E2,9.4E1,1.73E3,4.61E2,1.157E3,1.201E3,4.37E2,1.72E2,7.92E2,1.2E1,8.2E1,1.693E3,3.7E1,2.52E2,2.09E2,6.59E2,4.98E2,3.29E2,8.72E2,2.6E1,4.11E2,6.6E1,1.06E2,2.58E2,5.34E2,6E0,6E0,9E0,7.3E1,1.551E3,1.42E2,2.3E1,1.4E1,2.28E2,2.4E1,1.43E2,6.6E1,6.4E2,1.9E1,7.3E1,4.25E2,1.08E2,2.21E2,6.79E2,1.93E2,1E1,1.6E1,1.1E1,4E2,3E0,6.3E1,7E0,9.9E1,1.1E2,1.48E2,3.71E2,1.63E2],"tree_param":{"num_deleted":"0","num_feature":"18","num_nodes":"63","size_leaf_vector":"1"}},{"base_weights":[2.6086962E-2,-3.3143476E-1,8.961633E-1,-1.02549404E-1,-1.0695792E0,6.7999053E-1,1.8128738E0,-3.5844558E-1,1.9915318E-1,-2.9673321E0,-1.0088288E0,8.889587E-1,-7.407834E-2,2.3531172E0,7.401799E-1,-2.463082E-1,-9.794648E-1,5.092758E-1,-4.896055E-2,8.7013084E-1,-3.2619894E0,-1.0269958E0,2.760938E0,7.9907365E-2,1.1097692E0,-1.9067045E-1,2.239384E0,1.1720824E0,3.3570712E0,-3.8707277E-1,1.6268941E0,-1.367476E-2,1.0066614E-1,-3.114121E-2,-8.697074E-2,1.1715605E-2,6.2187146E-2,1.0448035E-2,-3.3651773E-2,8.043685E-2,-1.5177036E-2,-1.724095E-1,4.879074E-2,-3.20253E-2,-5.9762668E-2,1.7102776E-1,3.0617E-3,1.20905235E-1,-8.30108E-3,9.2426315E-2,3.9047953E-2,1.9805817E-2,-3.920492E-2,-1.5832552E-1,1.6573189E-1,2.6030792E-2,1.5532292E-1,1.7563152E-1,-1.9403069E-1,7.055058E-2,-5.1966943E-2,1.1664259E-1,-5.3050764E-2],"categories":[],"categories_nodes":[],"categories_segments":[],"categories_sizes":[],"default_left":[0,0,0,1,1,0,0,1,0,0,0,0,0,0,0,1,0,0,0,0,0,0,0,0,0,0,0,0,0,0,0,0,0,0,0,0,0,0,0,0,0,0,0,0,0,0,0,0,0,0,0,0,0,0,0,0,0,0,0,0,0,0,0],"id":21,"left_children":[1,3,5,7,9,11,13,15,17,19,21,23,25,27,29,31,33,35,37,39,41,43,45,47,49,51,53,55,57,59,61,-1,-1,-1,-1,-1,-1,-1,-1,-1,-1,-1,-1,-1,-1,-1,-1,-1,-1,-1,-1,-1,-1,-1,-1,-1,-1,-1,-1,-1,-1,-1,-1],"loss_changes":[1.8841442E3,7.2519446E2,3.4833533E2,2.5314787E2,1.141405E2,2.2524255E2,1.9297559E2,1.2329918E2,1.15828186E2,3.7891144E1,7.036206E1,1.9981732E2,8.431346E1,2.604773E2,1.1457854E2,9.294519E1,7.236551E1,1.3481432E2,1.3486597E2,3.08896E0,2.6248169E1,6.309375E1,8.694408E0,1.3898378E2,2.1207495E2,1.0373066E2,9.7686455E1,1.294416E2,1.487378E2,6.1280815E1,1.23918396E2,0E0,0E0,0E0,0E0,0E0,0E0,0E0,0E0,0E0,0E0,0E0,0E0,0E0,0E0,0E0,0E0,0E0,0E0,0E0,0E0,0E0,0E0,0E0,0E0,0E0,0E0,0E0,0E0,0E0,0E0,0E0,0E0],"parents":[2147483647,0,0,1,1,2,2,3,3,4,4,5,5,6,6,7,7,8,8,9,9,10,10,11,11,12,12,13,13,14,14,15,15,16,16,17,17,18,18,19,19,20,20,21,21,22,22,23,23,24,24,25,25,26,26,27,27,28,28,29,29,30,30],"right_children":[2,4,6,8,10,12,14,16,18,20,22,24,26,28,30,32,34,36,38,40,42,44,46,48,50,52,54,56,58,60,62,-1,-1,-1,-1,-1,-1,-1,-1,-1,-1,-1,-1,-1,-1,-1,-1,-1,-1,-1,-1,-1,-1,-1,-1,-1,-1,-1,-1,-1,-1,-1,-1],"split_conditions":[1.6934443E3,1.7280239E3,1.54E1,9.8E0,5.6E0,1.7380831E3,1.1E1,8E0,1.5964442E3,1E0,3.2E0,1.04E1,1.22E1,5E0,6.8E0,1.72E1,1.6589708E3,1.22E1,6E0,1.8E0,3.4E0,6.4E0,2E0,3.6E0,5E0,7.2E0,4.4E0,1.876796E3,1.12E1,4E0,3E0,-1.367476E-2,1.0066614E-1,-3.114121E-2,-8.697074E-2,1.1715605E-2,6.2187146E-2,1.0448035E-2,-3.3651773E-2,8.043685E-2,-1.5177036E-2,-1.724095E-1,4.879074E-2,-3.20253E-2,-5.9762668E-2,1.7102776E-1,3.0617E-3,1.20905235E-1,-8.30108E-3,9.2426315E-2,3.9047953E-2,1.9805817E-2,-3.920492E-2,-1.5832552E-1,1.6573189E-1,2.6030792E-2,1.5532292E-1,1.7563152E-1,-1.9403069E-1,7.055058E-2,-5.1966943E-2,1.1664259E-1,-5.3050764E-2],"split_indices":[16,15,3,3,3,15,13,4,15,12,8,3,4,13,5,2,15,3,5,0,0,4,0,4,5,4,5,16,5,12,1,0,0,0,0,0,0,0,0,0,0,0,0,0,0,0,0,0,0,0,0,0,0,0,0,0,0,0,0,0,0,0,0],"split_type":[0,0,0,0,0,0,0,0,0,0,0,0,0,0,0,0,0,0,0,0,0,0,0,0,0,0,0,0,0,0,0,0,0,0,0,0,0,0,0,0,0,0,0,0,0,0,0,0,0,0,0,0,0,0,0,0,0,0,0,0,0,0,0],"sum_hessian":[6.055E3,4.292E3,1.763E3,3.277E3,1.015E3,1.428E3,3.35E2,1.773E3,1.504E3,3E1,9.85E2,1.118E3,3.1E2,2.22E2,1.13E2,1.503E3,2.7E2,6.68E2,8.36E2,2E0,2.8E1,9.81E2,4E0,2.4E2,8.78E2,2.96E2,1.4E1,1.03E2,1.19E2,5E1,6.3E1,1.486E3,1.7E1,1.85E2,8.5E1,4.87E2,1.81E2,5.92E2,2.44E2,1E0,1E0,2.7E1,1E0,2.99E2,6.82E2,3E0,1E0,2.2E1,2.18E2,2.69E2,6.09E2,1.49E2,1.47E2,2E0,1.2E1,7.8E1,2.5E1,1.17E2,2E0,1.3E1,3.7E1,5E1,1.3E1],"tree_param":{"num_deleted":"0","num_feature":"18","num_nodes":"63","size_leaf_vector":"1"}},{"base_weights":[-2.5592273E-2,8.809333E-1,-3.813486E-1,4.5060202E-1,1.4010999E0,-1.9832788E-1,-1.0115086E0,3.107423E-1,1.4245735E0,1.8103961E0,6.4356625E-1,-3.6839193E-1,2.7018553E-1,-1.0358747E0,1.9662118E-1,5.1176316E-1,-2.8125048E-1,1.6980026E0,-3.1147401E0,1.7450492E0,6.899776E0,4.22415E-1,3.9359868E0,-4.4617066E-1,4.9314448E-1,5.7146177E0,2.4552342E-1,-2.7764747E0,-9.698929E-1,7.946311E-3,5.0520312E-2,-2.9615754E-2,5.4094184E-2,7.278128E-2,2.8484985E-1,-1.9144075E-2,-2.0654538E-1,6.678071E-2,1.2239804E-1,4.0452203E-1,2.3661375E-2,5.6614008E-2,-1.8327696E-2,2.6532817E-1,-9.225142E-2,-5.051272E-2,-1.6345412E-2,1.6563573E-1,1.1846158E-2,1.19533025E-1,3.9216223E-1,2.9796345E-2,-6.783683E-3,-4.5082983E-2,-1.8577182E-1,-4.3023136E-2,-8.69432E-2],"categories":[],"categories_nodes":[],"categories_segments":[],"categories_sizes":[],"default_left":[0,1,0,0,1,1,1,0,0,1,0,1,0,0,0,0,1,0,0,0,0,0,0,0,0,0,0,1,1,0,0,0,0,0,0,0,0,0,0,0,0,0,0,0,0,0,0,0,0,0,0,0,0,0,0,0,0],"id":22,"left_children":[1,3,5,7,9,11,13,15,17,19,21,23,25,27,-1,29,31,33,35,37,39,41,43,45,47,49,51,53,55,-1,-1,-1,-1,-1,-1,-1,-1,-1,-1,-1,-1,-1,-1,-1,-1,-1,-1,-1,-1,-1,-1,-1,-1,-1,-1,-1,-1],"loss_changes":[1.9498618E3,3.807987E2,5.0057245E2,1.26786224E2,2.378877E2,2.6829327E2,1.21766846E2,9.748832E1,1.5050693E2,1.5424695E2,1.9638681E2,1.6573276E2,1.19038124E2,1.090542E2,0E0,1.0733859E2,8.8837555E1,9.9295685E1,1.7850525E1,1.3918994E2,4.208255E1,1.437908E2,1.4448727E2,1.5211255E2,1.4731412E2,9.551315E0,1.194949E2,5.8263214E1,7.751941E1,0E0,0E0,0E0,0E0,0E0,0E0,0E0,0E0,0E0,0E0,0E0,0E0,0E0,0E0,0E0,0E0,0E0,0E0,0E0,0E0,0E0,0E0,0E0,0E0,0E0,0E0,0E0,0E0],"parents":[2147483647,0,0,1,1,2,2,3,3,4,4,5,5,6,6,7,7,8,8,9,9,10,10,11,11,12,12,13,13,15,15,16,16,17,17,18,18,19,19,20,20,21,21,22,22,23,23,24,24,25,25,26,26,27,27,28,28],"right_children":[2,4,6,8,10,12,14,16,18,20,22,24,26,28,-1,30,32,34,36,38,40,42,44,46,48,50,52,54,56,-1,-1,-1,-1,-1,-1,-1,-1,-1,-1,-1,-1,-1,-1,-1,-1,-1,-1,-1,-1,-1,-1,-1,-1,-1,-1,-1,-1],"split_conditions":[-8.0815994E1,1.26E1,1.5394196E2,1.846292E3,6E0,1.14E1,3.2E0,1.1E1,7.4E0,2.6E0,2.4E0,4E-1,1.4905822E3,6E0,1.9662118E-1,5E0,1.18E1,3E0,1.4E0,6.4E0,1.58E1,1.8E0,3E0,3E0,1E0,1.4E0,1.4841854E1,1.6E0,2.6E0,7.946311E-3,5.0520312E-2,-2.9615754E-2,5.4094184E-2,7.278128E-2,2.8484985E-1,-1.9144075E-2,-2.0654538E-1,6.678071E-2,1.2239804E-1,4.0452203E-1,2.3661375E-2,5.6614008E-2,-1.8327696E-2,2.6532817E-1,-9.225142E-2,-5.051272E-2,-1.6345412E-2,1.6563573E-1,1.1846158E-2,1.19533025E-1,3.9216223E-1,2.9796345E-2,-6.783683E-3,-4.5082983E-2,-1.8577182E-1,-4.3023136E-2,-8.69432E-2],"split_indices":[17,3,17,16,4,3,8,13,7,0,8,11,16,3,0,13,3,9,9,7,3,1,9,12,12,0,17,0,9,0,0,0,0,0,0,0,0,0,0,0,0,0,0,0,0,0,0,0,0,0,0,0,0,0,0,0,0],"split_type":[0,0,0,0,0,0,0,0,0,0,0,0,0,0,0,0,0,0,0,0,0,0,0,0,0,0,0,0,0,0,0,0,0,0,0,0,0,0,0,0,0,0,0,0,0,0,0,0,0,0,0,0,0,0,0,0,0],"sum_hessian":[6.044E3,1.703E3,4.341E3,9.33E2,7.7E2,3.365E3,9.76E2,8.17E2,1.16E2,4.99E2,2.71E2,2.469E3,8.96E2,9.72E2,4E0,6.1E2,2.07E2,1.1E2,6E0,4.94E2,5E0,2.55E2,1.6E1,2.265E3,2.04E2,3E0,8.93E2,3.4E1,9.38E2,3.58E2,2.52E2,1.69E2,3.8E1,1.05E2,5E0,2E0,4E0,3.14E2,1.8E2,4E0,1E0,1.34E2,1.21E2,1.3E1,3E0,3.94E2,1.871E3,1.6E1,1.88E2,2E0,1E0,4.65E2,4.28E2,1.2E1,2.2E1,8.23E2,1.15E2],"tree_param":{"num_deleted":"0","num_feature":"18","num_nodes":"57","size_leaf_vector":"1"}},{"base_weights":[-3.3363547E-2,7.432897E-1,-4.3665838E-1,9.670975E-2,1.1354439E0,-2.3676874E-1,-1.061327E0,-4.6881465E-3,1.8136669E0,1.2333673E0,-8.3817816E-1,-7.89309E-1,-7.370043E-2,-4.1386428E-1,-1.273639E0,9.668407E-1,-1.7424005E-1,2.7719207E0,-2.2208667E0,1.5066268E0,7.0520705E-1,-1.332007E0,5.473692E-1,-1.6293238E0,-5.872568E-1,7.3546755E-1,-1.5375173E-1,-1.1875107E0,3.4427744E-1,-1.383706E0,1.9442579E-1,7.662574E-2,-5.2018948E-2,2.61088E-2,-1.5568154E-2,2.359515E-1,2.8132154E-2,-1.4136405E-1,6.576123E-2,7.146733E-2,2.7664724E-1,3.0432498E-2,1.8555386E-1,-1.27066E-1,-1.072657E-2,8.644214E-2,-9.534032E-2,-1.0459099E-1,-3.1788405E-2,-1.4801823E-2,-6.0101427E-2,1.20660976E-1,2.6425019E-2,-1.2039309E-2,3.0003164E-2,-2.861352E-2,-1.20184235E-1,1.0579192E-1,-2.0599598E-3,-1.578823E-1,-6.54292E-2,2.4563208E-1,-2.0601818E-2],"categories":[],"categories_nodes":[],"categories_segments":[],"categories_sizes":[],"default_left":[0,1,0,0,0,1,1,1,0,1,0,0,0,0,1,1,0,0,0,0,0,0,0,0,0,0,1,0,1,1,0,0,0,0,0,0,0,0,0,0,0,0,0,0,0,0,0,0,0,0,0,0,0,0,0,0,0,0,0,0,0,0,0],"id":23,"left_children":[1,3,5,7,9,11,13,15,17,19,21,23,25,27,29,31,33,35,37,39,41,43,45,47,49,51,53,55,57,59,61,-1,-1,-1,-1,-1,-1,-1,-1,-1,-1,-1,-1,-1,-1,-1,-1,-1,-1,-1,-1,-1,-1,-1,-1,-1,-1,-1,-1,-1,-1,-1,-1],"loss_changes":[1.9125342E3,5.290679E2,5.0158044E2,1.3737013E2,2.520835E2,2.7439197E2,1.3336292E2,1.23052986E2,1.7626477E2,1.7761157E2,4.3150944E1,1.1683359E2,1.5252855E2,1.4234996E2,1.187113E2,1.2762735E2,6.08972E1,1.5220627E2,2.3017536E1,2.4568237E2,1.20802185E2,6.161817E1,5.2588814E1,6.024518E1,1.0008226E2,7.23394E1,1.4067654E2,8.841316E1,8.40833E1,8.6752686E1,1.50818E2,0E0,0E0,0E0,0E0,0E0,0E0,0E0,0E0,0E0,0E0,0E0,0E0,0E0,0E0,0E0,0E0,0E0,0E0,0E0,0E0,0E0,0E0,0E0,0E0,0E0,0E0,0E0,0E0,0E0,0E0,0E0,0E0],"parents":[2147483647,0,0,1,1,2,2,3,3,4,4,5,5,6,6,7,7,8,8,9,9,10,10,11,11,12,12,13,13,14,14,15,15,16,16,17,17,18,18,19,19,20,20,21,21,22,22,23,23,24,24,25,25,26,26,27,27,28,28,29,29,30,30],"right_children":[2,4,6,8,10,12,14,16,18,20,22,24,26,28,30,32,34,36,38,40,42,44,46,48,50,52,54,56,58,60,62,-1,-1,-1,-1,-1,-1,-1,-1,-1,-1,-1,-1,-1,-1,-1,-1,-1,-1,-1,-1,-1,-1,-1,-1,-1,-1,-1,-1,-1,-1,-1,-1],"split_conditions":[-5.5483402E1,1.1E1,1.5394196E2,1.8496938E3,1.7511367E3,8E0,6E0,3.6E0,8E0,6.2E0,2E-1,3.2E0,4.2E0,9.6E0,1.32E1,1.4E0,4.6E0,1.6E0,1.92834E3,8.8E0,1.08E1,1.8804205E3,1.52E1,7.2E0,5.8616257E1,1E0,2.2E0,1E0,1E1,5.6E0,3E0,7.662574E-2,-5.2018948E-2,2.61088E-2,-1.5568154E-2,2.359515E-1,2.8132154E-2,-1.4136405E-1,6.576123E-2,7.146733E-2,2.7664724E-1,3.0432498E-2,1.8555386E-1,-1.27066E-1,-1.072657E-2,8.644214E-2,-9.534032E-2,-1.0459099E-1,-3.1788405E-2,-1.4801823E-2,-6.0101427E-2,1.20660976E-1,2.6425019E-2,-1.2039309E-2,3.0003164E-2,-2.861352E-2,-1.20184235E-1,1.0579192E-1,-2.0599598E-3,-1.578823E-1,-6.54292E-2,2.4563208E-1,-2.0601818E-2],"split_indices":[17,3,17,16,15,3,4,4,4,4,11,7,6,3,3,1,6,8,16,7,4,16,3,3,17,12,8,1,3,3,13,0,0,0,0,0,0,0,0,0,0,0,0,0,0,0,0,0,0,0,0,0,0,0,0,0,0,0,0,0,0,0,0],"split_type":[0,0,0,0,0,0,0,0,0,0,0,0,0,0,0,0,0,0,0,0,0,0,0,0,0,0,0,0,0,0,0,0,0,0,0,0,0,0,0,0,0,0,0,0,0,0,0,0,0,0,0,0,0,0,0,0,0,0,0,0,0,0,0],"sum_hessian":[6.104E3,2.086E3,4.018E3,7.88E2,1.298E3,3.045E3,9.73E2,7.45E2,4.3E1,1.237E3,6.1E1,6.93E2,2.352E3,2.41E2,7.32E2,1.1E2,6.35E2,3.5E1,8E0,8.14E2,4.23E2,4.5E1,1.6E1,1.33E2,5.6E2,2.11E2,2.141E3,1.19E2,1.22E2,6.81E2,5.1E1,8.6E1,2.4E1,1.04E2,5.31E2,1.8E1,1.7E1,7E0,1E0,8E2,1.4E1,4.11E2,1.2E1,2.1E1,2.4E1,1.1E1,5E0,9E1,4.3E1,3.81E2,1.79E2,2.2E1,1.89E2,1.92E3,2.21E2,8E1,3.9E1,2.1E1,1.01E2,2.6E1,6.55E2,5E0,4.6E1],"tree_param":{"num_deleted":"0","num_feature":"18","num_nodes":"63","size_leaf_vector":"1"}},{"base_weights":[-3.340265E-2,-2.9148868E-1,9.803093E-1,-8.9904524E-2,-9.388327E-1,1.2468957E0,-8.138938E-2,-2.3653781E-1,4.7720903E-1,-1.1245146E0,-2.9071173E-1,-1.230352E0,1.2995671E0,3.3317478E0,-1.7978017E-1,-1.185421E-1,-7.924737E-1,1.2445184E0,2.6491335E-1,-1.3354654E0,-4.1998923E-1,-1.8021041E-1,-2.1958268E0,-2.185128E0,3.3737273E0,1.2803384E0,3.5161838E-1,-9.835189E-1,5.2545586E0,4.752219E-3,-2.1219902E0,-2.6562149E-2,1.5113379E-3,1.2144763E-2,-4.8654683E-2,5.4087777E-2,2.6751575E-1,1.7772248E-2,-8.650034E-2,-5.811059E-2,-1.07147984E-1,-8.1886284E-2,1.0252082E-3,6.1394926E-3,-5.1715862E-2,-1.6309279E-1,6.423547E-2,7.886517E-2,-1.24961495E-1,3.538859E-2,2.0132278E-1,-1.9346766E-2,6.644491E-2,-6.4426E-2,-9.337926E-3,3.2402983E-1,8.760142E-3,-7.044576E-3,1.5532444E-1,6.73148E-2,-1.3874161E-1],"categories":[],"categories_nodes":[],"categories_segments":[],"categories_sizes":[],"default_left":[0,0,0,1,1,0,0,1,0,0,0,0,0,0,0,0,0,0,0,0,0,0,0,0,0,0,0,0,0,0,0,0,0,0,0,0,0,0,0,0,0,0,0,0,0,0,0,0,0,0,0,0,0,0,0,0,0,0,0,0,0],"id":24,"left_children":[1,3,5,7,9,11,13,15,17,19,21,23,25,27,29,31,33,35,37,39,41,43,45,47,49,51,-1,53,55,57,59,-1,-1,-1,-1,-1,-1,-1,-1,-1,-1,-1,-1,-1,-1,-1,-1,-1,-1,-1,-1,-1,-1,-1,-1,-1,-1,-1,-1,-1,-1],"loss_changes":[1.5870408E3,6.308556E2,3.4851672E2,3.0679858E2,1.3782837E2,1.2999158E2,8.388266E1,1.9217393E2,1.2314586E2,1.320083E2,5.3707344E1,9.9685165E1,9.726172E1,6.325004E1,8.674304E1,1.4853549E2,9.61716E1,1.0380875E2,1.0807389E2,9.348181E1,1.1106938E2,6.327288E1,5.6135475E1,2.521421E1,4.1107597E0,7.8400024E1,0E0,4.8839617E-1,3.0001999E1,1.00725845E2,5.1284836E1,0E0,0E0,0E0,0E0,0E0,0E0,0E0,0E0,0E0,0E0,0E0,0E0,0E0,0E0,0E0,0E0,0E0,0E0,0E0,0E0,0E0,0E0,0E0,0E0,0E0,0E0,0E0,0E0,0E0,0E0],"parents":[2147483647,0,0,1,1,2,2,3,3,4,4,5,5,6,6,7,7,8,8,9,9,10,10,11,11,12,12,13,13,14,14,15,15,16,16,17,17,18,18,19,19,20,20,21,21,22,22,23,23,24,24,25,25,27,27,28,28,29,29,30,30],"right_children":[2,4,6,8,10,12,14,16,18,20,22,24,26,28,30,32,34,36,38,40,42,44,46,48,50,52,-1,54,56,58,60,-1,-1,-1,-1,-1,-1,-1,-1,-1,-1,-1,-1,-1,-1,-1,-1,-1,-1,-1,-1,-1,-1,-1,-1,-1,-1,-1,-1,-1,-1],"split_conditions":[1.7517955E3,1.7280239E3,1.7511367E3,1.16E1,1.18E1,8.8E0,1.7565612E3,7.2E0,1.5541508E3,6E0,2.22E1,-1.4711891E2,1.02E1,5.6E0,9.6E0,8.2E0,3.2E0,1.553158E3,1.7433018E3,1.6497925E3,6E0,7.2E0,5.2E0,1.7593423E3,8E0,3.6E0,3.5161838E-1,1.58E1,1.76E1,1.84E1,1.06E1,-2.6562149E-2,1.5113379E-3,1.2144763E-2,-4.8654683E-2,5.4087777E-2,2.6751575E-1,1.7772248E-2,-8.650034E-2,-5.811059E-2,-1.07147984E-1,-8.1886284E-2,1.0252082E-3,6.1394926E-3,-5.1715862E-2,-1.6309279E-1,6.423547E-2,7.886517E-2,-1.24961495E-1,3.538859E-2,2.0132278E-1,-1.9346766E-2,6.644491E-2,-6.4426E-2,-9.337926E-3,3.2402983E-1,8.760142E-3,-7.044576E-3,1.5532444E-1,6.73148E-2,-1.3874161E-1],"split_indices":[16,15,15,3,3,3,16,6,15,12,2,17,7,6,6,3,5,15,16,16,6,5,5,16,3,5,0,2,2,3,3,0,0,0,0,0,0,0,0,0,0,0,0,0,0,0,0,0,0,0,0,0,0,0,0,0,0,0,0,0,0],"split_type":[0,0,0,0,0,0,0,0,0,0,0,0,0,0,0,0,0,0,0,0,0,0,0,0,0,0,0,0,0,0,0,0,0,0,0,0,0,0,0,0,0,0,0,0,0,0,0,0,0,0,0,0,0,0,0,0,0,0,0,0,0],"sum_hessian":[6.064E3,4.834E3,1.23E3,3.687E3,1.147E3,9.83E2,2.47E2,2.93E3,7.57E2,8.91E2,2.56E2,2E1,9.63E2,6E0,2.41E2,2.418E3,5.12E2,1.63E2,5.94E2,6.85E2,2.06E2,2.43E2,1.3E1,1.7E1,3E0,9.61E2,2E0,2E0,4E0,2.21E2,2E1,6.4E2,1.778E3,7.6E1,4.36E2,1.58E2,5E0,5.69E2,2.5E1,5.66E2,1.19E2,5.4E1,1.52E2,1.8E2,6.3E1,1E1,3E0,1E0,1.6E1,1E0,2E0,2.7E1,9.34E2,1E0,1E0,3E0,1E0,2.12E2,9E0,3E0,1.7E1],"tree_param":{"num_deleted":"0","num_feature":"18","num_nodes":"61","size_leaf_vector":"1"}},{"base_weights":[-1.0230397E-2,-2.9482946E-1,6.941867E-1,-5.578984E-2,-7.555539E-1,9.038172E-1,-8.044099E-2,-1.7353846E-1,4.353937E-1,-9.4905037E-1,-1.154942E-1,3.2180303E-1,1.177362E0,-3.6713037E-1,6.4515513E-1,3.509669E0,-1.8471164E-1,2.7711182E0,3.4676608E-1,-9.752594E-1,2.0943727E0,-1.4652925E0,3.262302E-1,5.75736E-1,-3.175987E-1,1.6293198E0,8.7180215E-1,-6.843894E-1,9.0282935E-1,9.006715E-2,2.6443827E0,2.1993445E-1,4.2903997E-2,-4.2450406E-2,-6.230327E-3,4.7504444E-2,2.6919505E-1,1.6895556E-1,1.411009E-2,8.311231E-2,-5.0139762E-2,1.7023882E-1,3.2665372E-2,-8.081123E-2,2.8032532E-1,7.863601E-2,-1.0831059E-2,3.1629145E-2,-2.0082335E-1,-2.1935059E-2,1.7428507E-1,6.9433205E-2,2.1792963E-1,1.2336148E-2,6.5016516E-2,-1.5641445E-2,-8.931985E-2,1.01336434E-1,-1.4806698E-2,-1.0372875E-1,3.1495158E-2,-1.3392142E-2,2.107713E-1],"categories":[],"categories_nodes":[],"categories_segments":[],"categories_sizes":[],"default_left":[0,0,0,1,0,0,0,0,0,0,0,1,1,0,0,0,0,0,0,0,0,0,0,1,0,0,0,0,0,0,0,0,0,0,0,0,0,0,0,0,0,0,0,0,0,0,0,0,0,0,0,0,0,0,0,0,0,0,0,0,0,0,0],"id":25,"left_children":[1,3,5,7,9,11,13,15,17,19,21,23,25,27,29,31,33,35,37,39,41,43,45,47,49,51,53,55,57,59,61,-1,-1,-1,-1,-1,-1,-1,-1,-1,-1,-1,-1,-1,-1,-1,-1,-1,-1,-1,-1,-1,-1,-1,-1,-1,-1,-1,-1,-1,-1,-1,-1],"loss_changes":[1.2170967E3,4.7616602E2,2.837603E2,1.6479303E2,1.8281592E2,2.1853064E2,7.782858E1,9.521815E1,1.1310141E2,9.249634E1,2.0558417E2,7.1785904E1,1.2770325E2,1.0859674E2,1.1739502E2,1.2726784E1,9.140827E1,9.0043884E1,1.0320202E2,8.337073E1,1.6659409E1,9.9787155E1,1.76272E2,8.503334E1,5.9563385E1,2.4090973E2,1.4968307E2,8.74756E1,7.336594E1,9.9465126E1,1.0635942E2,0E0,0E0,0E0,0E0,0E0,0E0,0E0,0E0,0E0,0E0,0E0,0E0,0E0,0E0,0E0,0E0,0E0,0E0,0E0,0E0,0E0,0E0,0E0,0E0,0E0,0E0,0E0,0E0,0E0,0E0,0E0,0E0],"parents":[2147483647,0,0,1,1,2,2,3,3,4,4,5,5,6,6,7,7,8,8,9,9,10,10,11,11,12,12,13,13,14,14,15,15,16,16,17,17,18,18,19,19,20,20,21,21,22,22,23,23,24,24,25,25,26,26,27,27,28,28,29,29,30,30],"right_children":[2,4,6,8,10,12,14,16,18,20,22,24,26,28,30,32,34,36,38,40,42,44,46,48,50,52,54,56,58,60,62,-1,-1,-1,-1,-1,-1,-1,-1,-1,-1,-1,-1,-1,-1,-1,-1,-1,-1,-1,-1,-1,-1,-1,-1,-1,-1,-1,-1,-1,-1,-1,-1],"split_conditions":[1.6934443E3,1.670833E3,1.7380831E3,1.14E1,1.8E0,1.16E1,2.2E0,1.4E0,3.4E0,2.34E1,4E0,1.4E1,1.2E1,2E1,1.8E0,1.4E0,6.8E0,1.16E1,1.499231E3,9.4E0,5E0,1.6903483E3,1.7190347E3,2.8E0,2.8E0,1.6759269E3,1.6E0,1.76E1,1.6E0,4.2E0,6E0,2.1993445E-1,4.2903997E-2,-4.2450406E-2,-6.230327E-3,4.7504444E-2,2.6919505E-1,1.6895556E-1,1.411009E-2,8.311231E-2,-5.0139762E-2,1.7023882E-1,3.2665372E-2,-8.081123E-2,2.8032532E-1,7.863601E-2,-1.0831059E-2,3.1629145E-2,-2.0082335E-1,-2.1935059E-2,1.7428507E-1,6.9433205E-2,2.1792963E-1,1.2336148E-2,6.5016516E-2,-1.5641445E-2,-8.931985E-2,1.01336434E-1,-1.4806698E-2,-1.0372875E-1,3.1495158E-2,-1.3392142E-2,2.107713E-1],"split_indices":[16,15,15,3,8,3,9,5,6,2,13,2,2,2,8,0,3,2,16,2,13,16,15,0,9,15,9,2,9,5,6,0,0,0,0,0,0,0,0,0,0,0,0,0,0,0,0,0,0,0,0,0,0,0,0,0,0,0,0,0,0,0,0],"split_type":[0,0,0,0,0,0,0,0,0,0,0,0,0,0,0,0,0,0,0,0,0,0,0,0,0,0,0,0,0,0,0,0,0,0,0,0,0,0,0,0,0,0,0,0,0,0,0,0,0,0,0,0,0,0,0,0,0,0,0,0,0,0,0],"sum_hessian":[6.069E3,4.323E3,1.746E3,2.847E3,1.476E3,1.374E3,3.72E2,2.297E3,5.5E2,1.133E3,3.43E2,4.4E2,9.34E2,2.67E2,1.05E2,6E0,2.291E3,1.9E1,5.31E2,1.124E3,9E0,8.4E1,2.59E2,3.15E2,1.25E2,3.75E2,5.59E2,2.14E2,5.3E1,8.3E1,2.2E1,4E0,2E0,1.89E2,2.102E3,1.2E1,7E0,1E1,5.21E2,1.1E1,1.113E3,4E0,5E0,8.3E1,1E0,7.8E1,1.81E2,3.12E2,3E0,1.22E2,3E0,3.46E2,2.9E1,2.28E2,3.31E2,1.61E2,5.3E1,2.7E1,2.6E1,1.6E1,6.7E1,8E0,1.4E1],"tree_param":{"num_deleted":"0","num_feature":"18","num_nodes":"63","size_leaf_vector":"1"}},{"base_weights":[-2.687728E-2,-2.664273E-1,9.256506E-1,-9.165777E-2,-8.512593E-1,1.2031841E0,-6.470442E-2,-8.430839E-3,-7.487341E-1,-3.4472308E-1,-1.0262065E0,-1.4035908E0,1.2605679E0,1.5891123E-1,-1.1473476E0,-5.104865E-2,1.3919548E0,-6.8712465E-2,-1.2486315E0,-4.13476E-1,3.6293862E0,-1.8096259E0,-8.0921984E-1,-2.0958042E0,1.7241456E-1,1.092501E0,2.2632823E0,-3.0171325E0,2.4559633E-1,1.993448E-1,-1.4713336E0,-9.43097E-3,1.9308746E-2,8.602579E-2,-1.5625627E-1,2.1186387E-2,-5.9332278E-2,-4.8884053E-2,-1.1909308E-1,-2.9551743E-2,5.840989E-2,5.706134E-2,2.4538751E-1,-1.3519801E-1,-7.5785674E-2,-4.3028243E-2,8.8841654E-2,-1.6509938E-1,-3.4002017E-2,5.11168E-2,1.8906653E-1,1.6640185E-1,7.908835E-2,-2.7058745E-2,-1.7020445E-1,2.830871E-3,7.3763266E-2,-4.4847522E-2,-1.5564711E-1],"categories":[],"categories_nodes":[],"categories_segments":[],"categories_sizes":[],"default_left":[0,0,0,1,0,0,0,1,0,0,0,0,0,0,0,1,0,0,0,0,0,0,0,0,0,0,0,0,0,0,0,0,0,0,0,0,0,0,0,0,0,0,0,0,0,0,0,0,0,0,0,0,0,0,0,0,0,0,0],"id":26,"left_children":[1,3,5,7,9,11,13,15,17,19,21,23,25,27,29,31,33,35,37,39,41,43,45,47,-1,49,51,53,55,-1,57,-1,-1,-1,-1,-1,-1,-1,-1,-1,-1,-1,-1,-1,-1,-1,-1,-1,-1,-1,-1,-1,-1,-1,-1,-1,-1,-1,-1],"loss_changes":[1.3852874E3,4.957466E2,3.354032E2,2.0430226E2,9.854285E1,1.4432544E2,6.506405E1,1.980342E2,1.4268939E2,8.0191345E1,1.3945856E2,7.775623E1,1.547594E2,6.213639E1,8.23835E1,1.9375317E2,1.5082214E2,9.904503E1,7.19772E1,8.0449036E1,1.0303009E1,4.295282E1,8.796945E1,3.0200264E1,0E0,1.4725238E2,9.1246826E1,3.9063187E0,5.0575638E1,0E0,3.8695976E1,0E0,0E0,0E0,0E0,0E0,0E0,0E0,0E0,0E0,0E0,0E0,0E0,0E0,0E0,0E0,0E0,0E0,0E0,0E0,0E0,0E0,0E0,0E0,0E0,0E0,0E0,0E0,0E0],"parents":[2147483647,0,0,1,1,2,2,3,3,4,4,5,5,6,6,7,7,8,8,9,9,10,10,11,11,12,12,13,13,14,14,15,15,16,16,17,17,18,18,19,19,20,20,21,21,22,22,23,23,25,25,26,26,27,27,28,28,30,30],"right_children":[2,4,6,8,10,12,14,16,18,20,22,24,26,28,30,32,34,36,38,40,42,44,46,48,-1,50,52,54,56,-1,58,-1,-1,-1,-1,-1,-1,-1,-1,-1,-1,-1,-1,-1,-1,-1,-1,-1,-1,-1,-1,-1,-1,-1,-1,-1,-1,-1,-1],"split_conditions":[1.7534685E3,1.7380831E3,1.7360411E3,8.4E0,6.2E0,8.8E0,8.6E0,1.68E1,6.6E0,3E0,1.5E1,2.4E0,2.4E0,8E-1,3.8E0,1.14E1,1.7285226E3,1.6500559E3,2E-1,6.4E0,1E0,8.2E0,2.6E0,4.6E0,1.7241456E-1,8.8E0,1.18E1,2E0,8E0,1.993448E-1,2.4E0,-9.43097E-3,1.9308746E-2,8.602579E-2,-1.5625627E-1,2.1186387E-2,-5.9332278E-2,-4.8884053E-2,-1.1909308E-1,-2.9551743E-2,5.840989E-2,5.706134E-2,2.4538751E-1,-1.3519801E-1,-7.5785674E-2,-4.3028243E-2,8.8841654E-2,-1.6509938E-1,-3.4002017E-2,5.11168E-2,1.8906653E-1,1.6640185E-1,7.908835E-2,-2.7058745E-2,-1.7020445E-1,2.830871E-3,7.3763266E-2,-4.4847522E-2,-1.5564711E-1],"split_indices":[16,15,15,4,4,3,6,2,6,8,2,8,9,9,7,3,16,15,10,7,1,3,8,7,0,7,2,1,6,0,1,0,0,0,0,0,0,0,0,0,0,0,0,0,0,0,0,0,0,0,0,0,0,0,0,0,0,0,0],"split_type":[0,0,0,0,0,0,0,0,0,0,0,0,0,0,0,0,0,0,0,0,0,0,0,0,0,0,0,0,0,0,0,0,0,0,0,0,0,0,0,0,0,0,0,0,0,0,0,0,0,0,0,0,0,0,0,0,0,0,0],"sum_hessian":[6.069E3,4.85E3,1.219E3,3.735E3,1.115E3,9.52E2,2.67E2,3.316E3,4.19E2,2.87E2,8.28E2,2E1,9.32E2,2.22E2,4.5E1,3.219E3,9.7E1,1.78E2,2.41E2,2.83E2,4E0,1.78E2,6.5E2,1.8E1,2E0,8E2,1.32E2,5E0,2.17E2,2E0,4.3E1,2.449E3,7.7E2,9.1E1,6E0,1.24E2,5.4E1,1.96E2,4.5E1,2.55E2,2.8E1,2E0,2E0,4.2E1,1.36E2,6.38E2,1.2E1,9E0,9E0,7.81E2,1.9E1,5E1,8.2E1,1E0,4E0,1.89E2,2.8E1,3.3E1,1E1],"tree_param":{"num_deleted":"0","num_feature":"18","num_nodes":"59","size_leaf_vector":"1"}},{"base_weights":[-7.445973E-2,2.7202955E-1,-5.352374E-1,5.565262E-2,9.238138E-1,-6.48221E-1,8.526895E-2,3.7568012E-1,-1.3690223E-1,1.1404514E0,1.3031931E-1,-6.914016E-1,8.280233E-1,4.3668938E-1,-6.695893E-1,1.7655873E-1,8.4104306E-1,-1.3366787E0,-5.858438E-2,1.0731577E0,3.7334461E0,2.6023402E0,-2.4501911E-1,3.1062317E-1,-7.006232E-1,3.0874512E0,1.9155243E-1,3.367132E-1,3.7812934E0,-3.601758E-1,-2.5748188E0,6.616193E-2,3.6100976E-3,-3.773391E-2,5.953738E-2,-3.2371543E-2,-1.3686642E-1,7.379114E-2,-5.643481E-3,2.730769E-1,5.1935203E-2,-2.7509058E-2,2.3453324E-1,2.2825384E-1,4.780944E-3,-3.2926764E-2,5.771626E-2,5.8921993E-2,-3.6598243E-2,2.4192213E-1,7.885369E-2,-2.7929291E-2,1.3380252E-1,2.236145E-2,-1.301762E-1,-4.0785566E-2,2.7247903E-1,2.8012065E-2,-7.06364E-2,-1.8050669E-1,4.1951355E-2],"categories":[],"categories_nodes":[],"categories_segments":[],"categories_sizes":[],"default_left":[0,1,1,0,1,1,0,0,0,0,